{"learner":{"attributes":{"scikit_learn":"{\"_estimator_type\": \"regressor\"}"},"feature_names":[],"feature_types":[],"gradient_booster":{"model":{"cats":{"enc":[],"feature_segments":[],"sorted_idx":[]},"gbtree_model_param":{"num_parallel_tree":"1","num_trees":"800"},"iteration_indptr":[0,1,2,3,4,5,6,7,8,9,10,11,12,13,14,15,16,17,18,19,20,21,22,23,24,25,26,27,28,29,30,31,32,33,34,35,36,37,38,39,40,41,42,43,44,45,46,47,48,49,50,51,52,53,54,55,56,57,58,59,60,61,62,63,64,65,66,67,68,69,70,71,72,73,74,75,76,77,78,79,80,81,82,83,84,85,86,87,88,89,90,91,92,93,94,95,96,97,98,99,100,101,102,103,104,105,106,107,108,109,110,111,112,113,114,115,116,117,118,119,120,121,122,123,124,125,126,127,128,129,130,131,132,133,134,135,136,137,138,139,140,141,142,143,144,145,146,147,148,149,150,151,152,153,154,155,156,157,158,159,160,161,162,163,164,165,166,167,168,169,170,171,172,173,174,175,176,177,178,179,180,181,182,183,184,185,186,187,188,189,190,191,192,193,194,195,196,197,198,199,200,201,202,203,204,205,206,207,208,209,210,211,212,213,214,215,216,217,218,219,220,221,222,223,224,225,226,227,228,229,230,231,232,233,234,235,236,237,238,239,240,241,242,243,244,245,246,247,248,249,250,251,252,253,254,255,256,257,258,259,260,261,262,263,264,265,266,267,268,269,270,271,272,273,274,275,276,277,278,279,280,281,282,283,284,285,286,287,288,289,290,291,292,293,294,295,296,297,298,299,300,301,302,303,304,305,306,307,308,309,310,311,312,313,314,315,316,317,318,319,320,321,322,323,324,325,326,327,328,329,330,331,332,333,334,335,336,337,338,339,340,341,342,343,344,345,346,347,348,349,350,351,352,353,354,355,356,357,358,359,360,361,362,363,364,365,366,367,368,369,370,371,372,373,374,375,376,377,378,379,380,381,382,383,384,385,386,387,388,389,390,391,392,393,394,395,396,397,398,399,400,401,402,403,404,405,406,407,408,409,410,411,412,413,414,415,416,417,418,419,420,421,422,423,424,425,426,427,428,429,430,431,432,433,434,435,436,437,438,439,440,441,442,443,444,445,446,447,448,449,450,451,452,453,454,455,456,457,458,459,460,461,462,463,464,465,466,467,468,469,470,471,472,473,474,475,476,477,478,479,480,481,482,483,484,485,486,487,488,489,490,491,492,493,494,495,496,497,498,499,500,501,502,503,504,505,506,507,508,509,510,511,512,513,514,515,516,517,518,519,520,521,522,523,524,525,526,527,528,529,530,531,532,533,534,535,536,537,538,539,540,541,542,543,544,545,546,547,548,549,550,551,552,553,554,555,556,557,558,559,560,561,562,563,564,565,566,567,568,569,570,571,572,573,574,575,576,577,578,579,580,581,582,583,584,585,586,587,588,589,590,591,592,593,594,595,596,597,598,599,600,601,602,603,604,605,606,607,608,609,610,611,612,613,614,615,616,617,618,619,620,621,622,623,624,625,626,627,628,629,630,631,632,633,634,635,636,637,638,639,640,641,642,643,644,645,646,647,648,649,650,651,652,653,654,655,656,657,658,659,660,661,662,663,664,665,666,667,668,669,670,671,672,673,674,675,676,677,678,679,680,681,682,683,684,685,686,687,688,689,690,691,692,693,694,695,696,697,698,699,700,701,702,703,704,705,706,707,708,709,710,711,712,713,714,715,716,717,718,719,720,721,722,723,724,725,726,727,728,729,730,731,732,733,734,735,736,737,738,739,740,741,742,743,744,745,746,747,748,749,750,751,752,753,754,755,756,757,758,759,760,761,762,763,764,765,766,767,768,769,770,771,772,773,774,775,776,777,778,779,780,781,782,783,784,785,786,787,788,789,790,791,792,793,794,795,796,797,798,799,800],"tree_info":[0,0,0,0,0,0,0,0,0,0,0,0,0,0,0,0,0,0,0,0,0,0,0,0,0,0,0,0,0,0,0,0,0,0,0,0,0,0,0,0,0,0,0,0,0,0,0,0,0,0,0,0,0,0,0,0,0,0,0,0,0,0,0,0,0,0,0,0,0,0,0,0,0,0,0,0,0,0,0,0,0,0,0,0,0,0,0,0,0,0,0,0,0,0,0,0,0,0,0,0,0,0,0,0,0,0,0,0,0,0,0,0,0,0,0,0,0,0,0,0,0,0,0,0,0,0,0,0,0,0,0,0,0,0,0,0,0,0,0,0,0,0,0,0,0,0,0,0,0,0,0,0,0,0,0,0,0,0,0,0,0,0,0,0,0,0,0,0,0,0,0,0,0,0,0,0,0,0,0,0,0,0,0,0,0,0,0,0,0,0,0,0,0,0,0,0,0,0,0,0,0,0,0,0,0,0,0,0,0,0,0,0,0,0,0,0,0,0,0,0,0,0,0,0,0,0,0,0,0,0,0,0,0,0,0,0,0,0,0,0,0,0,0,0,0,0,0,0,0,0,0,0,0,0,0,0,0,0,0,0,0,0,0,0,0,0,0,0,0,0,0,0,0,0,0,0,0,0,0,0,0,0,0,0,0,0,0,0,0,0,0,0,0,0,0,0,0,0,0,0,0,0,0,0,0,0,0,0,0,0,0,0,0,0,0,0,0,0,0,0,0,0,0,0,0,0,0,0,0,0,0,0,0,0,0,0,0,0,0,0,0,0,0,0,0,0,0,0,0,0,0,0,0,0,0,0,0,0,0,0,0,0,0,0,0,0,0,0,0,0,0,0,0,0,0,0,0,0,0,0,0,0,0,0,0,0,0,0,0,0,0,0,0,0,0,0,0,0,0,0,0,0,0,0,0,0,0,0,0,0,0,0,0,0,0,0,0,0,0,0,0,0,0,0,0,0,0,0,0,0,0,0,0,0,0,0,0,0,0,0,0,0,0,0,0,0,0,0,0,0,0,0,0,0,0,0,0,0,0,0,0,0,0,0,0,0,0,0,0,0,0,0,0,0,0,0,0,0,0,0,0,0,0,0,0,0,0,0,0,0,0,0,0,0,0,0,0,0,0,0,0,0,0,0,0,0,0,0,0,0,0,0,0,0,0,0,0,0,0,0,0,0,0,0,0,0,0,0,0,0,0,0,0,0,0,0,0,0,0,0,0,0,0,0,0,0,0,0,0,0,0,0,0,0,0,0,0,0,0,0,0,0,0,0,0,0,0,0,0,0,0,0,0,0,0,0,0,0,0,0,0,0,0,0,0,0,0,0,0,0,0,0,0,0,0,0,0,0,0,0,0,0,0,0,0,0,0,0,0,0,0,0,0,0,0,0,0,0,0,0,0,0,0,0,0,0,0,0,0,0,0,0,0,0,0,0,0,0,0,0,0,0,0,0,0,0,0,0,0,0,0,0,0,0,0,0,0,0,0,0,0,0,0,0,0,0,0,0,0,0,0,0,0,0,0,0,0,0,0,0,0,0,0,0,0,0,0,0,0,0,0,0,0,0,0,0,0,0,0,0,0,0,0,0,0,0,0,0,0,0,0,0,0,0,0,0,0,0,0,0,0,0,0,0,0,0,0,0,0,0,0,0,0,0,0,0,0,0,0,0,0,0,0,0,0,0,0,0,0,0,0,0,0,0,0,0,0,0,0,0,0,0,0,0,0,0,0,0,0,0,0,0,0,0,0,0,0,0,0,0,0,0,0,0,0,0,0,0,0,0,0,0,0,0,0,0,0,0,0,0],"trees":[{"base_weights":[-6.3343593E-3,-9.8425525E-1,5.2125067E-1,-1.0344864E1,-4.4881868E-1,-1.1548731E1,-2.9431775E0,-4.816087E0,-2.1393701E-1,-6.301494E-1,-2.6176074E-1,-2.5073344E-1,-5.811243E-1,-1.118987E0,-4.9689013E-1,-4.1422513E-1,3.7995028E-1,-4.6549916E-2,2.9655935E-3,-2.0224733E0,4.8386622E-2,-1.9010143E0,-8.02596E-2,-5.356462E-2,-1.1894616E-1,-3.5820913E-2,-1.6943203E-1,-8.971705E-2,2.3397667E-2],"categories":[],"categories_nodes":[],"categories_segments":[],"categories_sizes":[],"default_left":[0,0,0,0,0,0,0,0,0,0,0,0,0,0,0,0,0,0,0,0,0,0,0,0,0,0,0,0,0],"id":0,"left_children":[1,3,-1,5,7,9,11,13,15,-1,-1,-1,17,19,-1,21,-1,-1,-1,23,-1,25,27,-1,-1,-1,-1,-1,-1],"loss_changes":[3.9274578E3,1.7595854E3,0E0,1.3531238E2,3.4158398E2,4.051758E1,1.6657742E1,3.107831E2,5.0076666E2,0E0,0E0,0E0,7.2743523E-1,2.2695759E1,0E0,1.5427023E2,0E0,0E0,0E0,1.6386414E-1,0E0,9.801979E1,2.4045848E2,0E0,0E0,0E0,0E0,0E0,0E0],"parents":[2147483647,0,0,1,1,3,3,4,4,5,5,6,6,7,7,8,8,12,12,13,13,15,15,19,19,21,21,22,22],"right_children":[2,4,-1,6,8,10,12,14,16,-1,-1,-1,18,20,-1,22,-1,-1,-1,24,-1,26,28,-1,-1,-1,-1,-1,-1],"split_conditions":[1.6767404E0,-1.3806154E0,5.2125067E-1,-8.3401823E-1,-1.9444982E0,1.1333766E0,-1.7391475E0,-1.9950541E0,9.3532795E-1,-6.301494E-1,-2.6176074E-1,-2.5073344E-1,6.09921E-1,-6.1738265E-1,-4.9689013E-1,4.7984302E-2,3.7995028E-1,-4.6549916E-2,2.9655935E-3,1.0606745E0,4.8386622E-2,-6.724647E-1,-2.516179E-3,-5.356462E-2,-1.1894616E-1,-3.5820913E-2,-1.6943203E-1,-8.971705E-2,2.3397667E-2],"split_indices":[5,6,0,14,7,5,5,7,5,0,0,0,0,3,0,0,0,0,0,5,0,7,4,0,0,0,0,0,0],"split_type":[0,0,0,0,0,0,0,0,0,0,0,0,0,0,0,0,0,0,0,0,0,0,0,0,0,0,0,0,0],"sum_hessian":[3.83E2,3.51E2,3.2E1,1.8E1,3.33E2,1.5E1,3E0,1.6E1,3.17E2,1.2E1,3E0,1E0,2E0,1E1,6E0,3.1E2,7E0,1E0,1E0,7E0,3E0,5.6E1,2.54E2,3E0,4E0,3.2E1,2.4E1,6.1E1,1.93E2],"tree_param":{"num_deleted":"0","num_feature":"16","num_nodes":"29","size_leaf_vector":"1"}},{"base_weights":[-2.1417353E-2,-9.8522353E-1,9.295971E0,-1.0373618E1,-3.8113356E-1,4.9416867E-1,-2.8157815E-1,-3.9339783E0,-1.1657417E1,3.5976658E0,-5.83305E-1,-3.063969E-1,-4.2869282E-1,-6.3578755E-1,-2.5194472E-1,-3.090276E0,6.0845027E0,-4.3930128E-1,-6.815566E0,-3.5043407E-2,2.8914453E-3,-1.9236699E-1,-1.5505314E-3,6.930609E-2,3.1928083E-1,-2.2088149E0,-9.466959E-2,-7.2133295E-2,-5.2422875E-1,-5.8243718E-2,-1.7422588E-1,-7.147986E-2,1.953091E-2],"categories":[],"categories_nodes":[],"categories_segments":[],"categories_sizes":[],"default_left":[0,0,0,0,0,0,0,0,0,0,0,0,0,0,0,0,0,0,0,0,0,0,0,0,0,0,0,0,0,0,0,0,0],"id":1,"left_children":[1,3,5,7,9,-1,-1,11,13,15,17,-1,19,-1,-1,21,23,25,27,-1,-1,-1,-1,-1,-1,29,31,-1,-1,-1,-1,-1,-1],"loss_changes":[3.448558E3,1.9697058E3,3.7132397E2,1.2775098E2,2.659416E2,0E0,0E0,3.5825256E1,5.5005127E1,2.8491193E2,2.7791357E2,0E0,4.37788E-1,0E0,0E0,1.1460983E1,8.125763E0,1.8700885E2,1.2286679E2,0E0,0E0,0E0,0E0,0E0,0E0,6.2528854E1,1.6769702E2,0E0,0E0,0E0,0E0,0E0,0E0],"parents":[2147483647,0,0,1,1,2,2,3,3,4,4,7,7,8,8,9,9,10,10,12,12,15,15,16,16,17,17,18,18,25,25,26,26],"right_children":[2,4,6,8,10,-1,-1,12,14,16,18,-1,20,-1,-1,22,24,26,28,-1,-1,-1,-1,-1,-1,30,32,-1,-1,-1,-1,-1,-1],"split_conditions":[1.6767404E0,-1.3806154E0,-1.6378256E0,-1.6624513E0,-1.6378256E0,4.9416867E-1,-2.8157815E-1,-1.1437017E0,1.1333766E0,-1.4174986E0,1.0557067E0,-3.063969E-1,5.903234E-1,-6.3578755E-1,-2.5194472E-1,6.2297535E-1,-1.3787029E0,4.7984302E-2,-2.0141938E0,-3.5043407E-2,2.8914453E-3,-1.9236699E-1,-1.5505314E-3,6.930609E-2,3.1928083E-1,-3.734682E-1,-2.516179E-3,-7.2133295E-2,-5.2422875E-1,-5.8243718E-2,-1.7422588E-1,-7.147986E-2,1.953091E-2],"split_indices":[5,6,0,8,0,0,0,5,5,8,5,0,5,0,0,5,8,0,7,0,0,0,0,0,0,0,4,0,0,0,0,0,0],"split_type":[0,0,0,0,0,0,0,0,0,0,0,0,0,0,0,0,0,0,0,0,0,0,0,0,0,0,0,0,0,0,0,0,0],"sum_hessian":[3.82E2,3.47E2,3.5E1,2E1,3.27E2,3.4E1,1E0,4E0,1.6E1,1.5E1,3.12E2,2E0,2E0,1.3E1,3E0,4E0,1.1E1,3.06E2,6E0,1E0,1E0,3E0,1E0,1E0,1E1,4.9E1,2.57E2,3E0,3E0,2.8E1,2.1E1,6.8E1,1.89E2],"tree_param":{"num_deleted":"0","num_feature":"16","num_nodes":"33","size_leaf_vector":"1"}},{"base_weights":[-4.1409105E-2,-1.0049791E0,8.944349E0,-1.1589069E1,-5.5563504E-1,4.7489235E-1,-2.7453873E-1,-6.187703E-1,-3.4167316E-2,-4.0138845E0,-2.1140027E-1,-6.4246446E-1,-7.342474E0,6.092527E0,-4.697418E-1,1.0563452E0,-2.0811327E0,-2.3550002E-2,-8.363393E0,6.757345E-2,3.2003355E-1,-2.0400572E-1,-2.2406092E0,2.8191567E-3,5.955711E-2,-3.7447896E-2,-1.17738E-1,-4.5946717E-1,-1.2735562E-1,-1.9334037E-3,-7.7152036E-2,-2.9875476E-2,-1.5870939E-1],"categories":[],"categories_nodes":[],"categories_segments":[],"categories_sizes":[],"default_left":[0,0,0,0,0,0,0,0,0,0,0,0,0,0,0,0,0,0,0,0,0,0,0,0,0,0,0,0,0,0,0,0,0],"id":2,"left_children":[1,3,5,7,9,-1,-1,-1,-1,11,13,15,17,19,21,23,25,-1,27,-1,-1,29,31,-1,-1,-1,-1,-1,-1,-1,-1,-1,-1],"loss_changes":[3.3078418E3,1.6343456E3,3.477732E2,1.116012E2,3.9438077E2,0E0,0E0,0E0,0E0,3.3194498E2,4.9631744E2,4.130277E1,1.0128912E2,8.880829E0,1.3695323E2,1.0111752E0,1.5170631E0,0E0,3.9045166E1,0E0,0E0,5.639552E1,5.6393967E1,0E0,0E0,0E0,0E0,0E0,0E0,0E0,0E0,0E0,0E0],"parents":[2147483647,0,0,1,1,2,2,3,3,4,4,9,9,10,10,11,11,12,12,13,13,14,14,15,15,16,16,18,18,21,21,22,22],"right_children":[2,4,6,8,10,-1,-1,-1,-1,12,14,16,18,20,22,24,26,-1,28,-1,-1,30,32,-1,-1,-1,-1,-1,-1,-1,-1,-1,-1],"split_conditions":[1.6767404E0,-2.1887903E0,-1.6378256E0,-8.384902E-1,-1.4373753E0,4.7489235E-1,-2.7453873E-1,-6.187703E-1,-3.4167316E-2,-1.396171E0,-1.6378256E0,-1.456695E0,-1.3106126E0,-1.3787029E0,4.7428524E-1,-1.6111382E0,1.1863486E0,-2.3550002E-2,-1.1219665E0,6.757345E-2,3.2003355E-1,1.5074283E0,-6.785527E-1,2.8191567E-3,5.955711E-2,-3.7447896E-2,-1.17738E-1,-4.5946717E-1,-1.2735562E-1,-1.9334037E-3,-7.7152036E-2,-2.9875476E-2,-1.5870939E-1],"split_indices":[5,6,0,14,7,0,0,0,0,10,0,10,11,8,1,6,6,0,11,0,0,11,7,0,0,0,0,0,0,0,0,0,0],"split_type":[0,0,0,0,0,0,0,0,0,0,0,0,0,0,0,0,0,0,0,0,0,0,0,0,0,0,0,0,0,0,0,0,0],"sum_hessian":[3.8E2,3.44E2,3.6E1,1.3E1,3.31E2,3.5E1,1E0,1.2E1,1E0,2.9E1,3.02E2,1.5E1,1.4E1,1.1E1,2.91E2,7E0,8E0,2E0,1.2E1,1E0,1E1,2.54E2,3.7E1,1E0,6E0,2E0,6E0,1E1,2E0,2.27E2,2.7E1,1.4E1,2.3E1],"tree_param":{"num_deleted":"0","num_feature":"16","num_nodes":"33","size_leaf_vector":"1"}},{"base_weights":[-2.7126986E-1,-8.68429E-1,4.4233552E-1,-6.218582E0,-9.903497E-2,-1.0151812E1,-3.7824664E0,3.281648E-1,-4.0154666E-1,-5.368642E-1,-1.9202524E-1,-5.9164757E-1,-6.933842E0,-2.0117745E0,-8.914147E-2,7.4402064E-1,-1.2664077E0,-2.6943262E0,-9.460816E0,-9.179318E-1,-3.0689E0,4.5660368E-1,-4.7022375E-1,-3.3313133E-2,5.796649E-2,-2.5518209E-2,-8.127617E-2,-6.769854E-2,-1.6805501E-1,-1.1411152E-1,-5.036431E-1,-9.742179E-2,-3.2100108E-2,-1.5784483E-1,-2.3924565E-2,-1.5658038E-2,6.2340032E-2,-1.7477168E-1,-2.0485183E-3],"categories":[],"categories_nodes":[],"categories_segments":[],"categories_sizes":[],"default_left":[0,0,0,0,0,0,0,0,0,0,0,0,0,0,0,0,0,0,0,0,0,0,0,0,0,0,0,0,0,0,0,0,0,0,0,0,0,0,0],"id":3,"left_children":[1,3,-1,5,7,9,11,-1,13,-1,-1,15,17,19,21,23,25,27,29,31,33,35,37,-1,-1,-1,-1,-1,-1,-1,-1,-1,-1,-1,-1,-1,-1,-1,-1],"loss_changes":[2.125743E3,1.5059778E3,0E0,4.023639E2,6.495895E2,2.15802E1,2.9756174E2,0E0,1.5475809E2,0E0,0E0,1.5362324E1,1.3520667E2,5.4999405E1,5.4079926E1,4.286639E0,2.156971E0,1.7051659E0,1.6553955E1,6.1421127E0,4.1881256E0,6.547485E1,1.9853975E2,0E0,0E0,0E0,0E0,0E0,0E0,0E0,0E0,0E0,0E0,0E0,0E0,0E0,0E0,0E0,0E0],"parents":[2147483647,0,0,1,1,3,3,4,4,5,5,6,6,8,8,11,11,12,12,13,13,14,14,15,15,16,16,17,17,18,18,19,19,20,20,21,21,22,22],"right_children":[2,4,-1,6,8,10,12,-1,14,-1,-1,16,18,20,22,24,26,28,30,32,34,36,38,-1,-1,-1,-1,-1,-1,-1,-1,-1,-1,-1,-1,-1,-1,-1,-1],"split_conditions":[1.767184E0,-1.4373753E0,4.4233552E-1,3.6222696E-1,-1.6378256E0,-1.4962475E0,1.0105544E0,3.281648E-1,4.7984302E-2,-5.368642E-1,-1.9202524E-1,-1.456695E0,-1.3974866E0,-6.724647E-1,-5.209575E-1,5.903234E-1,-1.1800056E0,-6.1738265E-1,-1.9854177E0,-7.3003966E-1,7.328716E-1,-9.4776917E-1,-1.0992544E-1,-3.3313133E-2,5.796649E-2,-2.5518209E-2,-8.127617E-2,-6.769854E-2,-1.6805501E-1,-1.1411152E-1,-5.036431E-1,-9.742179E-2,-3.2100108E-2,-1.5784483E-1,-2.3924565E-2,-1.5658038E-2,6.2340032E-2,-1.7477168E-1,-2.0485183E-3],"split_indices":[5,7,0,5,0,7,5,0,0,0,0,10,10,7,14,5,13,3,7,8,5,14,13,0,0,0,0,0,0,0,0,0,0,0,0,0,0,0,0],"split_type":[0,0,0,0,0,0,0,0,0,0,0,0,0,0,0,0,0,0,0,0,0,0,0,0,0,0,0,0,0,0,0,0,0,0,0,0,0,0,0],"sum_hessian":[3.88E2,3.65E2,2.3E1,4.5E1,3.2E2,1.6E1,2.9E1,1.3E1,3.07E2,1.4E1,2E0,1.5E1,1.4E1,4.9E1,2.58E2,5E0,1E1,6E0,8E0,2.5E1,2.4E1,1.06E2,1.52E2,1E0,4E0,4E0,6E0,3E0,3E0,1E0,7E0,4E0,2.1E1,2.3E1,1E0,5.4E1,5.2E1,1.8E1,1.34E2],"tree_param":{"num_deleted":"0","num_feature":"16","num_nodes":"39","size_leaf_vector":"1"}},{"base_weights":[9.1216505E-2,-7.082776E-1,7.9972606E0,-8.246711E0,-3.1744644E-1,4.2514166E-1,-2.550842E-1,-9.221445E0,-2.9922485E-1,-3.4272017E0,-1.7725605E-1,-9.839922E0,-1.6307037E-1,6.9500445E-3,-2.9391909E-2,-5.2590287E-1,-7.6914997E0,-3.797982E-1,3.221672E-1,-4.3358917E0,-5.473425E-1,-6.850418E-2,5.4144442E-2,-1.1125872E-1,-4.1698647E-1,-1.4099492E0,-6.0992505E-2,-2.674059E-1,-3.248031E-2,-1.3416354E-1,9.476609E-2,-5.348847E-2,4.5442775E-2],"categories":[],"categories_nodes":[],"categories_segments":[],"categories_sizes":[],"default_left":[0,0,0,0,0,0,0,0,0,0,0,0,0,0,0,0,0,0,0,0,0,0,0,0,0,0,0,0,0,0,0,0,0],"id":4,"left_children":[1,3,5,7,9,-1,-1,11,13,15,17,19,-1,-1,-1,21,23,25,-1,27,-1,-1,-1,-1,-1,29,31,-1,-1,-1,-1,-1,-1],"loss_changes":[2.5466401E3,1.0757113E3,2.884104E2,1.3668103E2,1.5154178E2,0E0,0E0,2.6886353E1,4.6114337E-1,1.8153505E2,4.5166562E2,3.783142E1,0E0,0E0,0E0,1.5064756E1,2.7032776E0,1.0697829E2,0E0,1.1451248E1,0E0,0E0,0E0,0E0,0E0,3.291535E2,2.4556232E2,0E0,0E0,0E0,0E0,0E0,0E0],"parents":[2147483647,0,0,1,1,2,2,3,3,4,4,7,7,8,8,9,9,10,10,11,11,15,15,16,16,17,17,19,19,25,25,26,26],"right_children":[2,4,6,8,10,-1,-1,12,14,16,18,20,-1,-1,-1,22,24,26,-1,28,-1,-1,-1,-1,-1,30,32,-1,-1,-1,-1,-1,-1],"split_conditions":[1.6767404E0,-1.3806154E0,-2.516179E-3,-8.3401823E-1,-1.9444982E0,4.2514166E-1,-2.550842E-1,1.1333766E0,8.6360437E-1,-1.5684557E0,9.3532795E-1,-2.9359026E0,-1.6307037E-1,6.9500445E-3,-2.9391909E-2,-6.1738265E-1,-1.9854177E0,-2.516179E-3,3.221672E-1,-1.1437017E0,-5.473425E-1,-6.850418E-2,5.4144442E-2,-1.1125872E-1,-4.1698647E-1,5.4107383E-2,2.3052447E-1,-2.674059E-1,-3.248031E-2,-1.3416354E-1,9.476609E-2,-5.348847E-2,4.5442775E-2],"split_indices":[5,6,4,14,7,0,0,5,3,8,5,6,0,0,0,3,7,4,0,5,0,0,0,0,0,5,8,0,0,0,0,0,0],"split_type":[0,0,0,0,0,0,0,0,0,0,0,0,0,0,0,0,0,0,0,0,0,0,0,0,0,0,0,0,0,0,0,0,0],"sum_hessian":[4.01E2,3.65E2,3.6E1,1.7E1,3.48E2,3.5E1,1E0,1.5E1,2E0,1.4E1,3.34E2,1.3E1,2E0,1E0,1E0,9E0,5E0,3.25E2,9E0,3E0,1E1,6E0,3E0,1E0,4E0,7.6E1,2.49E2,2E0,1E0,5.5E1,2.1E1,1.22E2,1.27E2],"tree_param":{"num_deleted":"0","num_feature":"16","num_nodes":"33","size_leaf_vector":"1"}},{"base_weights":[-3.86531E-2,-7.659751E-1,7.6097226E0,-5.056041E0,-1.3740662E-1,4.0630674E-1,-2.4870709E-1,-9.553859E0,-2.4263973E0,5.0252237E0,-3.883873E-1,-5.5450225E-1,-2.8875074E-1,-2.1275753E-1,-5.0991917E0,5.53819E-1,2.8352654E-1,-8.1068024E-2,-2.2304606E0,7.9785675E-1,-1.1010346E0,-3.1424596E0,-4.6027032E-1,-1.3774395E-2,5.5310823E-2,-1.6319215E0,4.2085508E-1,-6.712675E-1,-2.8626618E0,-1.659468E-2,5.8402795E-2,-2.2357961E-2,-7.312126E-2,-8.082431E-2,-2.0723449E-1,-1.2523493E-1,5.98751E-2,-2.6154703E-2,5.1819425E-2,-5.6103226E-2,-9.645588E-3,-5.1502466E-2,-1.5111129E-1],"categories":[],"categories_nodes":[],"categories_segments":[],"categories_sizes":[],"default_left":[0,0,0,0,0,0,0,0,0,0,0,0,0,0,0,0,0,0,0,0,0,0,0,0,0,0,0,0,0,0,0,0,0,0,0,0,0,0,0,0,0,0,0],"id":5,"left_children":[1,3,5,7,9,-1,-1,11,13,15,17,-1,-1,19,21,23,-1,25,27,29,31,33,-1,-1,-1,35,37,39,41,-1,-1,-1,-1,-1,-1,-1,-1,-1,-1,-1,-1,-1,-1],"loss_changes":[2.2420874E3,9.916541E2,2.6786646E2,5.327185E2,4.191737E2,0E0,0E0,3.4639893E1,1.8232985E2,4.014099E1,1.7417941E2,0E0,0E0,1.7037169E1,8.355902E1,1.6790705E0,0E0,2.0696524E2,4.145024E1,4.151765E0,1.7091064E0,1.0123306E1,0E0,0E0,0E0,1.6351402E2,1.17329605E2,2.8025193E0,5.951935E0,0E0,0E0,0E0,0E0,0E0,0E0,0E0,0E0,0E0,0E0,0E0,0E0,0E0,0E0],"parents":[2147483647,0,0,1,1,2,2,3,3,4,4,7,7,8,8,9,9,10,10,13,13,14,14,15,15,17,17,18,18,19,19,20,20,21,21,25,25,26,26,27,27,28,28],"right_children":[2,4,6,8,10,-1,-1,12,14,16,18,-1,-1,20,22,24,-1,26,28,30,32,34,-1,-1,-1,36,38,40,42,-1,-1,-1,-1,-1,-1,-1,-1,-1,-1,-1,-1,-1,-1],"split_conditions":[1.6767404E0,-1.4373753E0,-1.6378256E0,3.6222696E-1,-1.6378256E0,4.0630674E-1,-2.4870709E-1,-9.9794954E-1,1.0557067E0,-1.3787029E0,4.7428524E-1,-5.5450225E-1,-2.8875074E-1,-1.3606896E0,-1.2921408E0,7.1059114E-1,2.8352654E-1,-2.516179E-3,-6.724647E-1,-2.110868E0,-1.1800056E0,1.2776203E0,-4.6027032E-1,-1.3774395E-2,5.5310823E-2,-3.9991386E-2,2.3569949E-1,-1.075889E0,1.3742763E-1,-1.659468E-2,5.8402795E-2,-2.2357961E-2,-7.312126E-2,-8.082431E-2,-2.0723449E-1,-1.2523493E-1,5.98751E-2,-2.6154703E-2,5.1819425E-2,-5.6103226E-2,-9.645588E-3,-5.1502466E-2,-1.5111129E-1],"split_indices":[5,7,0,5,0,0,0,13,5,8,1,0,0,11,11,5,0,4,7,7,13,5,0,0,0,5,8,0,11,0,0,0,0,0,0,0,0,0,0,0,0,0,0],"split_type":[0,0,0,0,0,0,0,0,0,0,0,0,0,0,0,0,0,0,0,0,0,0,0,0,0,0,0,0,0,0,0,0,0,0,0,0,0,0,0,0,0,0,0],"sum_hessian":[4.01E2,3.67E2,3.4E1,4.6E1,3.21E2,3.3E1,1E0,1.6E1,3E1,1.4E1,3.07E2,1E1,6E0,1.7E1,1.3E1,2E0,1.2E1,2.64E2,4.3E1,8E0,9E0,1E1,3E0,1E0,1E0,6.4E1,2E2,1.3E1,3E1,2E0,6E0,4E0,5E0,5E0,5E0,4.9E1,1.5E1,7.9E1,1.21E2,6E0,7E0,3E0,2.7E1],"tree_param":{"num_deleted":"0","num_feature":"16","num_nodes":"43","size_leaf_vector":"1"}},{"base_weights":[4.6343055E-2,-6.887287E-1,3.8599968E-1,-8.500592E0,-2.4625349E-1,-2.800324E-2,-8.910618E0,3.296346E0,-4.801599E-1,-5.0527114E-1,-5.5894356E0,-3.5270987E0,5.649116E0,-3.542658E-1,-6.9466267E0,-3.1253435E-2,-3.156326E-1,-4.125078E0,-1.3430024E-2,5.3928044E-2,2.9409578E-1,-1.5241574E-1,-1.8057001E0,-1.032964E-1,-3.7547907E-1,-2.2635572E-1,-6.292331E-2,2.099186E-4,-3.894743E-2,-3.19695E-2,-1.2692688E-1],"categories":[],"categories_nodes":[],"categories_segments":[],"categories_sizes":[],"default_left":[0,0,0,0,0,0,0,0,0,0,0,0,0,0,0,0,0,0,0,0,0,0,0,0,0,0,0,0,0,0,0],"id":6,"left_children":[1,3,-1,5,7,-1,9,11,13,-1,15,17,19,21,23,-1,-1,25,-1,-1,-1,27,29,-1,-1,-1,-1,-1,-1,-1,-1],"loss_changes":[2.1939023E3,1.2249841E3,0E0,5.6869995E1,2.8083334E2,0E0,1.4943359E1,3.5705884E2,2.5560559E2,0E0,2.1186356E1,1.0583092E1,1.068042E1,9.113208E1,9.71405E-1,0E0,0E0,6.5193176E-2,0E0,0E0,0E0,2.6987337E1,3.0856071E1,0E0,0E0,0E0,0E0,0E0,0E0,0E0,0E0],"parents":[2147483647,0,0,1,1,3,3,4,4,6,6,7,7,8,8,10,10,11,11,12,12,13,13,14,14,17,17,21,21,22,22],"right_children":[2,4,-1,6,8,-1,10,12,14,-1,16,18,20,22,24,-1,-1,26,-1,-1,-1,28,30,-1,-1,-1,-1,-1,-1,-1,-1],"split_conditions":[1.767184E0,-1.3806154E0,3.8599968E-1,5.7369655E-1,-1.6378256E0,-2.800324E-2,3.6222696E-1,-1.4174986E0,1.3330988E0,-5.0527114E-1,5.903234E-1,6.2297535E-1,-1.3787029E0,4.7428524E-1,1.3525162E0,-3.1253435E-2,-3.156326E-1,2.9719922E-1,-1.3430024E-2,5.3928044E-2,2.9409578E-1,1.3165811E0,-6.724647E-1,-1.032964E-1,-3.7547907E-1,-2.2635572E-1,-6.292331E-2,2.099186E-4,-3.894743E-2,-3.19695E-2,-1.2692688E-1],"split_indices":[5,6,0,2,0,0,5,8,5,0,5,5,8,1,5,0,0,5,0,0,0,10,7,0,0,0,0,0,0,0,0],"split_type":[0,0,0,0,0,0,0,0,0,0,0,0,0,0,0,0,0,0,0,0,0,0,0,0,0,0,0,0,0,0,0],"sum_hessian":[3.87E2,3.54E2,3.3E1,1.8E1,3.36E2,1E0,1.7E1,2E1,3.16E2,1.1E1,6E0,5E0,1.5E1,3.11E2,5E0,1E0,5E0,4E0,1E0,1E0,1.4E1,2.74E2,3.7E1,1E0,4E0,3E0,1E0,2.2E2,5.4E1,1.5E1,2.2E1],"tree_param":{"num_deleted":"0","num_feature":"16","num_nodes":"31","size_leaf_vector":"1"}},{"base_weights":[-4.9333405E-2,5.005171E0,-8.3709633E-1,-5.750679E0,7.045115E0,-8.422236E0,-5.097903E-1,-3.715053E-1,-1.7938695E0,1.7051123E-1,3.6582813E-1,-3.7186577E0,-4.6834856E-1,-4.2963338E-1,-5.5859704E0,-1.1086178E-1,-1.3094283E-2,-2.2759579E-1,-3.0472089E-2,-1.7570037E0,-1.5664084E-1,-7.900157E-2,-3.0962238E-1,-7.776689E-1,-2.5471935E0,-1.2524637E0,-4.909453E-2,-9.034759E-2,-2.541962E-2,-1.3487203E-1,-4.4811394E-2,-3.1500112E-2,-2.699847E-1,2.2007052E-2,-2.0827023E-2],"categories":[],"categories_nodes":[],"categories_segments":[],"categories_sizes":[],"default_left":[0,0,0,0,0,0,0,0,0,0,0,0,0,0,0,0,0,0,0,0,0,0,0,0,0,0,0,0,0,0,0,0,0,0,0],"id":7,"left_children":[1,3,5,7,9,11,13,-1,15,-1,-1,17,-1,19,21,-1,-1,-1,-1,23,25,-1,-1,27,29,31,33,-1,-1,-1,-1,-1,-1,-1,-1],"loss_changes":[1.5650361E3,1.2034048E3,8.398114E2,4.6477905E1,1.9449463E1,2.7378296E1,1.3065344E2,0E0,2.0136976E0,0E0,0E0,7.5889893E0,0E0,1.1676776E2,2.3632812E0,0E0,0E0,0E0,0E0,4.0581436E1,3.1640615E1,0E0,0E0,6.2875643E0,5.024063E0,5.8553967E1,4.4406166E1,0E0,0E0,0E0,0E0,0E0,0E0,0E0,0E0],"parents":[2147483647,0,0,1,1,2,2,3,3,4,4,5,5,6,6,8,8,11,11,13,13,14,14,19,19,20,20,23,23,24,24,25,25,26,26],"right_children":[2,4,6,8,10,12,14,-1,16,-1,-1,18,-1,20,22,-1,-1,-1,-1,24,26,-1,-1,28,30,32,34,-1,-1,-1,-1,-1,-1,-1,-1],"split_conditions":[-1.6378256E0,-1.4174986E0,-2.1887903E0,-1.3337739E0,3.232653E-2,-2.9359026E0,2.0033138E0,-3.715053E-1,-6.2180525E-1,1.7051123E-1,3.6582813E-1,-1.5179346E0,-4.6834856E-1,4.7984302E-2,-1.9950541E0,-1.1086178E-1,-1.3094283E-2,-2.2759579E-1,-3.0472089E-2,-6.724647E-1,-1.5680908E0,-7.900157E-2,-3.0962238E-1,-7.3003966E-1,8.805084E-2,-1.573048E0,-5.542742E-1,-9.034759E-2,-2.541962E-2,-1.3487203E-1,-4.4811394E-2,-3.1500112E-2,-2.699847E-1,2.2007052E-2,-2.0827023E-2],"split_indices":[0,8,6,9,6,6,6,0,6,0,0,10,0,0,7,0,0,0,0,7,9,0,0,8,6,8,15,0,0,0,0,0,0,0,0],"split_type":[0,0,0,0,0,0,0,0,0,0,0,0,0,0,0,0,0,0,0,0,0,0,0,0,0,0,0,0,0,0,0,0,0,0,0],"sum_hessian":[3.91E2,5.2E1,3.39E2,8E0,4.4E1,1.3E1,3.26E2,5E0,3E0,4E0,4E1,3E0,1E1,3.22E2,4E0,2E0,1E0,2E0,1E0,5.4E1,2.68E2,1E0,3E0,2.5E1,2.9E1,2.3E1,2.45E2,4E0,2.1E1,2.6E1,3E0,2.1E1,2E0,1.05E2,1.4E2],"tree_param":{"num_deleted":"0","num_feature":"16","num_nodes":"35","size_leaf_vector":"1"}},{"base_weights":[7.695824E-2,-5.358608E-1,3.4939587E-1,-7.3458915E0,-2.3993477E-1,-1.035435E0,-4.4186097E-1,2.6869674E0,-4.176729E-1,-7.9608634E-2,1.5869452E-2,-3.2382238E0,4.877913E0,-2.815048E-1,-4.719668E0,-1.8918666E-1,-1.2766934E-2,7.836158E-2,2.633346E-1,-1.5684904E0,-4.2131532E-2,-1.9932152E0,-4.155522E-1,-2.7812565E-2,-1.0854757E-1,-6.270256E-2,2.1091407E-2,-2.6273346E-2,-1.0751311E-1],"categories":[],"categories_nodes":[],"categories_segments":[],"categories_sizes":[],"default_left":[0,0,0,0,0,0,0,0,0,0,0,0,0,0,0,0,0,0,0,0,0,0,0,0,0,0,0,0,0],"id":8,"left_children":[1,3,-1,5,7,9,-1,11,13,-1,-1,15,17,19,21,-1,-1,-1,-1,23,25,27,-1,-1,-1,-1,-1,-1,-1],"loss_changes":[1.6639302E3,7.2574817E2,0E0,1.3201398E2,1.8163937E2,3.5180106E0,0E0,2.7543115E2,1.9081198E2,0E0,0E0,8.7970085E0,1.1052734E1,9.820824E1,8.135144E1,0E0,0E0,0E0,0E0,2.9284134E1,1.5234508E2,4.836445E-1,0E0,0E0,0E0,0E0,0E0,0E0,0E0],"parents":[2147483647,0,0,1,1,3,3,4,4,5,5,7,7,8,8,11,11,12,12,13,13,14,14,19,19,20,20,21,21],"right_children":[2,4,-1,6,8,10,-1,12,14,-1,-1,16,18,20,22,-1,-1,-1,-1,24,26,28,-1,-1,-1,-1,-1,-1,-1],"split_conditions":[1.767184E0,-1.6111382E0,3.4939587E-1,-1.6624513E0,-1.6378256E0,5.903234E-1,-4.4186097E-1,-1.4174986E0,1.0557067E0,-7.9608634E-2,1.5869452E-2,6.2297535E-1,-1.3391068E0,4.7984302E-2,-1.2921408E0,-1.8918666E-1,-1.2766934E-2,7.836158E-2,2.633346E-1,-5.777217E-1,-2.516179E-3,1.0606745E0,-4.155522E-1,-2.7812565E-2,-1.0854757E-1,-6.270256E-2,2.1091407E-2,-2.6273346E-2,-1.0751311E-1],"split_indices":[5,6,0,8,0,5,0,8,5,0,0,5,8,0,11,0,0,0,0,6,4,5,0,0,0,0,0,0,0],"split_type":[0,0,0,0,0,0,0,0,0,0,0,0,0,0,0,0,0,0,0,0,0,0,0,0,0,0,0,0,0],"sum_hessian":[3.91E2,3.6E2,3.1E1,1.4E1,3.46E2,3E0,1.1E1,1.9E1,3.27E2,2E0,1E0,5E0,1.4E1,3.18E2,9E0,4E0,1E0,2E0,1.2E1,4.9E1,2.69E2,6E0,3E0,1.9E1,3E1,7.4E1,1.95E2,1E0,5E0],"tree_param":{"num_deleted":"0","num_feature":"16","num_nodes":"29","size_leaf_vector":"1"}},{"base_weights":[-6.0282752E-2,-6.721639E-1,3.345389E-1,-8.153333E0,-3.04773E-1,-8.509201E0,-6.1485957E-2,-2.4014686E-1,-2.9012927E-1,-3.5375354E0,-4.692195E-1,-9.740565E-1,1.6064386E-1,-2.1735565E-1,-2.772007E-2,-4.0980577E-1,-2.0011728E0,-8.9221925E-1,6.0609436E-1,-2.9835314E-2,6.612081E-5,-6.432549E-2,-1.2094857E-1,-2.023129E-1,-3.1386822E-2,-1.835692E-2,7.022809E-2],"categories":[],"categories_nodes":[],"categories_segments":[],"categories_sizes":[],"default_left":[0,0,0,0,0,0,0,0,0,0,0,0,0,0,0,0,0,0,0,0,0,0,0,0,0,0,0],"id":9,"left_children":[1,3,-1,5,7,9,-1,11,-1,13,-1,15,17,-1,-1,19,21,23,25,-1,-1,-1,-1,-1,-1,-1,-1],"loss_changes":[1.6403126E3,9.979739E2,0E0,3.1422241E1,1.2225178E2,3.6420776E1,0E0,1.01636215E2,0E0,7.250267E0,0E0,6.988513E1,1.0559641E2,0E0,0E0,6.147994E0,9.727142E0,5.3350674E1,1.23296616E2,0E0,0E0,0E0,0E0,0E0,0E0,0E0,0E0],"parents":[2147483647,0,0,1,1,3,3,4,4,5,5,7,7,9,9,11,11,12,12,15,15,16,16,17,17,18,18],"right_children":[2,4,-1,6,8,10,-1,12,-1,14,-1,16,18,-1,-1,20,22,24,26,-1,-1,-1,-1,-1,-1,-1,-1],"split_conditions":[1.5102715E0,-2.1887903E0,3.345389E-1,1.1333766E0,2.0033138E0,-1.5981244E0,-6.1485957E-2,5.7369655E-1,-2.9012927E-1,-1.1437017E0,-4.692195E-1,-2.2223783E-1,-1.0128411E0,-2.1735565E-1,-2.772007E-2,4.2936438E-1,7.521654E-1,-2.0046318E-1,-2.516179E-3,-2.9835314E-2,6.612081E-5,-6.432549E-2,-1.2094857E-1,-2.023129E-1,-3.1386822E-2,-1.835692E-2,7.022809E-2],"split_indices":[5,6,0,5,6,9,0,2,0,5,0,6,13,0,0,9,12,6,4,0,0,0,0,0,0,0,0],"split_type":[0,0,0,0,0,0,0,0,0,0,0,0,0,0,0,0,0,0,0,0,0,0,0,0,0,0,0],"sum_hessian":[3.95E2,3.63E2,3.2E1,1.6E1,3.47E2,1.5E1,1E0,3.44E2,3E0,3E0,1.2E1,1.21E2,2.23E2,2E0,1E0,7.9E1,4.2E1,6.6E1,1.57E2,5.4E1,2.5E1,1.7E1,2.5E1,4E0,6.2E1,7.1E1,8.6E1],"tree_param":{"num_deleted":"0","num_feature":"16","num_nodes":"27","size_leaf_vector":"1"}},{"base_weights":[4.993764E-2,-5.159594E-1,3.1449902E-1,-7.443045E0,-1.8649863E-1,-4.163501E-1,-3.6561487E0,2.997327E0,-3.7323397E-1,-5.7983905E-2,-2.4669516E-1,-3.3077629E0,4.7803345E0,-2.3206548E-1,-4.574358E0,-2.0074077E-1,-1.1988831E-2,1.2717138E-1,2.782945E-1,-1.426538E0,-2.8649405E-2,-7.8739494E-2,-3.9294413E-1,-3.0015472E-2,-1.1138769E-1,-5.2372932E-2,1.7187279E-2],"categories":[],"categories_nodes":[],"categories_segments":[],"categories_sizes":[],"default_left":[0,0,0,0,0,0,0,0,0,0,0,0,0,0,0,0,0,0,0,0,0,0,0,0,0,0,0],"id":10,"left_children":[1,3,-1,5,7,-1,9,11,13,-1,-1,15,17,19,21,-1,-1,-1,-1,23,25,-1,-1,-1,-1,-1,-1],"loss_changes":[1.4439838E3,8.54438E2,0E0,2.6461853E1,2.1455595E2,0E0,1.0227646E1,2.4065271E2,2.00581E2,0E0,0E0,9.883476E0,1.3959015E1,8.0140854E1,9.599762E1,0E0,0E0,0E0,0E0,3.0438042E1,1.077301E2,0E0,0E0,0E0,0E0,0E0,0E0],"parents":[2147483647,0,0,1,1,3,3,4,4,6,6,7,7,8,8,11,11,12,12,13,13,14,14,19,19,20,20],"right_children":[2,4,-1,6,8,-1,10,12,14,-1,-1,16,18,20,22,-1,-1,-1,-1,24,26,-1,-1,-1,-1,-1,-1],"split_conditions":[1.767184E0,-2.4867868E0,3.1449902E-1,3.6222696E-1,-1.6378256E0,-4.163501E-1,1.424638E0,-1.2071995E0,1.0557067E0,-5.7983905E-2,-2.4669516E-1,2.9719922E-1,1.083446E0,4.7984302E-2,-1.396171E0,-2.0074077E-1,-1.1988831E-2,1.2717138E-1,2.782945E-1,-6.883787E-1,-2.516179E-3,-7.8739494E-2,-3.9294413E-1,-3.0015472E-2,-1.1138769E-1,-5.2372932E-2,1.7187279E-2],"split_indices":[5,6,0,5,0,0,5,10,5,0,0,5,5,0,10,0,0,0,0,7,4,0,0,0,0,0,0],"split_type":[0,0,0,0,0,0,0,0,0,0,0,0,0,0,0,0,0,0,0,0,0,0,0,0,0,0,0],"sum_hessian":[4.07E2,3.74E2,3.3E1,1.6E1,3.58E2,1.2E1,4E0,1.9E1,3.39E2,2E0,2E0,4E0,1.5E1,3.29E2,1E1,3E0,1E0,5E0,1E1,4.7E1,2.82E2,6E0,4E0,2.4E1,2.3E1,7.5E1,2.07E2],"tree_param":{"num_deleted":"0","num_feature":"16","num_nodes":"27","size_leaf_vector":"1"}},{"base_weights":[-4.196392E-2,-6.3246256E-1,3.0395105E-1,-5.993646E0,-3.1612015E-1,-7.3060856E0,-8.575983E-1,2.6122286E0,-4.4692644E-1,-4.0328485E-1,-4.173723E0,-6.2220383E-2,1.7240977E-2,-1.3615663E-1,2.1574424E-1,-3.2023984E-1,-3.8729036E0,-5.8499195E-2,-2.3160811E-1,-1.4823899E0,-8.2829885E-2,-7.536496E-2,-3.2050845E-1,-3.1575184E-2,-1.1076721E-1,-5.8906585E-2,1.5714735E-2],"categories":[],"categories_nodes":[],"categories_segments":[],"categories_sizes":[],"default_left":[0,0,0,0,0,0,0,0,0,0,0,0,0,0,0,0,0,0,0,0,0,0,0,0,0,0,0],"id":11,"left_children":[1,3,-1,5,7,9,11,13,15,-1,17,-1,-1,-1,-1,19,21,-1,-1,23,25,-1,-1,-1,-1,-1,-1],"loss_changes":[1.3556427E3,5.7812695E2,0E0,1.2180859E2,1.2527454E2,2.0266724E0,2.7546282E0,1.3893E2,1.3374168E2,0E0,1.4655991E0,0E0,0E0,0E0,0E0,8.292493E1,5.6361786E1,0E0,0E0,3.0407692E1,1.09548065E2,0E0,0E0,0E0,0E0,0E0,0E0],"parents":[2147483647,0,0,1,1,3,3,4,4,5,5,6,6,7,7,8,8,10,10,15,15,16,16,19,19,20,20],"right_children":[2,4,-1,6,8,10,12,14,16,-1,18,-1,-1,-1,-1,20,22,-1,-1,24,26,-1,-1,-1,-1,-1,-1],"split_conditions":[1.767184E0,-1.3806154E0,3.0395105E-1,-8.384902E-1,-1.6378256E0,-8.37538E-1,5.903234E-1,-1.4373753E0,1.0557067E0,-4.0328485E-1,1.424638E0,-6.2220383E-2,1.7240977E-2,-1.3615663E-1,2.1574424E-1,4.7984302E-2,-1.396171E0,-5.8499195E-2,-2.3160811E-1,-6.724647E-1,-2.516179E-3,-7.536496E-2,-3.2050845E-1,-3.1575184E-2,-1.1076721E-1,-5.8906585E-2,1.5714735E-2],"split_indices":[5,6,0,14,0,5,5,7,5,0,5,0,0,0,0,0,10,0,0,7,4,0,0,0,0,0,0],"split_type":[0,0,0,0,0,0,0,0,0,0,0,0,0,0,0,0,0,0,0,0,0,0,0,0,0,0,0],"sum_hessian":[3.73E2,3.41E2,3.2E1,1.8E1,3.23E2,1.4E1,4E0,1.3E1,3.1E2,1E1,4E0,3E0,1E0,3E0,1E1,3E2,1E1,1E0,3E0,5E1,2.5E2,6E0,4E0,2.4E1,2.6E1,6.6E1,1.84E2],"tree_param":{"num_deleted":"0","num_feature":"16","num_nodes":"27","size_leaf_vector":"1"}},{"base_weights":[-6.702213E-2,-6.594028E0,3.2442516E-1,-2.5438024E-2,-6.8595757E0,4.7069306E0,-3.816701E-1,-4.3869576E0,-4.0218645E-1,-1.854831E0,5.460488E0,-1.0515865E0,3.7266005E-2,-2.3250718E-1,-5.703671E-2,-1.4969301E-1,2.8215155E-1,9.5186554E-2,2.7894458E-1,-7.531383E-1,-3.9947336E0,-1.2719065E0,6.669636E-1,-1.7082691E-2,3.8244057E-2,6.5779075E-2,-9.2492044E-1,-1.8260922E0,-3.6666664E-1,-1.9614886E0,6.654965E-2,-2.2588605E-1,1.3818827E0,-2.3292683E-2,-8.718064E-2,-4.9991608E-2,-1.2011971E-1,-1.2545185E-1,-4.0912937E-2,-2.0007797E-2,1.6180033E-2,8.522118E-2,1.00080855E-2],"categories":[],"categories_nodes":[],"categories_segments":[],"categories_sizes":[],"default_left":[0,0,0,0,0,0,0,0,0,0,0,0,0,0,0,0,0,0,0,0,0,0,0,0,0,0,0,0,0,0,0,0,0,0,0,0,0,0,0,0,0,0,0],"id":12,"left_children":[1,3,5,-1,7,9,11,13,-1,15,17,19,21,-1,-1,-1,23,-1,-1,25,27,29,31,-1,-1,-1,33,35,-1,37,-1,39,41,-1,-1,-1,-1,-1,-1,-1,-1,-1,-1],"loss_changes":[9.93471E2,3.206067E1,1.1374657E3,0E0,2.6199585E1,2.6230603E2,8.900594E1,2.3846893E0,0E0,1.5449234E1,8.751465E0,1.0415341E2,1.6242732E2,0E0,0E0,0E0,1.1647124E0,0E0,0E0,4.101814E1,6.625113E1,1.1748514E2,8.5208084E1,0E0,0E0,0E0,3.8274513E1,1.4074116E0,0E0,2.9871628E1,0E0,5.8750286E0,2.7864182E1,0E0,0E0,0E0,0E0,0E0,0E0,0E0,0E0,0E0,0E0],"parents":[2147483647,0,0,1,1,2,2,4,4,5,5,6,6,7,7,9,9,10,10,11,11,12,12,16,16,19,19,20,20,21,21,22,22,26,26,27,27,29,29,31,31,32,32],"right_children":[2,4,6,-1,8,10,12,14,-1,16,18,20,22,-1,-1,-1,24,-1,-1,26,28,30,32,-1,-1,-1,34,36,-1,38,-1,40,42,-1,-1,-1,-1,-1,-1,-1,-1,-1,-1],"split_conditions":[-1.3806154E0,5.7369655E-1,-1.6378256E0,-2.5438024E-2,-1.4086938E0,-1.3787029E0,-1.2970936E-1,-2.7429192E0,-4.0218645E-1,-6.2180525E-1,-6.973866E-1,1.1004281E0,-2.516179E-3,-2.3250718E-1,-5.703671E-2,-1.4969301E-1,-5.967088E-1,9.5186554E-2,2.7894458E-1,-2.516179E-3,-1.5630165E0,4.9447578E-1,-8.296329E-1,-1.7082691E-2,3.8244057E-2,6.5779075E-2,-5.777217E-1,1.9579482E0,-3.6666664E-1,5.560927E-1,6.654965E-2,-9.81908E-1,7.7504253E-1,-2.3292683E-2,-8.718064E-2,-4.9991608E-2,-1.2011971E-1,-1.2545185E-1,-4.0912937E-2,-2.0007797E-2,1.6180033E-2,8.522118E-2,1.00080855E-2],"split_indices":[6,2,0,0,10,8,7,6,0,6,6,2,4,0,0,0,6,0,0,4,8,6,15,0,0,0,6,6,0,12,0,14,14,0,0,0,0,0,0,0,0,0,0],"split_type":[0,0,0,0,0,0,0,0,0,0,0,0,0,0,0,0,0,0,0,0,0,0,0,0,0,0,0,0,0,0,0,0,0,0,0,0,0,0,0,0,0,0,0],"sum_hessian":[3.87E2,2.1E1,3.66E2,1E0,2E1,5E1,3.16E2,8E0,1.2E1,5E0,4.5E1,1.21E2,1.95E2,7E0,1E0,3E0,2E0,2E0,4.3E1,1.11E2,1E1,6.3E1,1.32E2,1E0,1E0,8E0,1.03E2,7E0,3E0,5E1,1.3E1,5.9E1,7.3E1,6.7E1,3.6E1,4E0,3E0,3.3E1,1.7E1,4.5E1,1.4E1,5.7E1,1.6E1],"tree_param":{"num_deleted":"0","num_feature":"16","num_nodes":"43","size_leaf_vector":"1"}},{"base_weights":[-1.733514E-1,-6.076422E-1,2.7233395E-1,-4.0616555E0,-4.33422E-2,-6.9781113E0,-2.2942224E0,3.547738E0,-2.177581E-1,-3.594509E-1,-8.481753E-2,-4.3775737E-2,-4.2773356E0,2.7509752E-1,2.0351267E-1,-7.961899E-1,1.8842506E-1,8.5857916E-1,-8.41005E-1,-2.158274E0,-6.9962416E0,-1.6655637E-2,3.728795E-2,-3.667212E-1,-1.2727935E0,-9.7469166E-2,1.473482E0,-1.8209267E-2,5.4264314E-2,-1.7196592E-2,-4.669464E-2,-4.9822055E-2,-1.339915E-1,-1.0134798E-1,-3.7433144E-1,-2.558942E-2,-2.2654056E-3,-4.5691337E-2,-1.0965238E-1,1.7095458E-2,-6.0223132E-2,2.2572519E-3,9.0723865E-2],"categories":[],"categories_nodes":[],"categories_segments":[],"categories_sizes":[],"default_left":[0,0,0,0,0,0,0,0,0,0,0,0,0,0,0,0,0,0,0,0,0,0,0,0,0,0,0,0,0,0,0,0,0,0,0,0,0,0,0,0,0,0,0],"id":13,"left_children":[1,3,-1,5,7,9,11,13,15,-1,-1,17,19,21,-1,23,25,27,29,31,33,-1,-1,35,37,39,41,-1,-1,-1,-1,-1,-1,-1,-1,-1,-1,-1,-1,-1,-1,-1,-1],"loss_changes":[9.185824E2,6.8005975E2,0E0,2.36568E2,1.8930135E2,7.85614E0,1.4262524E2,2.2820343E1,6.781541E1,0E0,0E0,1.223221E1,8.284625E1,1.1072052E0,0E0,2.3890915E1,6.2599983E1,2.6129208E0,9.435272E-2,3.9952736E0,1.8829956E0,0E0,0E0,2.960906E0,1.6495003E1,6.850627E1,1.5016815E1,0E0,0E0,0E0,0E0,0E0,0E0,0E0,0E0,0E0,0E0,0E0,0E0,0E0,0E0,0E0,0E0],"parents":[2147483647,0,0,1,1,3,3,4,4,5,5,6,6,7,7,8,8,11,11,12,12,13,13,15,15,16,16,17,17,18,18,19,19,20,20,23,23,24,24,25,25,26,26],"right_children":[2,4,-1,6,8,10,12,14,16,-1,-1,18,20,22,-1,24,26,28,30,32,34,-1,-1,36,38,40,42,-1,-1,-1,-1,-1,-1,-1,-1,-1,-1,-1,-1,-1,-1,-1,-1],"split_conditions":[1.6767404E0,-1.4373753E0,2.7233395E-1,3.6222696E-1,-1.6378256E0,-1.3337739E0,1.0557067E0,-1.3787029E0,5.7369655E-1,-3.594509E-1,-8.481753E-2,-1.4356986E0,-8.7777704E-1,7.1059114E-1,2.0351267E-1,-5.7179713E-1,-1.296373E-1,5.903234E-1,-9.3148744E-1,-2.0022814E0,-1.9796308E0,-1.6655637E-2,3.728795E-2,4.110464E-1,1.3394662E0,-5.2440286E-1,1.0203943E0,-1.8209267E-2,5.4264314E-2,-1.7196592E-2,-4.669464E-2,-4.9822055E-2,-1.339915E-1,-1.0134798E-1,-3.7433144E-1,-2.558942E-2,-2.2654056E-3,-4.5691337E-2,-1.0965238E-1,1.7095458E-2,-6.0223132E-2,2.2572519E-3,9.0723865E-2],"split_indices":[5,7,0,5,0,9,5,8,2,0,0,10,15,5,0,5,15,5,15,7,7,0,0,9,12,15,11,0,0,0,0,0,0,0,0,0,0,0,0,0,0,0,0],"split_type":[0,0,0,0,0,0,0,0,0,0,0,0,0,0,0,0,0,0,0,0,0,0,0,0,0,0,0,0,0,0,0,0,0,0,0,0,0,0,0,0,0,0,0],"sum_hessian":[3.74E2,3.48E2,2.6E1,4.8E1,3E2,1.7E1,3.1E1,1.3E1,2.87E2,1.6E1,1E0,1.5E1,1.6E1,2E0,1.1E1,1.18E2,1.69E2,7E0,8E0,1E1,6E0,1E0,1E0,6.3E1,5.5E1,1.39E2,3E1,1E0,6E0,2E0,6E0,4E0,6E0,1E0,5E0,4.3E1,2E1,4.1E1,1.4E1,1E2,3.9E1,6E0,2.4E1],"tree_param":{"num_deleted":"0","num_feature":"16","num_nodes":"43","size_leaf_vector":"1"}},{"base_weights":[1.3018821E-1,-3.6927474E-1,2.5825295E-1,-6.177782E0,-1.21734194E-1,-1.7754031E-2,-3.299184E-1,2.6163998E0,-2.6958942E-1,-2.3369937E0,4.3202896E0,-1.73714E-1,-3.1668313E0,-1.3794248E-1,-1.6239261E-2,5.1684856E-2,2.2540155E-1,-1.1203016E0,9.237422E-2,-1.3871762E0,-2.7447602E-1,-9.8271765E-2,6.447656E-2,-3.1410445E-2,4.309282E-2,-1.8483901E-2,-7.475731E-2],"categories":[],"categories_nodes":[],"categories_segments":[],"categories_sizes":[],"default_left":[0,0,0,0,0,0,0,0,0,0,0,0,0,0,0,0,0,0,0,0,0,0,0,0,0,0,0],"id":14,"left_children":[1,3,-1,5,7,-1,-1,9,11,13,15,17,19,-1,-1,-1,-1,21,23,25,-1,-1,-1,-1,-1,-1,-1],"loss_changes":[9.4744635E2,4.924274E2,0E0,3.1942322E1,1.3430501E2,0E0,0E0,1.5357712E2,8.667101E1,3.3482761E0,3.3614502E0,7.6925606E1,3.3720924E1,0E0,0E0,0E0,0E0,1.3898874E2,1.3306116E2,2.1629333E-1,0E0,0E0,0E0,0E0,0E0,0E0,0E0],"parents":[2147483647,0,0,1,1,3,3,4,4,7,7,8,8,9,9,10,10,11,11,12,12,17,17,18,18,19,19],"right_children":[2,4,-1,6,8,-1,-1,10,12,14,16,18,20,-1,-1,-1,-1,22,24,26,-1,-1,-1,-1,-1,-1,-1],"split_conditions":[1.767184E0,-1.6111382E0,2.5825295E-1,-2.9837496E0,-1.6378256E0,-1.7754031E-2,-3.299184E-1,-1.3101674E0,1.0105544E0,6.2297535E-1,-1.231804E0,-2.516179E-3,-1.0245817E0,-1.3794248E-1,-1.6239261E-2,5.1684856E-2,2.2540155E-1,5.4107383E-2,4.5304173E-1,1.0606745E0,-2.7447602E-1,-9.8271765E-2,6.447656E-2,-3.1410445E-2,4.309282E-2,-1.8483901E-2,-7.475731E-2],"split_indices":[5,6,0,6,0,0,0,9,5,5,9,4,14,0,0,0,0,5,9,5,0,0,0,0,0,0,0],"split_type":[0,0,0,0,0,0,0,0,0,0,0,0,0,0,0,0,0,0,0,0,0,0,0,0,0,0,0],"sum_hessian":[3.75E2,3.42E2,3.3E1,1.3E1,3.29E2,1E0,1.2E1,1.6E1,3.13E2,4E0,1.2E1,3.04E2,9E0,3E0,1E0,1E0,1.1E1,6.6E1,2.38E2,6E0,3E0,4.9E1,1.7E1,1.23E2,1.15E2,1E0,5E0],"tree_param":{"num_deleted":"0","num_feature":"16","num_nodes":"27","size_leaf_vector":"1"}},{"base_weights":[-4.8770294E-2,-6.0444083E0,2.430412E-1,-2.3377085E-2,-6.344957E0,-3.3142042E-1,3.926224E0,-3.297382E0,-3.5145137E-1,-2.781972E-1,-2.239906E-1,-2.6157722E0,4.711241E0,-1.8407987E-1,-4.401305E-2,-1.0249972E-1,-1.1749861E0,-1.6760218E-1,-3.810765E-2,7.152449E-2,2.4152835E-1,-8.4697664E-1,1.9816636E-1,-4.3868592E-1,-1.7904333E0,-8.803904E-2,6.2218677E-2,-3.643955E-2,3.8889963E-2,-4.0015247E-2,9.880066E-4,-9.671917E-2,-2.2156848E-2],"categories":[],"categories_nodes":[],"categories_segments":[],"categories_sizes":[],"default_left":[0,0,0,0,0,0,0,0,0,0,0,0,0,0,0,0,0,0,0,0,0,0,0,0,0,0,0,0,0,0,0,0,0],"id":15,"left_children":[1,3,5,-1,7,9,11,13,-1,15,-1,17,19,-1,-1,21,23,-1,-1,-1,-1,25,27,29,31,-1,-1,-1,-1,-1,-1,-1,-1],"loss_changes":[6.7856274E2,2.7203613E1,7.8416473E2,0E0,1.2263489E1,6.962758E1,2.6910248E2,1.4027023E0,0E0,4.998477E1,0E0,5.633831E0,1.0706421E1,0E0,0E0,5.9932846E1,2.2778564E1,0E0,0E0,0E0,0E0,1.4934459E2,1.03190186E2,4.1603847E0,4.5732193E0,0E0,0E0,0E0,0E0,0E0,0E0,0E0,0E0],"parents":[2147483647,0,0,1,1,2,2,4,4,5,5,6,6,7,7,9,9,11,11,12,12,15,15,16,16,21,21,22,22,23,23,24,24],"right_children":[2,4,6,-1,8,10,12,14,-1,16,-1,18,20,-1,-1,22,24,-1,-1,-1,-1,26,28,30,32,-1,-1,-1,-1,-1,-1,-1,-1],"split_conditions":[-1.3806154E0,5.7369655E-1,2.3331773E0,-2.3377085E-2,-1.0598598E0,2.0033138E0,-1.4174986E0,-2.7429192E0,-3.5145137E-1,4.531013E-2,-2.239906E-1,-1.4391645E0,-5.440583E-1,-1.8407987E-1,-4.401305E-2,-2.516179E-3,-6.724647E-1,-1.6760218E-1,-3.810765E-2,7.152449E-2,2.4152835E-1,4.9447578E-1,2.0453218E-1,2.5393665E-1,8.805084E-2,-8.803904E-2,6.2218677E-2,-3.643955E-2,3.8889963E-2,-4.0015247E-2,9.880066E-4,-9.671917E-2,-2.2156848E-2],"split_indices":[6,2,1,0,14,6,8,6,0,1,0,8,6,0,0,4,7,0,0,0,0,6,8,11,6,0,0,0,0,0,0,0,0],"split_type":[0,0,0,0,0,0,0,0,0,0,0,0,0,0,0,0,0,0,0,0,0,0,0,0,0,0,0,0,0,0,0,0,0],"sum_hessian":[3.86E2,1.7E1,3.69E2,1E0,1.6E1,3.2E2,4.9E1,4E0,1.2E1,3.17E2,3E0,5E0,4.4E1,3E0,1E0,2.66E2,5.1E1,3E0,2E0,2E0,4.2E1,7.6E1,1.9E2,2.4E1,2.7E1,5.3E1,2.3E1,7.3E1,1.17E2,1.3E1,1.1E1,2.4E1,3E0],"tree_param":{"num_deleted":"0","num_feature":"16","num_nodes":"33","size_leaf_vector":"1"}},{"base_weights":[-4.619199E-3,-4.7917643E-1,2.3921172E-1,-3.7950237E0,-1.7419964E-1,-3.2250845E-1,-1.6975666E0,-2.751372E-1,3.6201162E0,8.2835674E-2,-3.7108738E0,-8.401011E-2,-1.0678548E0,4.8604634E-2,1.9297676E-1,-7.518074E-1,5.339201E-2,-6.285928E-2,-4.3192387E0,-2.84253E-1,4.0226856E-1,-3.6043197E-1,-1.7628489E0,-8.523918E-3,-4.1698877E-2,-9.415234E-2,-2.5332865E-1,5.312424E-3,-3.621381E-2,-4.3975547E-2,4.110395E-2,7.3654056E-3,-2.1115169E-2,-1.7118072E-2,-9.006767E-2],"categories":[],"categories_nodes":[],"categories_segments":[],"categories_sizes":[],"default_left":[0,0,0,0,0,0,0,0,0,0,0,0,0,0,0,0,0,0,0,0,0,0,0,0,0,0,0,0,0,0,0,0,0,0,0],"id":16,"left_children":[1,3,-1,5,7,-1,9,11,13,15,17,19,21,-1,-1,23,-1,-1,25,27,29,31,33,-1,-1,-1,-1,-1,-1,-1,-1,-1,-1,-1,-1],"loss_changes":[8.317861E2,3.360873E2,0E0,1.4498389E2,1.1819065E2,0E0,6.1243835E1,4.521172E1,1.3200684E0,9.024081E0,6.511818E0,2.3678818E1,2.7880577E1,0E0,0E0,1.444323E-1,0E0,0E0,1.3833084E0,2.9631664E1,3.892844E1,1.0046465E0,9.694443E-1,0E0,0E0,0E0,0E0,0E0,0E0,0E0,0E0,0E0,0E0,0E0,0E0],"parents":[2147483647,0,0,1,1,3,3,4,4,6,6,7,7,8,8,9,9,10,10,11,11,12,12,15,15,18,18,19,19,20,20,21,21,22,22],"right_children":[2,4,-1,6,8,-1,10,12,14,16,18,20,22,-1,-1,24,-1,-1,26,28,30,32,34,-1,-1,-1,-1,-1,-1,-1,-1,-1,-1,-1,-1],"split_conditions":[1.6767404E0,-1.8882922E0,2.3921172E-1,3.6222696E-1,9.086243E-1,-3.2250845E-1,-1.573048E0,1.7521966E0,9.3532795E-1,-1.5798835E0,-1.3186939E0,5.457903E-1,-5.2510476E-1,4.8604634E-2,1.9297676E-1,1.1004281E0,5.339201E-2,-6.285928E-2,-1.9854177E0,-5.542742E-1,3.3925802E-1,7.0082366E-1,7.274453E-1,-8.523918E-3,-4.1698877E-2,-9.415234E-2,-2.5332865E-1,5.312424E-3,-3.621381E-2,-4.3975547E-2,4.110395E-2,7.3654056E-3,-2.1115169E-2,-1.7118072E-2,-9.006767E-2],"split_indices":[5,7,0,5,5,0,8,3,5,9,11,11,5,0,0,2,0,0,7,15,13,12,12,0,0,0,0,0,0,0,0,0,0,0,0],"split_type":[0,0,0,0,0,0,0,0,0,0,0,0,0,0,0,0,0,0,0,0,0,0,0,0,0,0,0,0,0,0,0,0,0,0,0],"sum_hessian":[3.64E2,3.32E2,3.2E1,2.7E1,3.05E2,1.1E1,1.6E1,2.98E2,7E0,9E0,7E0,2.41E2,5.7E1,1E0,6E0,5E0,4E0,2E0,5E0,1.71E2,7E1,2.9E1,2.8E1,1E0,4E0,2E0,3E0,9.1E1,8E1,1.7E1,5.3E1,3E0,2.6E1,1E0,2.7E1],"tree_param":{"num_deleted":"0","num_feature":"16","num_nodes":"35","size_leaf_vector":"1"}},{"base_weights":[1.6835712E-2,-4.1464528E-1,2.2440188E-1,-3.2277088E0,-5.239489E-2,-1.5129727E0,-5.3577805E0,-2.3060028E-1,3.655474E0,-2.8641066E-1,-5.94276E-1,-6.0864134E0,-2.3917782E0,-1.0594305E0,3.0652306E-3,7.3071435E-2,2.0604964E-1,-1.4401643E0,5.911986E-2,-6.1169054E-2,-3.194859E-1,-1.8720368E-1,-1.2111187E-2,-1.6907384E0,1.1155579E0,-7.7526474E-1,7.1002275E-1,-1.2047898E-1,-4.0572017E-2,-1.20581284E-1,-2.4441319E-2,7.290091E-2,-3.701447E-2,-2.5464257E-2,-6.5023266E-2,6.424801E-2,-8.957666E-3],"categories":[],"categories_nodes":[],"categories_segments":[],"categories_sizes":[],"default_left":[0,0,0,0,0,0,0,0,0,0,0,0,0,0,0,0,0,0,0,0,0,0,0,0,0,0,0,0,0,0,0,0,0,0,0,0,0],"id":17,"left_children":[1,3,-1,5,7,9,11,13,15,-1,17,19,21,23,25,-1,-1,27,-1,-1,-1,-1,-1,29,31,33,35,-1,-1,-1,-1,-1,-1,-1,-1,-1,-1],"loss_changes":[7.233962E2,3.4834027E2,0E0,1.3434174E2,2.0171465E2,8.566399E1,2.2181854E1,5.636094E1,8.276642E0,0E0,3.1760193E1,1.13576355E1,1.3627256E1,8.976371E1,1.2600659E2,0E0,0E0,6.577692E0,0E0,0E0,0E0,0E0,0E0,4.214328E1,1.0612663E1,1.4564186E1,6.1576675E1,0E0,0E0,0E0,0E0,0E0,0E0,0E0,0E0,0E0,0E0],"parents":[2147483647,0,0,1,1,3,3,4,4,5,5,6,6,7,7,8,8,10,10,11,11,12,12,13,13,14,14,17,17,23,23,24,24,25,25,26,26],"right_children":[2,4,-1,6,8,10,12,14,16,-1,18,20,22,24,26,-1,-1,28,-1,-1,-1,-1,-1,30,32,34,36,-1,-1,-1,-1,-1,-1,-1,-1,-1,-1],"split_conditions":[1.767184E0,-1.4962475E0,2.2440188E-1,-1.3952678E0,7.5657403E-1,-2.4921362E0,-1.8293886E0,-2.516179E-3,-1.2657903E0,-2.8641066E-1,-8.3401823E-1,-1.5798835E0,-4.343141E-1,5.4107383E-2,2.3052447E-1,7.3071435E-2,2.0604964E-1,-1.0519063E0,5.911986E-2,-6.1169054E-2,-3.194859E-1,-1.8720368E-1,-1.2111187E-2,5.560927E-1,5.700497E-1,4.7428524E-1,1.2203469E0,-1.2047898E-1,-4.0572017E-2,-1.20581284E-1,-2.4441319E-2,7.290091E-2,-3.701447E-2,-2.5464257E-2,-6.5023266E-2,6.424801E-2,-8.957666E-3],"split_indices":[5,7,0,10,5,5,7,4,8,0,14,9,5,5,8,0,0,14,0,0,0,0,0,12,5,1,4,0,0,0,0,0,0,0,0,0,0],"split_type":[0,0,0,0,0,0,0,0,0,0,0,0,0,0,0,0,0,0,0,0,0,0,0,0,0,0,0,0,0,0,0,0,0,0,0,0,0],"sum_hessian":[3.73E2,3.41E2,3.2E1,3.8E1,3.03E2,2.2E1,1.6E1,2.9E2,1.3E1,3E0,1.9E1,1.2E1,4E0,6.3E1,2.27E2,3E0,1E1,1.3E1,6E0,1E0,1.1E1,2E0,2E0,4.9E1,1.4E1,1.08E2,1.19E2,4E0,9E0,3E1,1.9E1,1.2E1,2E0,7.3E1,3.5E1,7.2E1,4.7E1],"tree_param":{"num_deleted":"0","num_feature":"16","num_nodes":"37","size_leaf_vector":"1"}},{"base_weights":[-3.371848E-2,-4.3497694E-1,2.1197478E-1,-2.6621182E0,-1.3434555E-1,-1.6967059E0,-3.336854E-1,-2.948731E-1,2.7441673E0,-2.4804237E-1,-1.2496371E0,-1.1472659E0,1.4674634E-2,5.1986378E-2,1.7896704E-1,-7.473163E-1,-3.0086408E0,-1.882884E0,7.896358E-1,7.788434E-1,-6.5409535E-1,-2.6310513E-2,-6.033335E-2,-3.832927E-2,-1.6272762E-1,-1.2849768E-1,-2.5861843E-2,5.0569396E-3,5.133427E-2,-1.1067003E-2,6.988731E-2,-5.583213E-2,-1.1595945E-2],"categories":[],"categories_nodes":[],"categories_segments":[],"categories_sizes":[],"default_left":[0,0,0,0,0,0,0,0,0,0,0,0,0,0,0,0,0,0,0,0,0,0,0,0,0,0,0,0,0,0,0,0,0],"id":18,"left_children":[1,3,-1,5,7,9,-1,11,13,-1,15,17,19,-1,-1,21,23,25,27,29,31,-1,-1,-1,-1,-1,-1,-1,-1,-1,-1,-1,-1],"loss_changes":[6.791361E2,2.4201895E2,0E0,1.5520868E2,1.4867496E2,4.633539E1,0E0,8.022914E1,2.0478012E1,0E0,2.6909866E1,1.1689722E2,1.1498533E2,0E0,0E0,2.1073008E0,1.3645401E0,5.403009E1,3.6499453E0,6.530609E1,2.3174221E1,0E0,0E0,0E0,0E0,0E0,0E0,0E0,0E0,0E0,0E0,0E0,0E0],"parents":[2147483647,0,0,1,1,3,3,4,4,5,5,7,7,8,8,10,10,11,11,12,12,15,15,16,16,17,17,18,18,19,19,20,20],"right_children":[2,4,-1,6,8,10,-1,12,14,-1,16,18,20,-1,-1,22,24,26,28,30,32,-1,-1,-1,-1,-1,-1,-1,-1,-1,-1,-1,-1],"split_conditions":[1.6767404E0,-1.016047E0,2.1197478E-1,-8.756963E-1,7.5657403E-1,-1.3783058E0,-3.336854E-1,-2.516179E-3,-1.3787029E0,-2.4804237E-1,1.2776203E0,-7.4077085E-2,7.7504253E-1,5.1986378E-2,1.7896704E-1,7.5657403E-1,-1.3186939E0,5.560927E-1,-1.4437796E0,-8.4252584E-1,1.3708683E0,-2.6310513E-2,-6.033335E-2,-3.832927E-2,-1.6272762E-1,-1.2849768E-1,-2.5861843E-2,5.0569396E-3,5.133427E-2,-1.1067003E-2,6.988731E-2,-5.583213E-2,-1.1595945E-2],"split_indices":[5,14,0,15,5,5,0,4,8,0,5,5,14,0,0,5,11,12,8,15,14,0,0,0,0,0,0,0,0,0,0,0,0],"split_type":[0,0,0,0,0,0,0,0,0,0,0,0,0,0,0,0,0,0,0,0,0,0,0,0,0,0,0,0,0,0,0,0,0],"sum_hessian":[3.94E2,3.61E2,3.3E1,4.2E1,3.19E2,3.5E1,7E0,3.03E2,1.6E1,3E0,3.2E1,8E1,2.23E2,6E0,1E1,2.6E1,6E0,5.8E1,2.2E1,1.04E2,1.19E2,1.9E1,7E0,1E0,5E0,3.8E1,2E1,6E0,1.6E1,4E1,6.4E1,5.6E1,6.3E1],"tree_param":{"num_deleted":"0","num_feature":"16","num_nodes":"33","size_leaf_vector":"1"}},{"base_weights":[-5.9762858E-2,-4.0613312E-1,2.0031534E-1,-4.9531803E0,-1.6060182E-1,3.1901327E-1,-5.6321425E0,2.1048112E0,-3.0347416E-1,-7.422948E-3,3.1348944E-2,-3.0891678E-1,-3.1948516E0,-1.8994068E0,3.2245789E0,-1.952617E-1,-3.5952492E0,-3.737104E-2,-1.8099271E-1,-1.1102722E-1,-1.5371419E-2,6.5207295E-2,1.7837183E-1,-9.902602E-1,-4.410268E-2,-9.169153E-1,-5.227986E0,-1.6751602E-2,-7.558706E-2,-3.989487E-2,1.16921645E-2,-1.3545704E-2,-5.0534356E-2,-2.864935E-1,-6.796409E-2],"categories":[],"categories_nodes":[],"categories_segments":[],"categories_sizes":[],"default_left":[0,0,0,0,0,0,0,0,0,0,0,0,0,0,0,0,0,0,0,0,0,0,0,0,0,0,0,0,0,0,0,0,0,0,0],"id":19,"left_children":[1,3,-1,5,7,9,11,13,15,-1,-1,-1,17,19,21,23,25,-1,-1,-1,-1,-1,-1,27,29,31,33,-1,-1,-1,-1,-1,-1,-1,-1],"loss_changes":[5.3821436E2,3.921922E2,0E0,6.622989E1,1.0906648E2,5.2497673E-1,1.560791E0,9.580065E1,1.1186068E2,0E0,0E0,0E0,2.4952698E0,1.8735619E0,5.8825226E0,3.6848885E1,3.8936523E1,0E0,0E0,0E0,0E0,0E0,0E0,1.6236282E1,5.445076E1,2.9074192E-2,3.8613586E0,0E0,0E0,0E0,0E0,0E0,0E0,0E0,0E0],"parents":[2147483647,0,0,1,1,3,3,4,4,5,5,6,6,7,7,8,8,12,12,13,13,14,14,15,15,16,16,23,23,24,24,25,25,26,26],"right_children":[2,4,-1,6,8,10,12,14,16,-1,-1,-1,18,20,22,24,26,-1,-1,-1,-1,-1,-1,28,30,32,34,-1,-1,-1,-1,-1,-1,-1,-1],"split_conditions":[1.767184E0,-1.3806154E0,2.0031534E-1,-1.6699709E0,-1.6378256E0,5.903234E-1,1.1333766E0,-1.4174986E0,1.0557067E0,-7.422948E-3,3.1348944E-2,-3.0891678E-1,1.424638E0,6.2297535E-1,-5.440583E-1,4.7984302E-2,-1.3974866E0,-3.737104E-2,-1.8099271E-1,-1.1102722E-1,-1.5371419E-2,6.5207295E-2,1.7837183E-1,-6.724647E-1,-2.516179E-3,1.0606745E0,2.260393E0,-1.6751602E-2,-7.558706E-2,-3.989487E-2,1.16921645E-2,-1.3545704E-2,-5.0534356E-2,-2.864935E-1,-6.796409E-2],"split_indices":[5,6,0,8,0,5,5,8,5,0,0,0,5,5,6,0,10,0,0,0,0,0,0,7,4,5,6,0,0,0,0,0,0,0,0],"split_type":[0,0,0,0,0,0,0,0,0,0,0,0,0,0,0,0,0,0,0,0,0,0,0,0,0,0,0,0,0,0,0,0,0,0,0],"sum_hessian":[3.8E2,3.51E2,2.9E1,1.7E1,3.34E2,2E0,1.5E1,1.9E1,3.15E2,1E0,1E0,1.1E1,4E0,4E0,1.5E1,3.06E2,9E0,1E0,3E0,3E0,1E0,3E0,1.2E1,4.8E1,2.58E2,4E0,5E0,2.2E1,2.6E1,6.9E1,1.89E2,1E0,3E0,4E0,1E0],"tree_param":{"num_deleted":"0","num_feature":"16","num_nodes":"35","size_leaf_vector":"1"}},{"base_weights":[-9.438394E-2,-4.2342728E-1,1.9450933E-1,-5.0680847E0,-1.6640724E-1,-1.9545221E0,-5.52972E0,-2.8693062E-1,1.9166222E0,-1.6974619E-1,-1.7137354E-2,-3.0450672E-1,-3.0787816E0,-1.7697477E-1,-3.158524E0,-2.4649649E0,2.89223E0,-3.6436774E-2,-1.7420547E-1,-2.9713728E-2,-9.240364E-1,-1.1069014E0,-5.025663E0,-1.5433957E-1,-1.4987135E-2,4.6361767E-2,1.5533563E-1,-3.3749726E-2,1.1666784E-2,-2.397401E-2,-7.542274E-2,-1.3207055E-2,-6.0166903E-2,-2.750338E-1,-6.626498E-2],"categories":[],"categories_nodes":[],"categories_segments":[],"categories_sizes":[],"default_left":[0,0,0,0,0,0,0,0,0,0,0,0,0,0,0,0,0,0,0,0,0,0,0,0,0,0,0,0,0,0,0,0,0,0,0],"id":20,"left_children":[1,3,-1,5,7,9,11,13,15,-1,-1,-1,17,19,21,23,25,-1,-1,27,29,31,33,-1,-1,-1,-1,-1,-1,-1,-1,-1,-1,-1,-1],"loss_changes":[5.15597E2,4.3249518E2,0E0,1.6501312E1,8.71635E1,8.122813E0,3.2264404E0,1.0269078E2,8.834875E1,0E0,0E0,0E0,2.2237015E0,3.473668E1,4.0405052E1,4.4603252E0,3.8626556E0,0E0,0E0,4.5138794E1,1.27866745E1,2.5105953E-1,3.2562866E0,0E0,0E0,0E0,0E0,0E0,0E0,0E0,0E0,0E0,0E0,0E0,0E0],"parents":[2147483647,0,0,1,1,3,3,4,4,5,5,6,6,7,7,8,8,12,12,13,13,14,14,15,15,16,16,19,19,20,20,21,21,22,22],"right_children":[2,4,-1,6,8,10,12,14,16,-1,-1,-1,18,20,22,24,26,-1,-1,28,30,32,34,-1,-1,-1,-1,-1,-1,-1,-1,-1,-1,-1,-1],"split_conditions":[1.767184E0,-1.6111382E0,1.9450933E-1,-1.6624513E0,2.3331773E0,-2.8624845E0,1.1333766E0,1.0557067E0,-1.4174986E0,-1.6974619E-1,-1.7137354E-2,-3.0450672E-1,1.424638E0,4.531013E-2,-1.0245817E0,-2.726612E-2,-1.3391068E0,-3.6436774E-2,-1.7420547E-1,-2.516179E-3,1.7521966E0,1.0606745E0,2.260393E0,-1.5433957E-1,-1.4987135E-2,4.6361767E-2,1.5533563E-1,-3.3749726E-2,1.1666784E-2,-2.397401E-2,-7.542274E-2,-1.3207055E-2,-6.0166903E-2,-2.750338E-1,-6.626498E-2],"split_indices":[5,6,0,8,1,5,5,5,8,0,0,0,5,1,14,5,8,0,0,4,3,5,6,0,0,0,0,0,0,0,0,0,0,0,0],"split_type":[0,0,0,0,0,0,0,0,0,0,0,0,0,0,0,0,0,0,0,0,0,0,0,0,0,0,0,0,0,0,0,0,0,0,0],"sum_hessian":[3.91E2,3.62E2,2.9E1,1.8E1,3.44E2,3E0,1.5E1,3.26E2,1.8E1,1E0,2E0,1.1E1,4E0,3.15E2,1.1E1,3E0,1.5E1,1E0,3E0,2.64E2,5.1E1,6E0,5E0,2E0,1E0,2E0,1.3E1,7.6E1,1.88E2,3E1,2.1E1,1E0,5E0,4E0,1E0],"tree_param":{"num_deleted":"0","num_feature":"16","num_nodes":"35","size_leaf_vector":"1"}},{"base_weights":[1.2999518E-2,-3.5786816E-1,1.8452047E-1,-4.8585353E0,-1.1854498E-1,-2.252428E0,-2.721125E-1,-1.7976867E-1,1.6597676E-1,-1.7113625E-1,-1.6566103E-2,-1.2505871E0,-7.419899E-2,5.2352745E-2,-2.1336868E0,2.2659328E0,-1.8576093E-1,-4.867898E-2,-1.8506108E-1,9.54183E-3,1.2979397E-1,-4.3279704E-2,5.923805E-4],"categories":[],"categories_nodes":[],"categories_segments":[],"categories_sizes":[],"default_left":[0,0,0,0,0,0,0,0,0,0,0,0,0,0,0,0,0,0,0,0,0,0,0],"id":21,"left_children":[1,3,-1,5,7,9,-1,11,-1,-1,-1,13,15,-1,17,19,21,-1,-1,-1,-1,-1,-1],"loss_changes":[5.3594305E2,3.8395374E2,0E0,1.5123718E1,7.216401E1,1.0107298E1,0E0,3.777761E1,0E0,0E0,0E0,6.3105488E1,8.030824E1,0E0,3.6403755E1,9.089989E0,3.9372116E1,0E0,0E0,0E0,0E0,0E0,0E0],"parents":[2147483647,0,0,1,1,3,3,4,4,5,5,7,7,11,11,12,12,14,14,15,15,16,16],"right_children":[2,4,-1,6,8,10,-1,12,-1,-1,-1,14,16,-1,18,20,22,-1,-1,-1,-1,-1,-1],"split_conditions":[1.767184E0,-2.1887903E0,1.8452047E-1,-1.3919026E0,1.5102715E0,-1.7391475E0,-2.721125E-1,-1.4373753E0,1.6597676E-1,-1.7113625E-1,-1.6566103E-2,-1.3606896E0,-1.6378256E0,5.2352745E-2,-8.7777704E-1,-1.0605046E0,-2.516179E-3,-4.867898E-2,-1.8506108E-1,9.54183E-3,1.2979397E-1,-4.3279704E-2,5.923805E-4],"split_indices":[5,6,0,11,5,5,0,7,0,0,0,11,0,0,15,11,4,0,0,0,0,0,0],"split_type":[0,0,0,0,0,0,0,0,0,0,0,0,0,0,0,0,0,0,0,0,0,0,0],"sum_hessian":[3.91E2,3.56E2,3.5E1,1.7E1,3.39E2,4E0,1.3E1,3.34E2,5E0,2E0,2E0,2.9E1,3.05E2,8E0,2.1E1,1.3E1,2.92E2,1.3E1,8E0,2E0,1.1E1,6.5E1,2.27E2],"tree_param":{"num_deleted":"0","num_feature":"16","num_nodes":"23","size_leaf_vector":"1"}},{"base_weights":[-6.513693E-2,-5.0406528E0,1.790713E-1,-2.5454235E0,-2.6850018E-1,-1.7962067E-1,1.7410171E-1,-1.6543172E-1,-6.3947677E-3,-1.4496183E-1,-2.9854045E0,-5.209805E-1,7.059625E-2,-3.209157E-2,-1.7763259E-1,-1.8791157E-1,-1.2630564E0,-5.7118803E-1,3.8871187E-1,-7.18477E-2,-6.195528E-3,-7.493212E-2,-2.3855496E-2,-1.8444521E-2,-9.506641E-2,-2.0185346E-2,5.558138E-2],"categories":[],"categories_nodes":[],"categories_segments":[],"categories_sizes":[],"default_left":[0,0,0,0,0,0,0,0,0,0,0,0,0,0,0,0,0,0,0,0,0,0,0,0,0,0,0],"id":22,"left_children":[1,3,5,7,-1,9,-1,-1,-1,11,13,15,17,-1,-1,19,21,23,25,-1,-1,-1,-1,-1,-1,-1,-1],"loss_changes":[4.6748642E2,1.1235962E0,4.3542737E2,6.957176E0,0E0,3.1852634E1,0E0,0E0,0E0,2.6703499E1,3.0373344E0,2.942215E1,4.3095963E1,0E0,0E0,6.5369043E0,6.135826E0,1.813451E1,8.122091E1,0E0,0E0,0E0,0E0,0E0,0E0,0E0,0E0],"parents":[2147483647,0,0,1,1,2,2,3,3,5,5,9,9,10,10,11,11,12,12,15,15,16,16,17,17,18,18],"right_children":[2,4,6,8,-1,10,-1,-1,-1,12,14,16,18,-1,-1,20,22,24,26,-1,-1,-1,-1,-1,-1,-1,-1],"split_conditions":[-2.1887903E0,-1.578102E0,1.5102715E0,-1.7391475E0,-2.6850018E-1,2.0033138E0,1.7410171E-1,-1.6543172E-1,-6.3947677E-3,5.7369655E-1,1.3330988E0,-1.8159601E-1,-8.673736E-1,-3.209157E-2,-1.7763259E-1,-7.320624E-1,5.5704497E-2,8.3494633E-1,-2.516179E-3,-7.18477E-2,-6.195528E-3,-7.493212E-2,-2.3855496E-2,-1.8444521E-2,-9.506641E-2,-2.0185346E-2,5.558138E-2],"split_indices":[6,9,5,5,0,6,0,0,0,2,5,6,15,0,0,8,6,5,4,0,0,0,0,0,0,0,0],"split_type":[0,0,0,0,0,0,0,0,0,0,0,0,0,0,0,0,0,0,0,0,0,0,0,0,0,0,0],"sum_hessian":[3.83E2,1.7E1,3.66E2,3E0,1.4E1,3.31E2,3.5E1,2E0,1E0,3.28E2,3E0,1.19E2,2.09E2,1E0,2E0,8.3E1,3.6E1,6.9E1,1.4E2,3E0,8E1,2.7E1,9E0,6.1E1,8E0,6.7E1,7.3E1],"tree_param":{"num_deleted":"0","num_feature":"16","num_nodes":"27","size_leaf_vector":"1"}},{"base_weights":[-8.5010685E-2,-3.901349E-1,1.6415891E-1,-2.705278E0,-6.334873E-2,-1.5722977E0,-4.6605363E0,2.5431058E0,-1.909091E-1,-2.3813383E-1,-5.7625806E-1,-1.8626094E-2,-4.921569E0,1.9793193E-1,2.8886764E0,-8.765778E-1,-3.0428404E-2,7.167689E-1,-1.3998588E0,-2.6832998E-1,-6.762899E-2,-1.4346361E-2,2.9191256E-2,1.5187615E-1,2.7562952E-2,-2.7574387E-1,-1.3561383E0,3.2343129E-3,-1.0465392E-1,-1.5800746E-2,5.072334E-2,-1.3058997E-2,-8.950902E-2,7.832873E-3,-2.9140545E-2,-1.082995E-2,-7.3327646E-2,6.284187E-3,-2.3964057E-2],"categories":[],"categories_nodes":[],"categories_segments":[],"categories_sizes":[],"default_left":[0,0,0,0,0,0,0,0,0,0,0,0,0,0,0,0,0,0,0,0,0,0,0,0,0,0,0,0,0,0,0,0,0,0,0,0,0,0,0],"id":23,"left_children":[1,3,-1,5,7,9,11,13,15,-1,17,-1,19,21,23,25,27,29,31,-1,-1,-1,-1,-1,-1,33,35,37,-1,-1,-1,-1,-1,-1,-1,-1,-1,-1,-1],"loss_changes":[4.0825638E2,2.7521527E2,0E0,9.2359375E1,1.068792E2,9.258779E1,1.6075623E1,1.1584579E1,3.3644524E1,0E0,2.6561886E1,0E0,1.6565857E1,7.288268E-1,2.8484497E0,1.6337955E1,1.7295935E1,3.3951616E0,6.1992054E0,0E0,0E0,0E0,0E0,0E0,0E0,3.6762588E0,3.7086372E0,1.4594839E1,0E0,0E0,0E0,0E0,0E0,0E0,0E0,0E0,0E0,0E0,0E0],"parents":[2147483647,0,0,1,1,3,3,4,4,5,5,6,6,7,7,8,8,10,10,12,12,13,13,14,14,15,15,16,16,17,17,18,18,25,25,26,26,27,27],"right_children":[2,4,-1,6,8,10,12,14,16,-1,18,-1,20,22,24,26,28,30,32,-1,-1,-1,-1,-1,-1,34,36,38,-1,-1,-1,-1,-1,-1,-1,-1,-1,-1,-1],"split_conditions":[1.767184E0,-1.4373753E0,1.6415891E-1,-1.2921408E0,-1.6378256E0,-1.7391475E0,-1.5811557E0,-1.3787029E0,4.7984302E-2,-2.3813383E-1,-1.456695E0,-1.8626094E-2,-1.4962475E0,7.1059114E-1,-7.2738874E-1,-6.724647E-1,1.7076272E0,5.903234E-1,7.4122673E-1,-2.6832998E-1,-6.762899E-2,-1.4346361E-2,2.9191256E-2,1.5187615E-1,2.7562952E-2,1.7734325E-1,1.3742763E-1,1.3165811E0,-1.0465392E-1,-1.5800746E-2,5.072334E-2,-1.3058997E-2,-8.950902E-2,7.832873E-3,-2.9140545E-2,-1.082995E-2,-7.3327646E-2,6.284187E-3,-2.3964057E-2],"split_indices":[5,7,0,11,0,5,8,8,0,0,10,0,7,5,9,7,9,5,5,0,0,0,0,0,0,5,11,10,0,0,0,0,0,0,0,0,0,0,0],"split_type":[0,0,0,0,0,0,0,0,0,0,0,0,0,0,0,0,0,0,0,0,0,0,0,0,0,0,0,0,0,0,0,0,0,0,0,0,0,0,0],"sum_hessian":[3.95E2,3.63E2,3.2E1,4.4E1,3.19E2,2.9E1,1.5E1,1.4E1,3.05E2,6E0,2.3E1,1E0,1.4E1,2E0,1.2E1,5.7E1,2.48E2,9E0,1.4E1,1.2E1,2E0,1E0,1E0,1.1E1,1E0,2.6E1,3.1E1,2.45E2,3E0,2E0,7E0,4E0,1E1,1.1E1,1.5E1,3E0,2.8E1,1.96E2,4.9E1],"tree_param":{"num_deleted":"0","num_feature":"16","num_nodes":"39","size_leaf_vector":"1"}},{"base_weights":[-2.3397667E-2,2.2276456E0,-3.8219184E-1,-2.9745984E0,3.0482771E0,-4.2518125E0,-2.2997783E-1,-1.8334597E-1,-2.9921165E-2,1.8376135E0,1.6402714E-1,-2.021462E0,-2.3593858E-1,-1.3924595E0,-9.7463325E-2,1.9223533E0,2.6873875E-2,-1.2158227E-1,-1.9772792E-2,-6.909302E-1,-3.5860634E0,4.047646E-1,-3.3579E-1,4.014915E-2,1.0637309E-1,-6.6731535E-2,-5.54858E-1,-3.8887914E-2,-4.392539E0,-1.9978805E-1,1.0010568E0,-2.1587627E0,-1.1479992E-1,-8.230477E-3,-3.1233862E-2,-2.4223101E-1,-5.330328E-2,1.0127926E-2,-1.3583432E-2,5.8951437E-2,1.3953005E-2,-1.12195544E-1,-9.2662815E-3,-3.041409E-2,2.0094505E-2],"categories":[],"categories_nodes":[],"categories_segments":[],"categories_sizes":[],"default_left":[0,0,0,0,0,0,0,0,0,0,0,0,0,0,0,0,0,0,0,0,0,0,0,0,0,0,0,0,0,0,0,0,0,0,0,0,0,0,0,0,0,0,0,0,0],"id":24,"left_children":[1,3,5,7,9,11,13,-1,-1,15,-1,17,-1,19,21,23,-1,-1,-1,25,27,29,31,-1,-1,-1,33,-1,35,37,39,41,43,-1,-1,-1,-1,-1,-1,-1,-1,-1,-1,-1,-1],"loss_changes":[3.2310822E2,2.438692E2,2.022308E2,1.096624E1,7.4690247E0,4.0004425E0,5.1161507E1,0E0,0E0,6.850815E-2,0E0,1.7062359E0,0E0,4.9844116E1,3.6044212E1,3.5801315E-1,0E0,0E0,0E0,1.6243935E0,1.4702293E1,3.5167526E1,8.193539E1,0E0,0E0,0E0,5.5109596E-1,0E0,3.8583374E0,1.4721531E0,5.967243E0,3.2809067E0,4.6905277E1,0E0,0E0,0E0,0E0,0E0,0E0,0E0,0E0,0E0,0E0,0E0,0E0],"parents":[2147483647,0,0,1,1,2,2,3,3,4,4,5,5,6,6,9,9,11,11,13,13,14,14,15,15,19,19,20,20,21,21,22,22,26,26,28,28,29,29,30,30,31,31,32,32],"right_children":[2,4,6,8,10,12,14,-1,-1,16,-1,18,-1,20,22,24,-1,-1,-1,26,28,30,32,-1,-1,-1,34,-1,36,38,40,42,44,-1,-1,-1,-1,-1,-1,-1,-1,-1,-1,-1,-1],"split_conditions":[-1.6378256E0,-1.4174986E0,-2.1887903E0,-1.4391645E0,3.923617E-1,-1.0598598E0,-1.016047E0,-1.8334597E-1,-2.9921165E-2,-7.0269084E-1,1.6402714E-1,-2.7691147E0,-2.3593858E-1,-1.1433294E0,-5.5233103E-1,-1.3391068E0,2.6873875E-2,-1.2158227E-1,-1.9772792E-2,-1.3186939E0,-1.5798835E0,-8.4252584E-1,-7.353591E-2,4.014915E-2,1.0637309E-1,-6.6731535E-2,-1.3106126E0,-3.8887914E-2,2.260393E0,1.2203469E0,-6.467796E-1,9.91212E-1,4.4543803E-1,-8.230477E-3,-3.1233862E-2,-2.4223101E-1,-5.330328E-2,1.0127926E-2,-1.3583432E-2,5.8951437E-2,1.3953005E-2,-1.12195544E-1,-9.2662815E-3,-3.041409E-2,2.0094505E-2],"split_indices":[0,8,6,8,6,14,14,0,0,7,0,6,0,13,14,8,0,0,0,11,9,15,13,0,0,0,11,0,6,4,15,7,9,0,0,0,0,0,0,0,0,0,0,0,0],"split_type":[0,0,0,0,0,0,0,0,0,0,0,0,0,0,0,0,0,0,0,0,0,0,0,0,0,0,0,0,0,0,0,0,0,0,0,0,0,0,0,0,0,0,0,0,0],"sum_hessian":[3.98E2,5.4E1,3.44E2,7E0,4.7E1,1.2E1,3.32E2,5E0,2E0,9E0,3.8E1,3E0,9E0,3.3E1,2.99E2,8E0,1E0,2E0,1E0,2.6E1,7E0,9.6E1,2.03E2,2E0,6E0,3E0,2.3E1,2E0,5E0,4.8E1,4.8E1,2.1E1,1.82E2,4E0,1.9E1,4E0,1E0,7E0,4.1E1,3.8E1,1E1,2E1,1E0,9.3E1,8.9E1],"tree_param":{"num_deleted":"0","num_feature":"16","num_nodes":"45","size_leaf_vector":"1"}},{"base_weights":[-1.0148843E-1,-3.9150727E-1,1.5159969E-1,-4.1706233E0,-1.9603413E-1,-1.8182919E0,-2.35642E-1,-1.5263305E0,-6.654907E-2,-1.441149E-1,-1.4818859E-1,-4.718242E-2,-3.1009429E0,-1.7689875E-1,2.5530088E0,-1.1172724E-2,5.8579444E-5,5.0853062E-2,-8.938591E-1,-5.1369715E-1,-3.7049463E0,2.1243618E-1,-3.912201E-1,4.9106758E-2,1.3746686E-1,-8.87359E-3,-5.25386E-2,-7.5120926E-3,-4.0101577E-2,-1.9660687E-1,-3.0146027E-2,-1.3560447E-2,4.3324843E-2,-1.0420539E-1,-1.0567609E-2],"categories":[],"categories_nodes":[],"categories_segments":[],"categories_sizes":[],"default_left":[0,0,0,0,0,0,0,0,0,0,0,0,0,0,0,0,0,0,0,0,0,0,0,0,0,0,0,0,0,0,0,0,0,0,0],"id":25,"left_children":[1,3,-1,5,7,9,-1,11,13,-1,15,17,19,21,23,-1,-1,-1,25,27,29,31,33,-1,-1,-1,-1,-1,-1,-1,-1,-1,-1,-1,-1],"loss_changes":[3.646946E2,2.7029108E2,0E0,1.4389191E1,6.0187145E1,8.457878E0,0E0,7.205532E1,9.2953186E1,0E0,3.398697E-2,1.6227303E1,2.1537354E1,2.5783484E1,1.3090744E0,0E0,0E0,0E0,9.376221E-1,2.9868793E-1,6.086273E0,3.5031662E1,6.0154255E1,0E0,0E0,0E0,0E0,0E0,0E0,0E0,0E0,0E0,0E0,0E0,0E0],"parents":[2147483647,0,0,1,1,3,3,4,4,5,5,7,7,8,8,10,10,11,11,12,12,13,13,14,14,18,18,19,19,20,20,21,21,22,22],"right_children":[2,4,-1,6,8,10,-1,12,14,-1,16,18,20,22,24,-1,-1,-1,26,28,30,32,34,-1,-1,-1,-1,-1,-1,-1,-1,-1,-1,-1,-1],"split_conditions":[1.767184E0,-2.1887903E0,1.5159969E-1,-1.4969381E0,-1.4373753E0,-1.7391475E0,-2.35642E-1,-1.3952678E0,7.5657403E-1,-1.441149E-1,-1.1437017E0,-1.4356986E0,-1.0245817E0,-5.0513506E-1,-6.973866E-1,-1.1172724E-2,5.8579444E-5,5.0853062E-2,8.3494633E-1,1.1004281E0,-1.2231672E0,-8.4252584E-1,-7.353591E-2,4.9106758E-2,1.3746686E-1,-8.87359E-3,-5.25386E-2,-7.5120926E-3,-4.0101577E-2,-1.9660687E-1,-3.0146027E-2,-1.3560447E-2,4.3324843E-2,-1.0420539E-1,-1.0567609E-2],"split_indices":[5,6,0,10,7,5,0,10,5,0,5,10,14,14,6,0,0,0,5,2,10,15,13,0,0,0,0,0,0,0,0,0,0,0,0],"split_type":[0,0,0,0,0,0,0,0,0,0,0,0,0,0,0,0,0,0,0,0,0,0,0,0,0,0,0,0,0,0,0,0,0,0,0],"sum_hessian":[3.99E2,3.66E2,3.3E1,1.7E1,3.49E2,4E0,1.3E1,3E1,3.19E2,2E0,2E0,1.6E1,1.4E1,3.07E2,1.2E1,1E0,1E0,7E0,9E0,3E0,1.1E1,1.09E2,1.98E2,2E0,1E1,2E0,7E0,2E0,1E0,1E1,1E0,6.3E1,4.6E1,1.8E1,1.8E2],"tree_param":{"num_deleted":"0","num_feature":"16","num_nodes":"35","size_leaf_vector":"1"}},{"base_weights":[-5.5611264E-2,-3.0746692E-1,1.4029816E-1,-2.1806264E0,-3.2792747E-2,-2.0287941E-1,-1.1068926E0,-1.7788763E-1,2.3147297E0,1.3092083E-1,-2.7356427E0,-6.3188106E-1,3.854303E-2,3.9229107E-1,2.6730647E0,7.945806E-1,-4.79465E-1,-8.8510984E-1,-2.3735395E-1,-3.2158187E-1,-9.4868064E-1,-7.58235E-1,4.1598934E-1,-1.4322805E-2,3.5701275E-2,1.4750612E-1,5.8681276E-2,5.7125093E-5,4.4680875E-2,-9.562512E-3,-3.1986658E-2,-2.1445656E-2,-6.1703917E-2,-3.140008E-3,-3.6343966E-2,-6.0499426E-2,-3.6238323E-4,-6.2347956E-2,4.606971E-2,-1.1277516E-2,5.352353E-2],"categories":[],"categories_nodes":[],"categories_segments":[],"categories_sizes":[],"default_left":[0,0,0,0,0,0,0,0,0,0,0,0,0,0,0,0,0,0,0,0,0,0,0,0,0,0,0,0,0,0,0,0,0,0,0,0,0,0,0,0,0],"id":26,"left_children":[1,3,-1,5,7,-1,9,11,13,15,17,19,21,23,25,27,29,31,-1,33,35,37,39,-1,-1,-1,-1,-1,-1,-1,-1,-1,-1,-1,-1,-1,-1,-1,-1,-1,-1],"loss_changes":[2.7617154E2,1.8103549E2,0E0,8.619977E1,1.0532071E2,0E0,6.0840805E1,2.8617464E1,1.1351166E1,7.6725664E0,4.4187286E1,8.935371E0,5.9862118E1,1.0780424E0,2.7691345E0,7.061963E-1,3.3956742E-1,7.4427366E-1,0E0,5.093647E0,1.13074E1,5.368496E1,5.6924664E1,0E0,0E0,0E0,0E0,0E0,0E0,0E0,0E0,0E0,0E0,0E0,0E0,0E0,0E0,0E0,0E0,0E0,0E0],"parents":[2147483647,0,0,1,1,3,3,4,4,6,6,7,7,8,8,9,9,10,10,11,11,12,12,13,13,14,14,15,15,16,16,17,17,19,19,20,20,21,21,22,22],"right_children":[2,4,-1,6,8,-1,10,12,14,16,18,20,22,24,26,28,30,32,-1,34,36,38,40,-1,-1,-1,-1,-1,-1,-1,-1,-1,-1,-1,-1,-1,-1,-1,-1,-1,-1],"split_conditions":[1.767184E0,-1.4373753E0,1.4029816E-1,-2.726612E-2,2.3331773E0,-2.0287941E-1,1.0557067E0,-1.2970936E-1,-1.3391068E0,-1.456695E0,-1.9796308E0,8.0160546E-1,-2.516179E-3,7.1059114E-1,-7.2462034E-1,5.903234E-1,-1.1800056E0,1.2776203E0,-2.3735395E-1,1.7734325E-1,6.433392E-1,1.0512346E0,-8.0900407E-1,-1.4322805E-2,3.5701275E-2,1.4750612E-1,5.8681276E-2,5.7125093E-5,4.4680875E-2,-9.562512E-3,-3.1986658E-2,-2.1445656E-2,-6.1703917E-2,-3.140008E-3,-3.6343966E-2,-6.0499426E-2,-3.6238323E-4,-6.2347956E-2,4.606971E-2,-1.1277516E-2,5.352353E-2],"split_indices":[5,7,0,5,1,0,5,7,8,10,7,12,4,5,10,5,13,5,0,5,10,7,15,0,0,0,0,0,0,0,0,0,0,0,0,0,0,0,0,0,0],"split_type":[0,0,0,0,0,0,0,0,0,0,0,0,0,0,0,0,0,0,0,0,0,0,0,0,0,0,0,0,0,0,0,0,0,0,0,0,0,0,0,0,0],"sum_hessian":[3.81E2,3.51E2,3E1,4.4E1,3.07E2,1.5E1,2.9E1,2.9E2,1.7E1,1.7E1,1.2E1,9.3E1,1.97E2,3E0,1.4E1,8E0,9E0,7E0,5E0,4.8E1,4.5E1,6.3E1,1.34E2,1E0,2E0,1.1E1,3E0,1E0,7E0,4E0,5E0,4E0,3E0,3E1,1.8E1,3.5E1,1E1,4.9E1,1.4E1,6.8E1,6.6E1],"tree_param":{"num_deleted":"0","num_feature":"16","num_nodes":"41","size_leaf_vector":"1"}},{"base_weights":[4.046086E-2,-2.2329542E-1,1.3494398E-1,-3.7102642E0,-1.342644E-1,-2.0547421E-1,-7.709978E-2,-1.0733979E0,-2.1618685E-2,-7.0761806E-1,-2.002811E-1,-9.541966E-2,1.2614085E-1,-1.5487168E0,-4.801936E-1,-7.1783555E-1,6.307881E-2,-9.432079E-2,-2.3482306E-2,-1.2071073E-2,-3.063488E-2,-1.2539254E-1,-2.7698634E-2,-2.6026977E-2,1.5239469E-2],"categories":[],"categories_nodes":[],"categories_segments":[],"categories_sizes":[],"default_left":[0,0,0,0,0,0,0,0,0,0,0,0,0,0,0,0,0,0,0,0,0,0,0,0,0],"id":27,"left_children":[1,3,-1,5,7,-1,-1,9,11,13,-1,15,-1,17,19,21,23,-1,-1,-1,-1,-1,-1,-1,-1],"loss_changes":[2.7967017E2,1.12194626E2,0E0,1.4537354E0,3.753202E1,0E0,0E0,3.7922398E1,5.9955345E1,5.9513397E0,0E0,3.062739E1,0E0,1.6648598E0,7.6959133E-1,1.7089695E1,3.51432E1,0E0,0E0,0E0,0E0,0E0,0E0,0E0,0E0],"parents":[2147483647,0,0,1,1,3,3,4,4,7,7,8,8,9,9,11,11,13,13,14,14,15,15,16,16],"right_children":[2,4,-1,6,8,-1,-1,10,12,14,-1,16,-1,18,20,22,24,-1,-1,-1,-1,-1,-1,-1,-1],"split_conditions":[1.6767404E0,-1.3838916E0,1.3494398E-1,-9.9794954E-1,-1.016047E0,-2.0547421E-1,-7.709978E-2,-8.756963E-1,1.0557067E0,-1.2145218E0,-2.002811E-1,4.7984302E-2,1.2614085E-1,-1.1731825E0,1.1004281E0,-1.2231672E0,-2.516179E-3,-9.432079E-2,-2.3482306E-2,-1.2071073E-2,-3.063488E-2,-1.2539254E-1,-2.7698634E-2,-2.6026977E-2,1.5239469E-2],"split_indices":[5,5,0,13,14,0,0,15,5,12,0,0,0,13,2,10,4,0,0,0,0,0,0,0,0],"split_type":[0,0,0,0,0,0,0,0,0,0,0,0,0,0,0,0,0,0,0,0,0,0,0,0,0],"sum_hessian":[3.97E2,3.62E2,3.5E1,8E0,3.54E2,6E0,2E0,3.7E1,3.17E2,3.4E1,3E0,3.09E2,8E0,6E0,2.8E1,6.2E1,2.47E2,4E0,2E0,1.1E1,1.7E1,4E0,5.8E1,7.2E1,1.75E2],"tree_param":{"num_deleted":"0","num_feature":"16","num_nodes":"25","size_leaf_vector":"1"}},{"base_weights":[-2.9068835E-2,-2.4516863E-1,1.297469E-1,-1.9959344E0,4.92478E-3,-6.414472E-1,-3.5892465E0,-9.533175E-2,2.494218E0,-1.2720903E0,4.288404E-2,-4.174554E0,-1.9058822E0,1.0465267E-1,-5.172224E-1,4.9491726E-2,2.6961114E0,-1.3970909E-1,-7.813933E-1,-8.223943E-2,-2.357482E-1,-1.1907797E-1,-2.3889653E-2,-5.6100774E-1,4.3671337E-1,-9.7871333E-1,-1.9799195E-1,1.4108716E-1,3.9135646E-2,-6.130113E-2,-1.7437452E-2,-5.6788333E-2,4.905213E-2,-1.3760544E-2,4.8481062E-2,-5.6855213E-2,-1.6219944E-2,-6.499946E-2,-5.712342E-3],"categories":[],"categories_nodes":[],"categories_segments":[],"categories_sizes":[],"default_left":[0,0,0,0,0,0,0,0,0,0,0,0,0,0,0,0,0,0,0,0,0,0,0,0,0,0,0,0,0,0,0,0,0,0,0,0,0,0,0],"id":28,"left_children":[1,3,-1,5,7,9,11,13,15,17,-1,19,21,23,25,-1,27,-1,29,-1,-1,-1,-1,31,33,35,37,-1,-1,-1,-1,-1,-1,-1,-1,-1,-1,-1,-1],"loss_changes":[2.1611415E2,1.5413477E2,0E0,9.2655014E1,7.735427E1,2.4726418E1,1.1749512E1,2.5196856E1,9.759903E-1,1.1260588E1,0E0,1.1384445E1,3.6172695E0,4.5116047E1,1.3949129E1,0E0,1.9522858E-1,0E0,2.45792E0,0E0,0E0,0E0,0E0,6.1383125E1,5.1863895E1,3.672985E0,5.2041197E0,0E0,0E0,0E0,0E0,0E0,0E0,0E0,0E0,0E0,0E0,0E0,0E0],"parents":[2147483647,0,0,1,1,3,3,4,4,5,5,6,6,7,7,8,8,9,9,11,11,12,12,13,13,14,14,16,16,18,18,23,23,24,24,25,25,26,26],"right_children":[2,4,-1,6,8,10,12,14,16,18,-1,20,22,24,26,-1,28,-1,30,-1,-1,-1,-1,32,34,36,38,-1,-1,-1,-1,-1,-1,-1,-1,-1,-1,-1,-1],"split_conditions":[1.767184E0,-1.4373753E0,1.297469E-1,-1.3952678E0,7.8300583E-1,-8.3176553E-1,-1.8293886E0,8.468965E-1,-5.08958E-1,-1.7391475E0,4.288404E-2,-1.5630165E0,2.9719922E-1,-2.516179E-3,1.3708683E0,4.9491726E-2,-7.2462034E-1,-1.3970909E-1,-1.0519063E0,-8.223943E-2,-2.357482E-1,-1.1907797E-1,-2.3889653E-2,5.4107383E-2,-8.4252584E-1,5.5704497E-2,-7.320624E-1,1.4108716E-1,3.9135646E-2,-6.130113E-2,-1.7437452E-2,-5.6788333E-2,4.905213E-2,-1.3760544E-2,4.8481062E-2,-5.6855213E-2,-1.6219944E-2,-6.499946E-2,-5.712342E-3],"split_indices":[5,7,0,10,5,14,7,14,6,5,0,8,5,4,14,0,10,0,14,0,0,0,0,5,15,6,8,0,0,0,0,0,0,0,0,0,0,0,0],"split_type":[0,0,0,0,0,0,0,0,0,0,0,0,0,0,0,0,0,0,0,0,0,0,0,0,0,0,0,0,0,0,0,0,0,0,0,0,0,0,0],"sum_hessian":[3.79E2,3.51E2,2.8E1,4.3E1,3.08E2,2.4E1,1.9E1,2.97E2,1.1E1,1.7E1,7E0,1.3E1,6E0,2.02E2,9.5E1,2E0,9E0,3E0,1.4E1,3E0,1E1,4E0,2E0,6.7E1,1.35E2,3.8E1,5.7E1,8E0,1E0,6E0,8E0,4.9E1,1.8E1,5.8E1,7.7E1,3E1,8E0,3E0,5.4E1],"tree_param":{"num_deleted":"0","num_feature":"16","num_nodes":"39","size_leaf_vector":"1"}},{"base_weights":[-7.2477475E-2,-3.0798535E0,9.748858E-2,-1.4745549E0,-1.977151E-1,-1.1948303E-1,1.2440153E-1,-1.7207305E-1,-4.2094448E-1,-1.0322974E0,-2.1927044E-2,1.3775463E-1,-6.0589742E-2,-2.8010702E-2,-2.3932571E0,-8.03494E-2,1.7387787E0,-8.926535E-2,2.6145864E-2,4.3799285E-2,-7.036738E-1,-7.976663E-3,-2.9879515E0,2.8990338E-2,-7.9451597E-1,-1.4498568E-2,1.9964144E0,1.1422873E-3,-6.712548E-3,-1.8355139E-2,-4.895305E-2,-5.1617105E-2,-1.6539134E-1,-2.8921833E-2,1.2244227E-2,2.5099316E-3,-5.791647E-2,1.10833704E-1,4.0850196E-2],"categories":[],"categories_nodes":[],"categories_segments":[],"categories_sizes":[],"default_left":[0,0,0,0,0,0,0,0,0,0,0,0,0,0,0,0,0,0,0,0,0,0,0,0,0,0,0,0,0,0,0,0,0,0,0,0,0,0,0],"id":29,"left_children":[1,3,5,7,-1,9,-1,-1,11,13,15,17,-1,19,21,23,25,27,-1,-1,29,-1,31,33,35,-1,37,-1,-1,-1,-1,-1,-1,-1,-1,-1,-1,-1,-1],"loss_changes":[2.0067177E2,2.3647934E1,1.9324615E2,1.720251E1,0E0,3.043264E1,0E0,0E0,3.259862E0,4.503716E1,3.2027733E1,4.838765E-1,0E0,1.2832348E1,1.812069E1,2.3527157E1,5.805685E0,2.3240611E-2,0E0,0E0,7.528324E-1,0E0,3.4662476E0,3.450032E1,1.2350887E1,0E0,5.2695847E-1,0E0,0E0,0E0,0E0,0E0,0E0,0E0,0E0,0E0,0E0,0E0,0E0],"parents":[2147483647,0,0,1,1,2,2,3,3,5,5,8,8,9,9,10,10,11,11,13,13,14,14,15,15,16,16,17,17,20,20,22,22,23,23,24,24,26,26],"right_children":[2,4,6,8,-1,10,-1,-1,12,14,16,18,-1,20,22,24,26,28,-1,-1,30,-1,32,34,36,-1,38,-1,-1,-1,-1,-1,-1,-1,-1,-1,-1,-1,-1],"split_conditions":[-1.3806154E0,-1.4086938E0,1.5102715E0,-2.4921362E0,-1.977151E-1,-1.4373753E0,1.2440153E-1,-1.7207305E-1,1.424638E0,-1.396171E0,2.3331773E0,-2.4867868E0,-6.0589742E-2,-2.516179E-3,-1.3106126E0,4.7428524E-1,-1.4174986E0,-2.9837496E0,2.6145864E-2,4.3799285E-2,-1.573048E0,-7.976663E-3,-1.9796308E0,-2.516179E-3,-6.724647E-1,-1.4498568E-2,-7.573969E-1,1.1422873E-3,-6.712548E-3,-1.8355139E-2,-4.895305E-2,-5.1617105E-2,-1.6539134E-1,-2.8921833E-2,1.2244227E-2,2.5099316E-3,-5.791647E-2,1.10833704E-1,4.0850196E-2],"split_indices":[6,10,5,5,0,7,0,0,5,10,1,6,0,4,11,1,8,6,0,0,8,0,7,4,7,0,8,0,0,0,0,0,0,0,0,0,0,0,0],"split_type":[0,0,0,0,0,0,0,0,0,0,0,0,0,0,0,0,0,0,0,0,0,0,0,0,0,0,0,0,0,0,0,0,0,0,0,0,0,0,0],"sum_hessian":[3.91E2,2E1,3.71E2,8E0,1.2E1,3.41E2,3E1,2E0,6E0,3.2E1,3.09E2,4E0,2E0,1.9E1,1.3E1,3E2,9E0,3E0,1E0,8E0,1.1E1,3E0,1E1,2.61E2,3.9E1,1E0,8E0,1E0,2E0,6E0,5E0,2E0,8E0,6.8E1,1.93E2,1.2E1,2.7E1,6E0,2E0],"tree_param":{"num_deleted":"0","num_feature":"16","num_nodes":"39","size_leaf_vector":"1"}},{"base_weights":[-7.575847E-2,-2.7885675E-1,1.1524504E-1,-3.1237304E0,-1.300516E-1,-2.2764137E0,-2.0650129E-1,-1.9878237E-1,1.0001991E0,-2.5898104E0,-4.729538E-1,-1.415857E-1,-1.9977585E0,-1.9402165E0,1.8565665E0,-1.2708356E0,-1.4867687E-1,-5.166149E-3,-3.0305386E-2,-5.604099E-1,1.5502056E-3,-7.4064875E-1,-1.8491304E-1,-1.14195466E-1,-1.41361235E-2,4.45471E-2,2.1041963E0,-1.2363026E-1,-2.3022017E-3,-5.9673082E-2,4.5268234E-2,-2.260253E-2,2.7586842E-2,-2.7543784E-3,-4.2286385E-2,1.14405215E-1,3.948854E-2],"categories":[],"categories_nodes":[],"categories_segments":[],"categories_sizes":[],"default_left":[0,0,0,0,0,0,0,0,0,0,0,0,0,0,0,0,0,0,0,0,0,0,0,0,0,0,0,0,0,0,0,0,0,0,0,0,0],"id":30,"left_children":[1,3,-1,5,7,9,-1,11,13,15,17,19,21,23,25,27,-1,-1,-1,29,31,33,-1,-1,-1,-1,35,-1,-1,-1,-1,-1,-1,-1,-1,-1,-1],"loss_changes":[1.9066129E2,1.5326323E2,0E0,5.94606E0,2.707714E1,5.557522E0,0E0,3.336396E1,5.396367E1,1.2823792E0,8.502853E-2,1.906458E1,1.863807E1,2.202631E0,1.9511604E0,5.7738204E0,0E0,0E0,0E0,7.6241325E1,5.9645905E1,4.5767736E-1,0E0,0E0,0E0,0E0,1.0937195E0,0E0,0E0,0E0,0E0,0E0,0E0,0E0,0E0,0E0,0E0],"parents":[2147483647,0,0,1,1,3,3,4,4,5,5,7,7,8,8,9,9,10,10,11,11,12,12,13,13,14,14,15,15,19,19,20,20,21,21,26,26],"right_children":[2,4,-1,6,8,10,-1,12,14,16,18,20,22,24,26,28,-1,-1,-1,30,32,34,-1,-1,-1,-1,36,-1,-1,-1,-1,-1,-1,-1,-1,-1,-1],"split_conditions":[1.767184E0,-2.1887903E0,1.1524504E-1,-1.2240994E0,2.3331773E0,-1.2322088E0,-2.0650129E-1,1.0557067E0,-1.2071995E0,-2.9359026E0,1.424638E0,-2.516179E-3,-1.9796308E0,-2.726612E-2,-5.08958E-1,-2.8624845E0,-1.4867687E-1,-5.166149E-3,-3.0305386E-2,-7.4077085E-2,4.5304173E-1,1.0606745E0,-1.8491304E-1,-1.14195466E-1,-1.41361235E-2,4.45471E-2,-7.2738874E-1,-1.2363026E-1,-2.3022017E-3,-5.9673082E-2,4.5268234E-2,-2.260253E-2,2.7586842E-2,-2.7543784E-3,-4.2286385E-2,1.14405215E-1,3.948854E-2],"split_indices":[5,6,0,12,1,12,0,5,10,6,5,4,7,5,6,5,0,0,0,5,9,5,0,0,0,0,9,0,0,0,0,0,0,0,0,0,0],"split_type":[0,0,0,0,0,0,0,0,0,0,0,0,0,0,0,0,0,0,0,0,0,0,0,0,0,0,0,0,0,0,0,0,0,0,0,0,0],"sum_hessian":[3.92E2,3.62E2,3E1,1.7E1,3.45E2,1.1E1,6E0,3.26E2,1.9E1,9E0,2E0,3.17E2,9E0,4E0,1.5E1,3E0,6E0,1E0,1E0,8E1,2.37E2,6E0,3E0,3E0,1E0,4E0,1.1E1,1E0,2E0,5.6E1,2.4E1,1.3E2,1.07E2,1E0,5E0,9E0,2E0],"tree_param":{"num_deleted":"0","num_feature":"16","num_nodes":"37","size_leaf_vector":"1"}},{"base_weights":[-3.7444048E-2,-2.5433624E-1,1.1428398E-1,-1.778571E0,-5.535111E-2,-2.239646E-1,-2.5478754E0,1.819575E0,-1.6545999E-1,-1.1674317E-1,2.8039396E-1,-1.4213824E0,-3.193172E0,4.707779E-1,2.1713185E0,-5.2507204E-1,6.4970027E-3,-3.017179E-1,4.1122478E-2,-2.3500032E0,-4.2236695E-1,-3.434703E0,-4.605627E-2,-1.378274E-2,3.631499E-2,1.1711718E-1,3.817228E-2,-2.8339812E-1,-9.401293E-1,-2.0379779E-1,3.900551E-1,-3.4084439E-3,-2.2991871E-2,-2.9547764E-2,-1.291811E-1,1.2900782E-2,-4.9857892E-2,-7.242908E-2,-1.9052593E-1,-6.2917866E-2,-9.871411E-3,-5.7307728E-2,-1.4492402E-2,8.723028E-3,-5.6968432E-2,-4.2096954E-3,3.576601E-2],"categories":[],"categories_nodes":[],"categories_segments":[],"categories_sizes":[],"default_left":[0,0,0,0,0,0,0,0,0,0,0,0,0,0,0,0,0,0,0,0,0,0,0,0,0,0,0,0,0,0,0,0,0,0,0,0,0,0,0,0,0,0,0,0,0,0,0],"id":31,"left_children":[1,3,-1,5,7,9,11,13,15,-1,17,19,21,23,25,27,29,31,-1,33,35,37,-1,-1,-1,-1,-1,39,41,43,45,-1,-1,-1,-1,-1,-1,-1,-1,-1,-1,-1,-1,-1,-1,-1,-1],"loss_changes":[2.0061667E2,1.1030278E2,0E0,4.9659912E1,6.698313E1,1.6624432E1,1.5815109E1,7.5175514E0,1.8925781E1,0E0,4.3501287E0,1.0139915E1,6.1652985E0,1.1538574E0,1.582695E0,9.66411E0,1.6856829E1,2.2715408E-1,0E0,9.388733E-1,2.9948263E0,5.676361E0,0E0,0E0,0E0,0E0,0E0,5.1158614E0,4.4908657E0,4.797358E1,1.1475219E1,0E0,0E0,0E0,0E0,0E0,0E0,0E0,0E0,0E0,0E0,0E0,0E0,0E0,0E0,0E0,0E0],"parents":[2147483647,0,0,1,1,3,3,4,4,5,5,6,6,7,7,8,8,10,10,11,11,12,12,13,13,14,14,15,15,16,16,17,17,19,19,20,20,21,21,27,27,28,28,29,29,30,30],"right_children":[2,4,-1,6,8,10,12,14,16,-1,18,20,22,24,26,28,30,32,-1,34,36,38,-1,-1,-1,-1,-1,40,42,44,46,-1,-1,-1,-1,-1,-1,-1,-1,-1,-1,-1,-1,-1,-1,-1,-1],"split_conditions":[1.767184E0,-1.4373753E0,1.1428398E-1,-1.5684557E0,-1.6378256E0,-1.7391475E0,-1.2056782E0,-5.440583E-1,-1.2970936E-1,-1.1674317E-1,-8.3401823E-1,-2.4867868E0,-1.3337739E0,7.1059114E-1,-7.2738874E-1,-5.8096975E-1,3.3925802E-1,1.1863486E0,4.1122478E-2,-1.9950541E0,8.3494633E-1,-1.5630165E0,-4.605627E-2,-1.378274E-2,3.631499E-2,1.1711718E-1,3.817228E-2,-7.3003966E-1,5.5704497E-2,-5.209575E-1,5.7369655E-1,-3.4084439E-3,-2.2991871E-2,-2.9547764E-2,-1.291811E-1,1.2900782E-2,-4.9857892E-2,-7.242908E-2,-1.9052593E-1,-6.2917866E-2,-9.871411E-3,-5.7307728E-2,-1.4492402E-2,8.723028E-3,-5.6968432E-2,-4.2096954E-3,3.576601E-2],"split_indices":[5,7,0,8,0,5,12,6,7,0,14,6,9,5,9,6,13,6,0,7,5,8,0,0,0,0,0,8,6,14,2,0,0,0,0,0,0,0,0,0,0,0,0,0,0,0,0],"split_type":[0,0,0,0,0,0,0,0,0,0,0,0,0,0,0,0,0,0,0,0,0,0,0,0,0,0,0,0,0,0,0,0,0,0,0,0,0,0,0,0,0,0,0,0,0,0,0],"sum_hessian":[3.96E2,3.63E2,3.3E1,4.1E1,3.22E2,1.4E1,2.7E1,1.7E1,3.05E2,2E0,1.2E1,1.1E1,1.6E1,4E0,1.3E1,9.8E1,2.07E2,6E0,6E0,5E0,6E0,1.4E1,2E0,1E0,3E0,1.1E1,2E0,6.3E1,3.5E1,1.34E2,7.3E1,3E0,3E0,1E0,4E0,3E0,3E0,3E0,1.1E1,4E0,5.9E1,2.6E1,9E0,9.6E1,3.8E1,3E1,4.3E1],"tree_param":{"num_deleted":"0","num_feature":"16","num_nodes":"47","size_leaf_vector":"1"}},{"base_weights":[-4.3399815E-2,-2.282932E-1,1.0495924E-1,-1.5711837E0,-2.5915736E-2,-5.5958945E-1,-3.323433E0,1.7498538E0,-1.086986E-1,-9.7511375E-1,7.5693226E-1,-9.09667E-3,-3.5084057E0,5.601673E-1,1.0848558E-1,-3.9463803E-1,4.729257E-2,-1.1336098E-1,-1.484608E0,4.0041585E-2,1.1240912E-2,-2.0686007E-1,-1.05446294E-1,-1.3438177E-2,4.1729547E-2,-1.4959894E-1,-6.559625E-1,8.5049355E-1,-4.936179E-2,2.2836173E-2,-2.1146454E-2,-1.1596532E-1,-4.851177E-2,-4.693922E-2,-3.5419408E-3,-4.337847E-2,1.4658341E-3,5.809743E-3,5.682334E-2,6.337168E-3,-1.4571713E-2],"categories":[],"categories_nodes":[],"categories_segments":[],"categories_sizes":[],"default_left":[0,0,0,0,0,0,0,0,0,0,0,0,0,0,0,0,0,0,0,0,0,0,0,0,0,0,0,0,0,0,0,0,0,0,0,0,0,0,0,0,0],"id":32,"left_children":[1,3,-1,5,7,9,11,13,15,17,19,-1,21,23,-1,25,27,29,31,-1,-1,-1,-1,-1,-1,33,35,37,39,-1,-1,-1,-1,-1,-1,-1,-1,-1,-1,-1,-1],"loss_changes":[1.5458147E2,9.752499E1,0E0,8.14508E1,4.6202232E1,1.7696547E1,9.240265E0,5.777588E0,1.3399871E1,1.0369097E1,6.834507E-3,0E0,5.3547516E0,1.3616984E0,0E0,6.6895485E0,1.5180395E1,1.9579611E0,4.1899147E0,0E0,0E0,0E0,0E0,0E0,0E0,3.4142532E0,7.4209347E0,4.277733E0,7.497224E0,0E0,0E0,0E0,0E0,0E0,0E0,0E0,0E0,0E0,0E0,0E0,0E0],"parents":[2147483647,0,0,1,1,3,3,4,4,5,5,6,6,7,7,8,8,9,9,10,10,12,12,13,13,15,15,16,16,17,17,18,18,25,25,26,26,27,27,28,28],"right_children":[2,4,-1,6,8,10,12,14,16,18,20,-1,22,24,-1,26,28,30,32,-1,-1,-1,-1,-1,-1,34,36,38,40,-1,-1,-1,-1,-1,-1,-1,-1,-1,-1,-1,-1],"split_conditions":[1.767184E0,-1.4373753E0,1.0495924E-1,-1.2921408E0,-1.6378256E0,-7.342248E-1,-1.5811557E0,-1.1647007E0,-6.0719263E-2,-1.5798835E0,9.9499035E-1,-9.09667E-3,-1.4701669E0,7.1059114E-1,1.0848558E-1,1.1072478E0,-6.325997E-1,-1.2746578E0,-1.2322088E0,4.0041585E-2,1.1240912E-2,-2.0686007E-1,-1.05446294E-1,-1.3438177E-2,4.1729547E-2,-7.3003966E-1,1.0358604E0,6.09921E-1,-5.542742E-1,2.2836173E-2,-2.1146454E-2,-1.1596532E-1,-4.851177E-2,-4.693922E-2,-3.5419408E-3,-4.337847E-2,1.4658341E-3,5.809743E-3,5.682334E-2,6.337168E-3,-1.4571713E-2],"split_indices":[5,7,0,11,0,15,8,8,7,9,5,0,8,5,0,13,5,12,12,0,0,0,0,0,0,8,11,0,15,0,0,0,0,0,0,0,0,0,0,0,0],"split_type":[0,0,0,0,0,0,0,0,0,0,0,0,0,0,0,0,0,0,0,0,0,0,0,0,0,0,0,0,0,0,0,0,0,0,0,0,0,0,0,0,0],"sum_hessian":[3.88E2,3.58E2,3E1,4.6E1,3.12E2,3E1,1.6E1,1.3E1,2.99E2,2.3E1,7E0,1E0,1.5E1,4E0,9E0,1.05E2,1.94E2,9E0,1.4E1,6E0,1E0,9E0,6E0,1E0,3E0,5.5E1,5E1,2E1,1.74E2,3E0,6E0,4E0,1E1,4E0,5.1E1,3.8E1,1.2E1,6E0,1.4E1,1.01E2,7.3E1],"tree_param":{"num_deleted":"0","num_feature":"16","num_nodes":"41","size_leaf_vector":"1"}},{"base_weights":[-7.367263E-3,-2.0637505E-1,1.04121566E-1,-2.6788392E0,-9.010079E-2,-1.1274112E0,-1.7484774E-1,5.435082E-2,-4.6082416E-1,-1.1819184E-1,-5.273676E-1,-5.042887E-1,2.7373517E-1,-8.82449E-1,-1.439056E-1,-3.8046837E-2,-5.0200302E-2,-4.0272802E-1,-1.03967845E-1,-3.2219008E-2,9.768932E-1,-1.0278132E0,-2.513968E-1,-5.6377824E-2,-8.65934E-2,-3.8955926E-3,6.0606002E-5,-2.8863762E-2,-1.3523839E-2,-3.8990505E-2,1.7773768E-2,3.8326442E-2,1.13991775E-1,-3.980945E-2,-6.614564E-2,1.08914375E-2,-1.6863931E-2,-1.5653726E-2,6.744586E-3],"categories":[],"categories_nodes":[],"categories_segments":[],"categories_sizes":[],"default_left":[0,0,0,0,0,0,0,0,0,0,0,0,0,0,0,0,0,0,0,0,0,0,0,0,0,0,0,0,0,0,0,0,0,0,0,0,0,0,0],"id":33,"left_children":[1,3,-1,5,7,9,-1,11,13,-1,15,17,19,21,23,25,-1,27,-1,29,31,33,35,-1,37,-1,-1,-1,-1,-1,-1,-1,-1,-1,-1,-1,-1,-1,-1],"loss_changes":[1.6262538E2,1.023904E2,0E0,1.6365463E1,1.833969E1,3.9467545E0,0E0,3.0409557E1,1.27006E1,0E0,1.3611752E0,1.0360128E1,3.8325348E1,3.5026379E0,3.0593715E0,6.354675E-3,0E0,1.3904934E0,0E0,3.650681E1,1.3053448E1,1.2023392E0,4.3615043E-1,0E0,2.7509894E0,0E0,0E0,0E0,0E0,0E0,0E0,0E0,0E0,0E0,0E0,0E0,0E0,0E0,0E0],"parents":[2147483647,0,0,1,1,3,3,4,4,5,5,7,7,8,8,10,10,11,11,12,12,13,13,14,14,15,15,17,17,19,19,20,20,21,21,22,22,24,24],"right_children":[2,4,-1,6,8,10,-1,12,14,-1,16,18,20,22,24,26,-1,28,-1,30,32,34,36,-1,38,-1,-1,-1,-1,-1,-1,-1,-1,-1,-1,-1,-1,-1,-1],"split_conditions":[1.767184E0,-2.1887903E0,1.04121566E-1,-1.4086938E0,8.468965E-1,-2.8624845E0,-1.7484774E-1,-9.81908E-1,1.3708683E0,-1.1819184E-1,1.424638E0,1.3330988E0,-2.726612E-2,5.5704497E-2,-7.320624E-1,-1.1437017E0,-5.0200302E-2,-1.396171E0,-1.03967845E-1,-1.0992544E-1,-5.0513506E-1,-8.412153E-2,-2.628793E-1,-5.6377824E-2,-8.37538E-1,-3.8955926E-3,6.0606002E-5,-2.8863762E-2,-1.3523839E-2,-3.8990505E-2,1.7773768E-2,3.8326442E-2,1.13991775E-1,-3.980945E-2,-6.614564E-2,1.08914375E-2,-1.6863931E-2,-1.5653726E-2,6.744586E-3],"split_indices":[5,6,0,10,14,5,0,14,14,0,5,5,5,6,8,5,0,10,0,13,14,5,10,0,5,0,0,0,0,0,0,0,0,0,0,0,0,0,0],"split_type":[0,0,0,0,0,0,0,0,0,0,0,0,0,0,0,0,0,0,0,0,0,0,0,0,0,0,0,0,0,0,0,0,0,0,0,0,0,0,0],"sum_hessian":[3.89E2,3.56E2,3.3E1,1.5E1,3.41E2,6E0,9E0,2.46E2,9.5E1,1E0,5E0,6.9E1,1.77E2,4E1,5.5E1,3E0,2E0,6.6E1,3E0,1.24E2,5.3E1,3.2E1,8E0,2E0,5.3E1,1E0,2E0,2.7E1,3.9E1,4.2E1,8.2E1,4.7E1,6E0,2E1,1.2E1,1E0,7E0,2.6E1,2.7E1],"tree_param":{"num_deleted":"0","num_feature":"16","num_nodes":"39","size_leaf_vector":"1"}},{"base_weights":[-4.5132414E-2,-1.6091489E0,1.5757193E-1,-2.983276E0,-7.664638E-1,-6.70675E-2,1.9504286E0,-1.5331602E-1,-4.3440174E-2,2.0370108E-1,-2.2843277E0,-5.895803E-1,7.389565E-2,3.8727473E-2,1.0157009E-1,-1.8151397E-1,3.5395455E-2,-7.8079516E-1,-1.7035697E-1,-1.1577348E0,6.898383E-1,-3.4168243E-1,5.2962965E-1,-4.4125177E-2,-2.5371823E-1,-9.186054E-3,-4.317329E-2,-1.656482E0,2.9329708E-2,-7.789993E-2,8.299039E-1,-1.4888239E-1,-7.5312656E-1,9.467771E-1,-2.1583985E-1,6.840706E-4,-3.0998588E-3,-1.3500452E-3,-1.4350216E-2,-8.7840766E-2,-2.700143E-2,2.046451E-2,-2.045504E-2,-1.1094094E-3,-4.453723E-3,4.5846194E-2,-1.4060402E-2,5.59278E-4,-2.1403562E-2,-4.3200113E-2,-6.141867E-3,-3.964758E-3,5.6655325E-2,-4.886716E-3,-2.3135148E-2],"categories":[],"categories_nodes":[],"categories_segments":[],"categories_sizes":[],"default_left":[0,0,0,0,0,0,0,0,0,0,0,0,0,0,0,0,0,0,0,0,0,0,0,0,0,0,0,0,0,0,0,0,0,0,0,0,0,0,0,0,0,0,0,0,0,0,0,0,0,0,0,0,0,0,0],"id":34,"left_children":[1,3,5,7,9,11,13,-1,-1,15,17,19,21,-1,-1,23,-1,25,-1,27,29,31,33,35,37,-1,-1,39,41,43,45,47,49,51,53,-1,-1,-1,-1,-1,-1,-1,-1,-1,-1,-1,-1,-1,-1,-1,-1,-1,-1,-1,-1],"loss_changes":[1.1882388E2,4.7505547E1,1.3384258E2,1.4550781E-1,4.1697517E1,2.1845463E1,1.9495239E0,0E0,0E0,3.6246085E0,1.590974E1,4.6593815E1,4.449894E1,0E0,0E0,9.7925276E-2,0E0,1.3752604E-1,0E0,2.6098572E1,2.2153234E0,9.645026E0,3.5033073E1,6.013805E-3,4.507634E-2,0E0,0E0,2.5238113E0,2.4996488E0,5.1380694E-4,1.9015579E0,3.8033686E0,2.6193352E0,1.3855347E1,1.1501698E0,0E0,0E0,0E0,0E0,0E0,0E0,0E0,0E0,0E0,0E0,0E0,0E0,0E0,0E0,0E0,0E0,0E0,0E0,0E0,0E0],"parents":[2147483647,0,0,1,1,2,2,3,3,4,4,5,5,6,6,9,9,10,10,11,11,12,12,15,15,17,17,19,19,20,20,21,21,22,22,23,23,24,24,27,27,28,28,29,29,30,30,31,31,32,32,33,33,34,34],"right_children":[2,4,6,8,10,12,14,-1,-1,16,18,20,22,-1,-1,24,-1,26,-1,28,30,32,34,36,38,-1,-1,40,42,44,46,48,50,52,54,-1,-1,-1,-1,-1,-1,-1,-1,-1,-1,-1,-1,-1,-1,-1,-1,-1,-1,-1,-1],"split_conditions":[-1.4373753E0,3.6222696E-1,7.5657403E-1,-1.3337739E0,1.083446E0,-2.516179E-3,-1.0841892E0,-1.5331602E-1,-4.3440174E-2,-8.3401823E-1,-1.9796308E0,-9.1903634E-2,4.5481429E-1,3.8727473E-2,1.0157009E-1,-1.3138703E0,3.5395455E-2,1.1602937E0,-1.7035697E-1,3.7564754E-1,5.4107383E-2,1.1072478E0,1.2203469E0,-2.516179E-3,-2.0601E0,-9.186054E-3,-4.317329E-2,1.5694374E0,1.6825672E0,9.6247685E-1,5.700497E-1,2.912478E-1,1.0306716E0,5.7369655E-1,-9.795976E-2,6.840706E-4,-3.0998588E-3,-1.3500452E-3,-1.4350216E-2,-8.7840766E-2,-2.700143E-2,2.046451E-2,-2.045504E-2,-1.1094094E-3,-4.453723E-3,4.5846194E-2,-1.4060402E-2,5.59278E-4,-2.1403562E-2,-4.3200113E-2,-6.141867E-3,-3.964758E-3,5.6655325E-2,-4.886716E-3,-2.3135148E-2],"split_indices":[7,5,5,9,5,4,9,0,0,14,7,5,9,0,0,11,0,5,0,13,5,13,4,4,7,0,0,10,11,7,5,5,11,2,5,0,0,0,0,0,0,0,0,0,0,0,0,0,0,0,0,0,0,0,0],"split_type":[0,0,0,0,0,0,0,0,0,0,0,0,0,0,0,0,0,0,0,0,0,0,0,0,0,0,0,0,0,0,0,0,0,0,0,0,0,0,0,0,0,0,0,0,0,0,0,0,0,0,0,0,0,0,0],"sum_hessian":[3.73E2,4.2E1,3.31E2,1.5E1,2.7E1,2.95E2,3.6E1,1.4E1,1E0,1.7E1,1E1,6.2E1,2.33E2,3E0,3.3E1,1E1,7E0,5E0,5E0,4.3E1,1.9E1,1.22E2,1.11E2,4E0,6E0,1E0,4E0,3E1,1.3E1,3E0,1.6E1,8.4E1,3.8E1,7.1E1,4E1,1E0,3E0,1E0,5E0,2.7E1,3E0,7E0,6E0,1E0,2E0,1.5E1,1E0,5.4E1,3E1,3.2E1,6E0,1.1E1,6E1,2.8E1,1.2E1],"tree_param":{"num_deleted":"0","num_feature":"16","num_nodes":"55","size_leaf_vector":"1"}},{"base_weights":[-3.1831387E-2,-2.0745149E-1,1.849273E0,-2.374823E0,-1.0097802E-1,3.6341764E-2,9.483559E-2,-2.701458E0,-6.3789487E-1,-8.2776433E-1,-2.4759892E-2,-1.2312839E0,-1.5831997E-1,3.6627054E-3,-4.496813E-2,-5.503225E-1,-1.7093712E-1,-1.322131E-1,1.0851951E0,-1.0307478E-1,9.355863E-3,-3.883369E-1,-7.733204E-2,-8.1479645E-1,8.557346E-2,7.700454E-1,1.05620146E-1,3.4713747E-5,6.66976E-4,-2.4605393E-2,-9.161325E-3,-5.185281E-2,4.0342983E-2,2.723493E-2,-1.6537583E-2,4.1541535E-2,4.3933233E-3],"categories":[],"categories_nodes":[],"categories_segments":[],"categories_sizes":[],"default_left":[0,0,0,0,0,0,0,0,0,0,0,0,0,0,0,0,0,0,0,0,0,0,0,0,0,0,0,0,0,0,0,0,0,0,0,0,0],"id":35,"left_children":[1,3,5,7,9,-1,-1,11,13,15,17,19,-1,-1,-1,21,-1,23,25,-1,27,29,-1,31,33,35,-1,-1,-1,-1,-1,-1,-1,-1,-1,-1,-1],"loss_changes":[1.3153645E2,8.375959E1,4.3180847E-1,7.9215546E0,1.9256718E1,0E0,0E0,5.670891E0,8.096522E-1,2.18405E1,3.7832237E1,5.169256E0,0E0,0E0,0E0,4.4024477E0,0E0,4.3031734E1,7.4376297E0,0E0,9.4253104E-5,5.057988E-1,0E0,2.6066784E1,4.2232132E1,8.8072586E-1,0E0,0E0,0E0,0E0,0E0,0E0,0E0,0E0,0E0,0E0,0E0],"parents":[2147483647,0,0,1,1,2,2,3,3,4,4,7,7,8,8,9,9,10,10,11,11,15,15,17,17,18,18,20,20,21,21,23,23,24,24,25,25],"right_children":[2,4,6,8,10,-1,-1,12,14,16,18,20,-1,-1,-1,22,-1,24,26,-1,28,30,-1,32,34,36,-1,-1,-1,-1,-1,-1,-1,-1,-1,-1,-1],"split_conditions":[1.6767404E0,-1.6111382E0,3.923617E-1,1.1333766E0,-1.022448E0,3.6341764E-2,9.483559E-2,-1.4969381E0,1.424638E0,-8.756963E-1,5.955328E-1,-1.7391475E0,-1.5831997E-1,3.6627054E-3,-4.496813E-2,1.3330988E0,-1.7093712E-1,-2.516179E-3,-6.7800915E-1,-1.0307478E-1,-1.1437017E0,-1.396171E0,-7.733204E-2,2.9719922E-1,5.8651614E-1,-2.516179E-3,1.05620146E-1,3.4713747E-5,6.66976E-4,-2.4605393E-2,-9.161325E-3,-5.185281E-2,4.0342983E-2,2.723493E-2,-1.6537583E-2,4.1541535E-2,4.3933233E-3],"split_indices":[5,6,6,5,14,0,0,10,5,15,6,5,0,0,0,5,0,4,11,0,5,10,0,5,15,4,0,0,0,0,0,0,0,0,0,0,0],"split_type":[0,0,0,0,0,0,0,0,0,0,0,0,0,0,0,0,0,0,0,0,0,0,0,0,0,0,0,0,0,0,0,0,0,0,0,0,0],"sum_hessian":[3.96E2,3.63E2,3.3E1,1.6E1,3.47E2,2E0,3.1E1,1.3E1,3E0,3.2E1,3.15E2,4E0,9E0,1E0,2E0,3E1,2E0,2.88E2,2.7E1,2E0,2E0,2.7E1,3E0,6.9E1,2.19E2,2.2E1,5E0,1E0,1E0,1.7E1,1E1,6.1E1,8E0,1.04E2,1.15E2,2E1,2E0],"tree_param":{"num_deleted":"0","num_feature":"16","num_nodes":"37","size_leaf_vector":"1"}},{"base_weights":[-4.9812254E-2,-2.1116967E-1,1.7569306E0,-1.557151E0,-2.2489218E-2,1.8909417E0,6.0217656E-2,-6.6847914E-1,-2.6912727E0,-8.3637446E-2,1.6750289E0,2.6283933E-2,9.637227E-2,-1.3193499E-1,-1.9031633E-1,-7.232443E-1,-3.0150754E0,-2.0048419E-2,-5.8988976E-1,3.3012986E-2,9.8651744E-2,4.6347058E-1,-5.263149E-1,-3.3127547E-3,-4.6007786E-2,-1.7054997E-1,-8.933511E-2,-3.5263506E-1,4.5681614E-2,-8.736955E-1,-2.1600235E-1,4.5611063E-4,3.0669985E-2,-4.6210505E-2,-1.1747317E-2,-8.201599E-4,-2.0197121E-2,2.8635193E-2,-6.2589617E-3,-2.7052486E-2,-5.1132567E-2,-8.506775E-5,-1.23247625E-2],"categories":[],"categories_nodes":[],"categories_segments":[],"categories_sizes":[],"default_left":[0,0,0,0,0,0,0,0,0,0,0,0,0,0,0,0,0,0,0,0,0,0,0,0,0,0,0,0,0,0,0,0,0,0,0,0,0,0,0,0,0,0,0],"id":36,"left_children":[1,3,5,7,9,11,-1,13,15,17,19,-1,-1,-1,21,23,25,27,29,-1,-1,31,33,-1,-1,-1,-1,35,37,39,41,-1,-1,-1,-1,-1,-1,-1,-1,-1,-1,-1,-1],"loss_changes":[1.1377672E2,9.08828E1,9.2292786E-2,4.2546867E1,3.2837166E1,1.8286896E-1,0E0,2.3992058E1,9.92717E0,9.806762E0,2.0237637E0,0E0,0E0,0E0,5.0767035E0,4.565096E-1,1.687027E0,5.9622827E0,3.4190674E0,0E0,0E0,5.393646E-1,1.5218725E0,0E0,0E0,0E0,0E0,7.6967716E-1,2.0602512E1,3.881359E-1,1.04135156E-1,0E0,0E0,0E0,0E0,0E0,0E0,0E0,0E0,0E0,0E0,0E0,0E0],"parents":[2147483647,0,0,1,1,2,2,3,3,4,4,5,5,7,7,8,8,9,9,10,10,14,14,15,15,16,16,17,17,18,18,21,21,22,22,27,27,28,28,29,29,30,30],"right_children":[2,4,6,8,10,12,-1,14,16,18,20,-1,-1,-1,22,24,26,28,30,-1,-1,32,34,-1,-1,-1,-1,36,38,40,42,-1,-1,-1,-1,-1,-1,-1,-1,-1,-1,-1,-1],"split_conditions":[1.6767404E0,-1.4373753E0,6.4097846E-1,-1.3952678E0,7.5657403E-1,-1.0294373E0,6.0217656E-2,-1.7391475E0,-8.798577E-1,1.5495132E0,-1.0841892E0,2.6283933E-2,9.637227E-2,-1.3193499E-1,-1.4356986E0,-1.3210028E0,-1.4701669E0,-1.1414952E0,4.7984302E-2,3.3012986E-2,9.8651744E-2,5.903234E-1,-1.1731825E0,-3.3127547E-3,-4.6007786E-2,-1.7054997E-1,-8.933511E-2,4.3414032E-1,-5.542742E-1,-1.4153521E-1,-3.7454897E-1,4.5611063E-4,3.0669985E-2,-4.6210505E-2,-1.1747317E-2,-8.201599E-4,-2.0197121E-2,2.8635193E-2,-6.2589617E-3,-2.7052486E-2,-5.1132567E-2,-8.506775E-5,-1.23247625E-2],"split_indices":[5,7,7,10,5,7,0,5,15,13,9,0,0,0,10,11,8,13,0,0,0,5,13,0,0,0,0,7,15,5,7,0,0,0,0,0,0,0,0,0,0,0,0],"split_type":[0,0,0,0,0,0,0,0,0,0,0,0,0,0,0,0,0,0,0,0,0,0,0,0,0,0,0,0,0,0,0,0,0,0,0,0,0,0,0,0,0,0,0],"sum_hessian":[3.88E2,3.57E2,3.1E1,4.3E1,3.14E2,2.3E1,8E0,2.5E1,1.8E1,3.04E2,1E1,1E0,2.2E1,4E0,2.1E1,3E0,1.5E1,2.71E2,3.3E1,3E0,7E0,7E0,1.4E1,1E0,2E0,1E1,5E0,4.4E1,2.27E2,1.8E1,1.5E1,2E0,5E0,5E0,9E0,6E0,3.8E1,5.5E1,1.72E2,7E0,1.1E1,2E0,1.3E1],"tree_param":{"num_deleted":"0","num_feature":"16","num_nodes":"43","size_leaf_vector":"1"}},{"base_weights":[-1.04963975E-2,-2.273617E0,8.713279E-2,-2.5587368E0,-1.134606E0,1.318298E0,-1.2675118E-1,-1.6650032E-1,-8.784258E-2,8.818309E-3,-9.4991416E-2,-1.3730053E0,1.6758658E0,-6.7487884E-1,-4.5162786E-2,6.389141E-4,2.2459031E-5,-8.207884E-2,-2.338589E-2,2.902403E-2,1.7346848E0,-3.989374E-1,-1.9581746E0,1.5389977E-1,-4.1032705E-1,9.140412E-2,5.737985E-2,-5.428617E-1,-1.9409847E-1,-9.794834E-1,-1.4683008E-1,-3.722263E-1,4.7665688E-1,-8.0072385E-1,-1.2728228E-1,-4.183814E-2,-2.0854438E-2,-3.2281878E-5,-1.2926447E-2,-1.2721181E-2,-5.4857124E-2,-4.2347E-2,3.7658207E-2,-9.484788E-3,4.3206196E-2,-4.650381E-2,-1.5336213E-2,1.4255977E-2,-1.1493411E-2],"categories":[],"categories_nodes":[],"categories_segments":[],"categories_sizes":[],"default_left":[0,0,0,0,0,0,0,0,0,0,0,0,0,0,0,0,0,0,0,0,0,0,0,0,0,0,0,0,0,0,0,0,0,0,0,0,0,0,0,0,0,0,0,0,0,0,0,0,0],"id":37,"left_children":[1,3,5,7,9,11,13,-1,-1,15,-1,17,19,21,23,-1,-1,-1,-1,-1,25,27,29,31,33,-1,-1,35,37,39,-1,41,43,45,47,-1,-1,-1,-1,-1,-1,-1,-1,-1,-1,-1,-1,-1,-1],"loss_changes":[8.5483505E1,2.292923E0,9.786122E1,1.5713043E0,4.3916216E0,5.522876E1,1.4146032E1,0E0,0E0,9.368482E-5,0E0,9.34145E-1,2.1500854E0,1.3737503E1,2.0198425E1,0E0,0E0,0E0,0E0,0E0,4.2440796E-1,9.2647696E-1,3.8266926E0,3.074339E1,1.0727062E1,0E0,0E0,3.902917E-1,1.9926119E-1,1.4740992E-1,0E0,3.7500324E1,2.9081163E1,2.3346214E0,2.5193243E0,0E0,0E0,0E0,0E0,0E0,0E0,0E0,0E0,0E0,0E0,0E0,0E0,0E0,0E0],"parents":[2147483647,0,0,1,1,2,2,3,3,4,4,5,5,6,6,9,9,11,11,12,12,13,13,14,14,20,20,21,21,22,22,23,23,24,24,27,27,28,28,29,29,31,31,32,32,33,33,34,34],"right_children":[2,4,6,8,10,12,14,-1,-1,16,-1,18,20,22,24,-1,-1,-1,-1,-1,26,28,30,32,34,-1,-1,36,38,40,-1,42,44,46,48,-1,-1,-1,-1,-1,-1,-1,-1,-1,-1,-1,-1,-1,-1],"split_conditions":[-1.6111382E0,-9.9794954E-1,-1.6378256E0,-1.5397906E0,-2.9359026E0,-1.0833333E0,-1.0139133E0,-1.6650032E-1,-8.784258E-2,-2.9837496E0,-9.4991416E-2,-1.3319166E0,-5.08958E-1,-8.7777704E-1,8.103163E-1,6.389141E-4,2.2459031E-5,-8.207884E-2,-2.338589E-2,2.902403E-2,2.0145843E-2,-1.4523151E0,-1.5780611E0,-2.516179E-3,1.3708683E0,9.140412E-2,5.737985E-2,-1.1857892E0,-1.3138703E0,7.0590633E-1,-1.4683008E-1,4.9447578E-1,-8.4252584E-1,5.5704497E-2,-5.0290656E-1,-4.183814E-2,-2.0854438E-2,-3.2281878E-5,-1.2926447E-2,-1.2721181E-2,-5.4857124E-2,-4.2347E-2,3.7658207E-2,-9.484788E-3,4.3206196E-2,-4.650381E-2,-1.5336213E-2,1.4255977E-2,-1.1493411E-2],"split_indices":[6,13,0,9,6,11,14,0,0,6,0,9,6,15,14,0,0,0,0,0,9,9,9,4,14,0,0,12,11,6,0,6,15,6,9,0,0,0,0,0,0,0,0,0,0,0,0,0,0],"split_type":[0,0,0,0,0,0,0,0,0,0,0,0,0,0,0,0,0,0,0,0,0,0,0,0,0,0,0,0,0,0,0,0,0,0,0,0,0,0,0,0,0,0,0,0,0,0,0,0,0],"sum_hessian":[3.85E2,1.5E1,3.7E2,1.1E1,4E0,5.4E1,3.16E2,4E0,7E0,2E0,2E0,6E0,4.8E1,4E1,2.76E2,1E0,1E0,4E0,2E0,3E0,4.5E1,3.4E1,6E0,1.79E2,9.7E1,3.7E1,8E0,1.9E1,1.5E1,4E0,2E0,6.8E1,1.11E2,4E1,5.7E1,4E0,1.5E1,4E0,1.1E1,1E0,3E0,4.8E1,2E1,4.1E1,7E1,3.1E1,9E0,1.1E1,4.6E1],"tree_param":{"num_deleted":"0","num_feature":"16","num_nodes":"49","size_leaf_vector":"1"}},{"base_weights":[-6.0765397E-2,-1.0999477E0,1.3962986E-1,-5.2402824E-1,-2.311973E0,1.5728544E0,-8.291066E-2,-8.224877E-1,5.729828E-1,-3.7106514E-2,-2.5626745E0,8.2896096E-1,1.6684965E0,7.349341E-2,-3.714291E-1,-1.771849E0,-4.2571455E-1,6.3701156E-3,3.0416796E-2,4.4612886E-4,-3.2291175E-3,-2.668571E0,-1.9060874E-2,1.2273217E-2,4.4264983E-2,9.431671E-2,1.2884417E0,3.6072302E-1,-1.9080481E-1,-1.9991814E-1,-9.0621716E-1,-2.1525707E0,-1.6597478E-1,6.0608867E-3,-4.5244056E-1,-5.519576E-2,-2.8035975E0,2.7597522E-2,6.7492194E-2,-1.0379972E-1,5.756482E-1,2.8364077E-1,-4.6321183E-1,-5.5550463E-2,-1.3477604E-1,-1.0490735E0,-1.5140136E-2,-1.2377377E-1,-3.94619E-2,2.2509886E-2,-3.4957994E-2,-2.4417339E-2,-7.092321E-3,-1.645106E-1,-8.887182E-2,-7.938868E-3,6.6705383E-3,-7.4942657E-3,3.974768E-2,-1.685983E-2,4.986765E-2,-7.969757E-2,1.7794805E-3,1.4379892E-2,-1.2448463E-2,-5.369072E-2,-1.50934225E-2],"categories":[],"categories_nodes":[],"categories_segments":[],"categories_sizes":[],"default_left":[0,0,0,0,0,0,0,0,0,0,0,0,0,0,0,0,0,0,0,0,0,0,0,0,0,0,0,0,0,0,0,0,0,0,0,0,0,0,0,0,0,0,0,0,0,0,0,0,0,0,0,0,0,0,0,0,0,0,0,0,0,0,0,0,0,0,0],"id":38,"left_children":[1,3,5,7,9,11,13,15,17,19,21,23,25,27,29,31,33,-1,-1,-1,-1,35,-1,-1,-1,-1,37,39,41,43,45,47,49,-1,51,-1,53,-1,-1,55,57,59,61,-1,63,65,-1,-1,-1,-1,-1,-1,-1,-1,-1,-1,-1,-1,-1,-1,-1,-1,-1,-1,-1,-1,-1],"loss_changes":[8.116175E1,4.2764297E1,1.0442722E2,1.4877459E1,1.1311142E1,1.7473679E0,1.2842926E1,1.2429533E1,8.002281E-2,4.370304E-3,3.140854E0,1.2804508E-2,7.1559906E-1,1.4112968E1,8.991032E0,5.7566395E0,4.3489408E-1,0E0,0E0,0E0,0E0,4.9665833E-1,0E0,0E0,0E0,0E0,2.3731232E-2,8.9453E0,1.266789E1,4.4202433E0,1.7511749E0,1.5680733E0,1.300362E0,0E0,2.095356E-1,0E0,1.6420288E0,0E0,0E0,3.993795E-1,9.825073E0,1.6287872E1,3.502563E1,0E0,3.592555E0,2.709198E-2,0E0,0E0,0E0,0E0,0E0,0E0,0E0,0E0,0E0,0E0,0E0,0E0,0E0,0E0,0E0,0E0,0E0,0E0,0E0,0E0,0E0],"parents":[2147483647,0,0,1,1,2,2,3,3,4,4,5,5,6,6,7,7,8,8,9,9,10,10,11,11,12,12,13,13,14,14,15,15,16,16,21,21,26,26,27,27,28,28,29,29,30,30,31,31,32,32,34,34,36,36,39,39,40,40,41,41,42,42,44,44,45,45],"right_children":[2,4,6,8,10,12,14,16,18,20,22,24,26,28,30,32,34,-1,-1,-1,-1,36,-1,-1,-1,-1,38,40,42,44,46,48,50,-1,52,-1,54,-1,-1,56,58,60,62,-1,64,66,-1,-1,-1,-1,-1,-1,-1,-1,-1,-1,-1,-1,-1,-1,-1,-1,-1,-1,-1,-1,-1],"split_conditions":[-1.4257706E0,-1.3952678E0,-1.6378256E0,-8.3176553E-1,-1.3138703E0,-8.6475146E-1,8.468965E-1,-1.3225405E0,-1.5740975E0,-1.475519E0,-1.3337739E0,-1.3787029E0,-6.36798E-1,8.926634E-1,1.3394662E0,-8.3401823E-1,-1.3186939E0,6.3701156E-3,3.0416796E-2,4.4612886E-4,-3.2291175E-3,-1.5630165E0,-1.9060874E-2,1.2273217E-2,4.4264983E-2,9.431671E-2,-6.540282E-1,-8.4252584E-1,-5.1286113E-1,-7.3003966E-1,1.0203943E0,-1.5479599E0,-1.6699709E0,6.0608867E-3,-1.0075122E0,-5.519576E-2,-1.5027897E0,2.7597522E-2,6.7492194E-2,8.60387E-1,5.7369655E-1,-7.90006E-1,-3.82835E-2,-5.5550463E-2,-5.783338E-1,1.3953024E0,-1.5140136E-2,-1.2377377E-1,-3.94619E-2,2.2509886E-2,-3.4957994E-2,-2.4417339E-2,-7.092321E-3,-1.645106E-1,-8.887182E-2,-7.938868E-3,6.6705383E-3,-7.4942657E-3,3.974768E-2,-1.685983E-2,4.986765E-2,-7.969757E-2,1.7794805E-3,1.4379892E-2,-1.2448463E-2,-5.369072E-2,-1.50934225E-2],"split_indices":[8,10,0,14,11,11,14,11,9,8,9,8,10,9,12,14,11,0,0,0,0,8,0,0,0,0,9,15,14,8,11,8,8,0,14,0,8,0,0,8,2,12,13,0,8,12,0,0,0,0,0,0,0,0,0,0,0,0,0,0,0,0,0,0,0,0,0],"split_type":[0,0,0,0,0,0,0,0,0,0,0,0,0,0,0,0,0,0,0,0,0,0,0,0,0,0,0,0,0,0,0,0,0,0,0,0,0,0,0,0,0,0,0,0,0,0,0,0,0,0,0,0,0,0,0,0,0,0,0,0,0,0,0,0,0,0,0],"sum_hessian":[3.88E2,6.2E1,3.26E2,4.3E1,1.9E1,4.3E1,2.83E2,3.4E1,9E0,2E0,1.7E1,6E0,3.7E1,1.84E2,9.9E1,9E0,2.5E1,1E0,8E0,1E0,1E0,1.6E1,1E0,1E0,5E0,2.1E1,1.6E1,8.8E1,9.6E1,7.6E1,2.3E1,7E0,2E0,1E0,2.4E1,2E0,1.4E1,2E0,1.4E1,2.8E1,6E1,3.5E1,6.1E1,4E0,7.2E1,1.8E1,5E0,5E0,2E0,1E0,1E0,2.1E1,3E0,8E0,6E0,2.3E1,5E0,1.4E1,4.6E1,1.9E1,1.6E1,1.8E1,4.3E1,1.5E1,5.7E1,1.7E1,1E0],"tree_param":{"num_deleted":"0","num_feature":"16","num_nodes":"67","size_leaf_vector":"1"}},{"base_weights":[1.2763897E-2,-1.799184E-1,1.1135776E0,-8.6741114E-1,-8.42016E-2,-2.1169016E0,1.4717991E0,-5.7541573E-1,-1.3689482E-1,-4.7370383E-1,6.179779E-2,-1.20951906E-1,-1.5155506E-2,3.2627072E-2,1.5466632E0,-9.843512E-2,-3.8327318E-1,3.530672E-1,-9.0211785E-1,4.460681E-1,-3.1208193E-1,8.651861E-2,1.1314906E0,-4.892692E-1,-1.658407E-1,-9.827207E-2,5.178345E-1,-1.3227835E0,-1.2400813E-1,-1.71283E-1,8.9890504E-1,-5.289318E-1,-1.20192006E-1,1.151166E-2,5.8671482E-2,-4.3551873E-2,-1.8862508E-2,1.6756216E-3,-1.5651165E-2,3.0248563E-4,3.1969998E-2,-7.4290864E-2,-1.707477E-2,-1.6004058E-4,-3.8362347E-2,-1.3407849E-2,7.1858405E-3,4.753003E-2,-2.4779083E-3,-1.524687E-2,-4.663154E-2,-5.1239014E-2,-3.433276E-3],"categories":[],"categories_nodes":[],"categories_segments":[],"categories_sizes":[],"default_left":[0,0,0,0,0,0,0,0,0,0,0,0,0,0,0,0,0,0,0,0,0,0,0,0,0,0,0,0,0,0,0,0,0,0,0,0,0,0,0,0,0,0,0,0,0,0,0,0,0,0,0,0,0],"id":39,"left_children":[1,3,5,7,9,11,13,15,-1,17,19,-1,-1,-1,21,-1,23,25,27,29,31,-1,33,35,37,-1,39,41,43,45,47,49,51,-1,-1,-1,-1,-1,-1,-1,-1,-1,-1,-1,-1,-1,-1,-1,-1,-1,-1,-1,-1],"loss_changes":[7.9740585E1,2.0984436E1,6.792038E1,1.9725319E1,1.6065792E1,2.55484E0,2.1187286E0,8.615289E0,0E0,2.7591932E1,2.9735409E1,0E0,0E0,0E0,1.5505676E0,0E0,6.5636253E-1,1.1332161E1,1.6529488E1,2.8669025E1,4.3056126E0,0E0,3.7240028E-1,5.6947184E-1,3.6258587E-1,0E0,1.6137304E0,4.7720413E0,1.4739951E0,1.3812112E0,2.9399567E0,4.146496E0,2.5864177E0,0E0,0E0,0E0,0E0,0E0,0E0,0E0,0E0,0E0,0E0,0E0,0E0,0E0,0E0,0E0,0E0,0E0,0E0,0E0,0E0],"parents":[2147483647,0,0,1,1,2,2,3,3,4,4,5,5,6,6,7,7,9,9,10,10,14,14,16,16,17,17,18,18,19,19,20,20,22,22,23,23,24,24,26,26,27,27,28,28,29,29,30,30,31,31,32,32],"right_children":[2,4,6,8,10,12,14,16,-1,18,20,-1,-1,-1,22,-1,24,26,28,30,32,-1,34,36,38,-1,40,42,44,46,48,50,52,-1,-1,-1,-1,-1,-1,-1,-1,-1,-1,-1,-1,-1,-1,-1,-1,-1,-1,-1,-1],"split_conditions":[2.3331773E0,-1.016047E0,-1.4174986E0,-8.756963E-1,-2.516179E-3,-1.4962475E0,-6.467796E-1,-1.2357463E0,-1.3689482E-1,-4.3928545E-2,7.7504253E-1,-1.20951906E-1,-1.5155506E-2,3.2627072E-2,-6.36798E-1,-9.843512E-2,-1.5027897E0,-2.189598E0,5.3119135E-1,-8.3736867E-1,1.3708683E0,8.651861E-2,-6.8351656E-1,-1.1731825E0,1.3963643E0,-9.827207E-2,-2.0601E0,9.7320527E-1,1.1474484E0,-6.1738265E-1,8.6360437E-1,1.0454409E0,-7.3408514E-1,1.151166E-2,5.8671482E-2,-4.3551873E-2,-1.8862508E-2,1.6756216E-3,-1.5651165E-2,3.0248563E-4,3.1969998E-2,-7.4290864E-2,-1.707477E-2,-1.6004058E-4,-3.8362347E-2,-1.3407849E-2,7.1858405E-3,4.753003E-2,-2.4779083E-3,-1.524687E-2,-4.663154E-2,-5.1239014E-2,-3.433276E-3],"split_indices":[1,14,8,15,4,7,15,12,0,9,14,0,0,0,10,0,8,7,12,15,14,0,8,13,7,0,7,7,9,3,3,14,8,0,0,0,0,0,0,0,0,0,0,0,0,0,0,0,0,0,0,0,0],"split_type":[0,0,0,0,0,0,0,0,0,0,0,0,0,0,0,0,0,0,0,0,0,0,0,0,0,0,0,0,0,0,0,0,0,0,0,0,0,0,0,0,0,0,0,0,0,0,0,0,0,0,0,0,0],"sum_hessian":[3.74E2,3.19E2,5.5E1,3.8E1,2.81E2,5E0,5E1,3.4E1,4E0,7.6E1,2.05E2,4E0,1E0,5E0,4.5E1,3E0,3.1E1,2.6E1,5E1,1.01E2,1.04E2,2.9E1,1.6E1,2E1,1.1E1,1E0,2.5E1,3.2E1,1.8E1,4.3E1,5.8E1,4.8E1,5.6E1,1E0,1.5E1,3E0,1.7E1,5E0,6E0,5E0,2E1,2.7E1,5E0,1.6E1,2E0,3.3E1,1E1,5.5E1,3E0,3.2E1,1.6E1,2E0,5.4E1],"tree_param":{"num_deleted":"0","num_feature":"16","num_nodes":"53","size_leaf_vector":"1"}},{"base_weights":[-3.3104587E-2,-1.894672E-1,1.44267E0,-1.8642497E0,-8.199032E-2,2.774614E-2,1.4775435E0,-2.3333445E0,-5.9272504E-1,-4.5493886E-1,4.5947656E-3,7.9332344E-2,4.9303077E-2,-1.2845331E-1,-6.7404374E-2,3.203025E-1,-1.3575714E0,-2.5614905E-1,-1.463031E0,-6.2383827E-2,1.0634066E0,6.727108E-3,2.1939589E-2,-7.777994E-2,-1.908722E-2,