{"learner":{"attributes":{"scikit_learn":"{\"_estimator_type\": \"regressor\"}"},"feature_names":[],"feature_types":[],"gradient_booster":{"model":{"cats":{"enc":[],"feature_segments":[],"sorted_idx":[]},"gbtree_model_param":{"num_parallel_tree":"1","num_trees":"800"},"iteration_indptr":[0,1,2,3,4,5,6,7,8,9,10,11,12,13,14,15,16,17,18,19,20,21,22,23,24,25,26,27,28,29,30,31,32,33,34,35,36,37,38,39,40,41,42,43,44,45,46,47,48,49,50,51,52,53,54,55,56,57,58,59,60,61,62,63,64,65,66,67,68,69,70,71,72,73,74,75,76,77,78,79,80,81,82,83,84,85,86,87,88,89,90,91,92,93,94,95,96,97,98,99,100,101,102,103,104,105,106,107,108,109,110,111,112,113,114,115,116,117,118,119,120,121,122,123,124,125,126,127,128,129,130,131,132,133,134,135,136,137,138,139,140,141,142,143,144,145,146,147,148,149,150,151,152,153,154,155,156,157,158,159,160,161,162,163,164,165,166,167,168,169,170,171,172,173,174,175,176,177,178,179,180,181,182,183,184,185,186,187,188,189,190,191,192,193,194,195,196,197,198,199,200,201,202,203,204,205,206,207,208,209,210,211,212,213,214,215,216,217,218,219,220,221,222,223,224,225,226,227,228,229,230,231,232,233,234,235,236,237,238,239,240,241,242,243,244,245,246,247,248,249,250,251,252,253,254,255,256,257,258,259,260,261,262,263,264,265,266,267,268,269,270,271,272,273,274,275,276,277,278,279,280,281,282,283,284,285,286,287,288,289,290,291,292,293,294,295,296,297,298,299,300,301,302,303,304,305,306,307,308,309,310,311,312,313,314,315,316,317,318,319,320,321,322,323,324,325,326,327,328,329,330,331,332,333,334,335,336,337,338,339,340,341,342,343,344,345,346,347,348,349,350,351,352,353,354,355,356,357,358,359,360,361,362,363,364,365,366,367,368,369,370,371,372,373,374,375,376,377,378,379,380,381,382,383,384,385,386,387,388,389,390,391,392,393,394,395,396,397,398,399,400,401,402,403,404,405,406,407,408,409,410,411,412,413,414,415,416,417,418,419,420,421,422,423,424,425,426,427,428,429,430,431,432,433,434,435,436,437,438,439,440,441,442,443,444,445,446,447,448,449,450,451,452,453,454,455,456,457,458,459,460,461,462,463,464,465,466,467,468,469,470,471,472,473,474,475,476,477,478,479,480,481,482,483,484,485,486,487,488,489,490,491,492,493,494,495,496,497,498,499,500,501,502,503,504,505,506,507,508,509,510,511,512,513,514,515,516,517,518,519,520,521,522,523,524,525,526,527,528,529,530,531,532,533,534,535,536,537,538,539,540,541,542,543,544,545,546,547,548,549,550,551,552,553,554,555,556,557,558,559,560,561,562,563,564,565,566,567,568,569,570,571,572,573,574,575,576,577,578,579,580,581,582,583,584,585,586,587,588,589,590,591,592,593,594,595,596,597,598,599,600,601,602,603,604,605,606,607,608,609,610,611,612,613,614,615,616,617,618,619,620,621,622,623,624,625,626,627,628,629,630,631,632,633,634,635,636,637,638,639,640,641,642,643,644,645,646,647,648,649,650,651,652,653,654,655,656,657,658,659,660,661,662,663,664,665,666,667,668,669,670,671,672,673,674,675,676,677,678,679,680,681,682,683,684,685,686,687,688,689,690,691,692,693,694,695,696,697,698,699,700,701,702,703,704,705,706,707,708,709,710,711,712,713,714,715,716,717,718,719,720,721,722,723,724,725,726,727,728,729,730,731,732,733,734,735,736,737,738,739,740,741,742,743,744,745,746,747,748,749,750,751,752,753,754,755,756,757,758,759,760,761,762,763,764,765,766,767,768,769,770,771,772,773,774,775,776,777,778,779,780,781,782,783,784,785,786,787,788,789,790,791,792,793,794,795,796,797,798,799,800],"tree_info":[0,0,0,0,0,0,0,0,0,0,0,0,0,0,0,0,0,0,0,0,0,0,0,0,0,0,0,0,0,0,0,0,0,0,0,0,0,0,0,0,0,0,0,0,0,0,0,0,0,0,0,0,0,0,0,0,0,0,0,0,0,0,0,0,0,0,0,0,0,0,0,0,0,0,0,0,0,0,0,0,0,0,0,0,0,0,0,0,0,0,0,0,0,0,0,0,0,0,0,0,0,0,0,0,0,0,0,0,0,0,0,0,0,0,0,0,0,0,0,0,0,0,0,0,0,0,0,0,0,0,0,0,0,0,0,0,0,0,0,0,0,0,0,0,0,0,0,0,0,0,0,0,0,0,0,0,0,0,0,0,0,0,0,0,0,0,0,0,0,0,0,0,0,0,0,0,0,0,0,0,0,0,0,0,0,0,0,0,0,0,0,0,0,0,0,0,0,0,0,0,0,0,0,0,0,0,0,0,0,0,0,0,0,0,0,0,0,0,0,0,0,0,0,0,0,0,0,0,0,0,0,0,0,0,0,0,0,0,0,0,0,0,0,0,0,0,0,0,0,0,0,0,0,0,0,0,0,0,0,0,0,0,0,0,0,0,0,0,0,0,0,0,0,0,0,0,0,0,0,0,0,0,0,0,0,0,0,0,0,0,0,0,0,0,0,0,0,0,0,0,0,0,0,0,0,0,0,0,0,0,0,0,0,0,0,0,0,0,0,0,0,0,0,0,0,0,0,0,0,0,0,0,0,0,0,0,0,0,0,0,0,0,0,0,0,0,0,0,0,0,0,0,0,0,0,0,0,0,0,0,0,0,0,0,0,0,0,0,0,0,0,0,0,0,0,0,0,0,0,0,0,0,0,0,0,0,0,0,0,0,0,0,0,0,0,0,0,0,0,0,0,0,0,0,0,0,0,0,0,0,0,0,0,0,0,0,0,0,0,0,0,0,0,0,0,0,0,0,0,0,0,0,0,0,0,0,0,0,0,0,0,0,0,0,0,0,0,0,0,0,0,0,0,0,0,0,0,0,0,0,0,0,0,0,0,0,0,0,0,0,0,0,0,0,0,0,0,0,0,0,0,0,0,0,0,0,0,0,0,0,0,0,0,0,0,0,0,0,0,0,0,0,0,0,0,0,0,0,0,0,0,0,0,0,0,0,0,0,0,0,0,0,0,0,0,0,0,0,0,0,0,0,0,0,0,0,0,0,0,0,0,0,0,0,0,0,0,0,0,0,0,0,0,0,0,0,0,0,0,0,0,0,0,0,0,0,0,0,0,0,0,0,0,0,0,0,0,0,0,0,0,0,0,0,0,0,0,0,0,0,0,0,0,0,0,0,0,0,0,0,0,0,0,0,0,0,0,0,0,0,0,0,0,0,0,0,0,0,0,0,0,0,0,0,0,0,0,0,0,0,0,0,0,0,0,0,0,0,0,0,0,0,0,0,0,0,0,0,0,0,0,0,0,0,0,0,0,0,0,0,0,0,0,0,0,0,0,0,0,0,0,0,0,0,0,0,0,0,0,0,0,0,0,0,0,0,0,0,0,0,0,0,0,0,0,0,0,0,0,0,0,0,0,0,0,0,0,0,0,0,0,0,0,0,0,0,0,0,0,0,0,0,0,0,0,0,0,0,0,0,0,0,0,0,0,0,0,0,0,0,0,0,0,0,0,0,0,0,0,0,0,0,0,0,0,0,0,0,0,0,0,0,0,0,0,0,0,0,0,0,0,0,0,0,0,0,0,0,0,0,0,0,0,0,0,0,0,0,0,0,0,0,0,0,0,0,0,0,0,0],"trees":[{"base_weights":[2.0546636E-2,-5.5198793E0,8.6647826E-1,-3.6755553E-1,-2.530738E-1,-3.4697786E-1,1.1789379E0,-2.74921E-1,2.1028328E0,-5.4752287E-2,-2.3345847E-1,2.7207966E0,8.0603206E-1,2.491746E0,-2.570862E-1,1.8165256E0,1.6979396E-1,6.990479E-1,6.6227004E-2,4.500518E-2,1.4089572E-1,1.3753216E-2,-3.9236322E-2,5.619802E-2,2.0903413E-1,9.348838E-3,3.5727553E-2],"categories":[],"categories_nodes":[],"categories_segments":[],"categories_sizes":[],"default_left":[0,0,0,0,0,0,0,0,0,0,0,0,0,0,0,0,0,0,0,0,0,0,0,0,0,0,0],"id":0,"left_children":[1,3,5,-1,-1,-1,7,9,11,13,-1,15,17,19,21,23,-1,25,-1,-1,-1,-1,-1,-1,-1,-1,-1],"loss_changes":[1.8045223E3,5.604126E0,8.2283093E2,0E0,0E0,0E0,4.330925E2,1.21646324E2,1.5567804E2,6.2984985E1,0E0,7.5022156E1,2.6797676E0,2.1358833E0,3.1944443E1,9.190375E1,0E0,3.1096268E-1,0E0,0E0,0E0,0E0,0E0,0E0,0E0,0E0,0E0],"parents":[2147483647,0,0,1,1,2,2,6,6,7,7,8,8,9,9,11,11,12,12,13,13,14,14,15,15,17,17],"right_children":[2,4,6,-1,-1,-1,8,10,12,14,-1,16,18,20,22,24,-1,26,-1,-1,-1,-1,-1,-1,-1,-1,-1],"split_conditions":[-1.6378256E0,2.9719922E-1,-2.1887903E0,-3.6755553E-1,-2.530738E-1,-3.4697786E-1,-9.519639E-2,1.3330988E0,1.2203469E0,-1.404315E0,-2.3345847E-1,-2.516179E-3,1.8899132E0,-8.3176553E-1,-4.826112E-1,-3.9991386E-2,1.6979396E-1,-8.37538E-1,6.6227004E-2,4.500518E-2,1.4089572E-1,1.3753216E-2,-3.9236322E-2,5.619802E-2,2.0903413E-1,9.348838E-3,3.5727553E-2],"split_indices":[0,5,6,0,0,0,7,5,4,10,0,4,14,14,5,5,0,5,0,0,0,0,0,0,0,0,0],"split_type":[0,0,0,0,0,0,0,0,0,0,0,0,0,0,0,0,0,0,0,0,0,0,0,0,0,0,0],"sum_hessian":[3.83E2,5E1,3.33E2,7E0,4.3E1,1.2E1,3.21E2,1.25E2,1.96E2,1.2E2,5E0,1.32E2,6.4E1,8E0,1.12E2,5.8E1,7.4E1,5.5E1,9E0,2E0,6E0,5.6E1,5.6E1,4.6E1,1.2E1,2E0,5.3E1],"tree_param":{"num_deleted":"0","num_feature":"16","num_nodes":"27","size_leaf_vector":"1"}},{"base_weights":[-4.6359953E-2,-5.328268E0,8.367747E-1,-3.5323858E-1,-2.4174678E-1,-6.460728E0,1.2059572E0,-3.146946E0,-3.4916875E-1,-6.9806874E-2,1.9954493E0,-2.1730538E-1,1.1263466E-2,2.4532943E0,-3.1921503E-1,2.5687969E0,7.906998E-1,4.3505017E-2,1.3542186E-1,-1.9394392E-1,-2.3821639E-1,1.78125E0,1.6046207E-1,7.2253984E-1,6.64578E-2,-3.731459E-2,2.2442479E-2,5.8689117E-2,1.9669583E-1,2.2925616E-3,3.6670815E-2],"categories":[],"categories_nodes":[],"categories_segments":[],"categories_sizes":[],"default_left":[0,0,0,0,0,0,0,0,0,0,0,0,0,0,0,0,0,0,0,0,0,0,0,0,0,0,0,0,0,0,0],"id":1,"left_children":[1,3,5,-1,-1,7,9,11,-1,13,15,-1,-1,17,19,21,23,-1,-1,25,-1,27,-1,29,-1,-1,-1,-1,-1,-1,-1],"loss_changes":[1.7910143E3,1.2959351E1,8.9415344E2,0E0,0E0,5.734741E0,3.1640195E2,1.715437E1,0E0,7.6926254E1,1.3197241E2,0E0,0E0,2.0867386E0,6.0885693E1,6.03573E1,1.3885078E0,0E0,0E0,3.9034943E1,0E0,7.5150635E1,0E0,4.0061188E-1,0E0,0E0,0E0,0E0,0E0,0E0,0E0],"parents":[2147483647,0,0,1,1,2,2,5,5,6,6,7,7,9,9,10,10,13,13,14,14,15,15,16,16,19,19,21,21,23,23],"right_children":[2,4,6,-1,-1,8,10,12,-1,14,16,-1,-1,18,20,22,24,-1,-1,26,-1,28,-1,30,-1,-1,-1,-1,-1,-1,-1],"split_conditions":[-1.6378256E0,-1.4174986E0,-2.1887903E0,-3.5323858E-1,-2.4174678E-1,-2.9359026E0,-9.519639E-2,-1.1437017E0,-3.4916875E-1,-1.404315E0,1.2203469E0,-2.1730538E-1,1.1263466E-2,-7.370527E-1,1.1602937E0,-2.516179E-3,2.0700386E0,4.3505017E-2,1.3542186E-1,-9.9726185E-2,-2.3821639E-1,5.4107383E-2,1.6046207E-1,-1.4101323E0,6.64578E-2,-3.731459E-2,2.2442479E-2,5.8689117E-2,1.9669583E-1,2.2925616E-3,3.6670815E-2],"split_indices":[0,8,6,0,0,6,7,5,0,10,4,0,0,15,5,4,15,0,0,9,0,5,0,10,0,0,0,0,0,0,0],"split_type":[0,0,0,0,0,0,0,0,0,0,0,0,0,0,0,0,0,0,0,0,0,0,0,0,0,0,0,0,0,0,0],"sum_hessian":[3.82E2,5.4E1,3.28E2,9E0,4.5E1,1.5E1,3.13E2,3E0,1.2E1,1.2E2,1.93E2,2E0,1E0,1E1,1.1E2,1.3E2,6.3E1,2E0,8E0,1.08E2,2E0,6E1,7E1,5.8E1,5E0,5.8E1,5E1,4.8E1,1.2E1,1E0,5.7E1],"tree_param":{"num_deleted":"0","num_feature":"16","num_nodes":"31","size_leaf_vector":"1"}},{"base_weights":[-9.104264E-2,-5.0805693E0,7.663332E-1,-3.445223E-1,-2.293696E-1,-7.079521E0,1.0627902E0,-3.8815242E-1,1.098187E-2,-3.0446064E-1,1.8722486E0,1.2539493E-4,-3.2672634E0,6.651098E-1,2.2865274E0,2.1510897E0,-2.17145E-1,4.8884854E-2,-4.319221E0,5.364397E-1,8.4415996E-1,1.5913676E-1,1.8853768E0,5.513364E-2,1.22144334E-1,6.6269175E-3,-4.60264E-2,-9.5223896E-2,-2.6045898E-1,2.8691074E-2,1.3629238E-2,2.2352457E-3,4.4194184E-2,6.046615E-2,1.1127517E-1],"categories":[],"categories_nodes":[],"categories_segments":[],"categories_sizes":[],"default_left":[0,0,0,0,0,0,0,0,0,0,0,0,0,0,0,0,0,0,0,0,0,0,0,0,0,0,0,0,0,0,0,0,0,0,0],"id":2,"left_children":[1,3,5,-1,-1,7,9,-1,-1,11,13,15,17,19,21,23,25,-1,27,29,31,-1,33,-1,-1,-1,-1,-1,-1,-1,-1,-1,-1,-1,-1],"loss_changes":[1.6337732E3,1.8375854E1,7.6578625E2,0E0,0E0,6.1575134E1,3.4919092E2,0E0,0E0,1.0648695E2,9.7497375E1,5.093992E1,5.334359E1,7.4515533E-1,4.684796E1,3.6553955E-1,2.4472178E1,0E0,9.420425E0,1.6907692E-1,5.9563255E-1,0E0,2.122284E1,0E0,0E0,0E0,0E0,0E0,0E0,0E0,0E0,0E0,0E0,0E0,0E0],"parents":[2147483647,0,0,1,1,2,2,5,5,6,6,9,9,10,10,11,11,12,12,13,13,14,14,15,15,16,16,18,18,19,19,20,20,22,22],"right_children":[2,4,6,-1,-1,8,10,-1,-1,12,14,16,18,20,22,24,26,-1,28,30,32,-1,34,-1,-1,-1,-1,-1,-1,-1,-1,-1,-1,-1,-1],"split_conditions":[-1.6378256E0,-1.4373753E0,-2.1887903E0,-3.445223E-1,-2.293696E-1,-8.384902E-1,-9.519639E-2,-3.8815242E-1,1.098187E-2,1.0557067E0,-6.1738265E-1,-1.5669672E0,-2.0434208E0,-1.0011111E0,-6.467796E-1,-8.3176553E-1,-5.8096975E-1,4.8884854E-2,-1.0245817E0,-8.7777704E-1,-1.4101323E0,1.5913676E-1,1.13972105E-1,5.513364E-2,1.22144334E-1,6.6269175E-3,-4.60264E-2,-9.5223896E-2,-2.6045898E-1,2.8691074E-2,1.3629238E-2,2.2352457E-3,4.4194184E-2,6.046615E-2,1.1127517E-1],"split_indices":[0,7,6,0,0,14,7,0,0,5,3,8,7,14,15,14,6,0,14,15,10,0,12,0,0,0,0,0,0,0,0,0,0,0,0],"split_type":[0,0,0,0,0,0,0,0,0,0,0,0,0,0,0,0,0,0,0,0,0,0,0,0,0,0,0,0,0,0,0,0,0,0,0],"sum_hessian":[3.8E2,5.5E1,3.25E2,9E0,4.6E1,1.1E1,3.14E2,1E1,1E0,1.17E2,1.97E2,1.07E2,1E1,5.1E1,1.46E2,9E0,9.8E1,2E0,8E0,3.2E1,1.9E1,4.3E1,1.03E2,3E0,6E0,6.6E1,3.2E1,3E0,5E0,2.7E1,5E0,1E0,1.8E1,3.6E1,6.7E1],"tree_param":{"num_deleted":"0","num_feature":"16","num_nodes":"35","size_leaf_vector":"1"}},{"base_weights":[1.0776025E-1,-4.842251E0,7.531015E-1,-3.0870923E-1,-2.1426466E-1,-9.5870674E-1,1.8715926E0,-3.2702732E0,-1.6391511E-1,6.6803426E-1,2.2360072E0,-1.2776307E0,-5.8419547E0,1.7076664E0,-3.3949742E-1,4.826608E-2,5.8842427E-1,3.09482E0,1.883571E0,-2.8065404E-1,-2.4321789E-1,-3.5838933E0,-3.4745595E-1,4.345156E-2,1.10238425E-1,-1.0148557E0,3.429338E-1,9.228826E-3,6.147567E-1,1.2945986E-1,1.7528675E-1,1.3478163E0,2.2041507E0,1.6771633E-2,-1.1761766E-1,-2.1800283E-1,-9.558785E-2,-3.5435624E-2,-1.13136545E-1,2.0166345E-2,-1.2855606E-2,1.6881203E-2,3.227907E-2,1.0496298E-1,3.113956E-3,1.3060626E-1,7.42164E-2],"categories":[],"categories_nodes":[],"categories_segments":[],"categories_sizes":[],"default_left":[0,0,0,0,0,0,0,0,0,0,0,0,0,0,0,0,0,0,0,0,0,0,0,0,0,0,0,0,0,0,0,0,0,0,0,0,0,0,0,0,0,0,0,0,0,0,0],"id":3,"left_children":[1,3,5,-1,-1,7,9,11,13,15,17,19,21,23,25,-1,27,29,31,-1,33,35,-1,-1,-1,37,39,-1,41,-1,-1,43,45,-1,-1,-1,-1,-1,-1,-1,-1,-1,-1,-1,-1,-1,-1],"loss_changes":[1.2462865E3,6.9240723E0,6.623458E2,0E0,0E0,2.5116223E2,9.0172485E1,1.7189163E2,3.4427258E1,6.1533356E-1,4.2598938E1,9.281233E1,1.2595734E1,1.8359737E0,4.4132164E1,0E0,3.331709E-1,2.7252197E-1,1.6952454E1,0E0,2.2757195E1,7.495804E-1,0E0,0E0,0E0,1.6733746E1,1.843154E0,0E0,1.15195274E-1,0E0,0E0,4.4305634E1,1.6973236E1,0E0,0E0,0E0,0E0,0E0,0E0,0E0,0E0,0E0,0E0,0E0,0E0,0E0,0E0],"parents":[2147483647,0,0,1,1,2,2,5,5,6,6,7,7,8,8,9,9,10,10,11,11,12,12,13,13,14,14,16,16,17,17,18,18,20,20,21,21,25,25,26,26,28,28,31,31,32,32],"right_children":[2,4,6,-1,-1,8,10,12,14,16,18,20,22,24,26,-1,28,30,32,-1,34,36,-1,-1,-1,38,40,-1,42,-1,-1,44,46,-1,-1,-1,-1,-1,-1,-1,-1,-1,-1,-1,-1,-1,-1],"split_conditions":[-1.6378256E0,6.2297535E-1,-1.1170259E-1,-3.0870923E-1,-2.1426466E-1,-8.3176553E-1,-6.1738265E-1,-8.7777704E-1,-9.0323126E-1,-4.5330536E-1,-6.847245E-1,-9.4180185E-1,-1.5780611E0,-3.734682E-1,-9.9726185E-2,4.826608E-2,-1.6196674E0,-7.419606E-1,8.339402E-2,-2.8065404E-1,1.2776203E0,-1.1437017E0,-3.4745595E-1,4.345156E-2,1.10238425E-1,1.8527538E0,7.515391E-1,9.228826E-3,-1.1709081E0,1.2945986E-1,1.7528675E-1,-4.6321452E-1,8.6360437E-1,1.6771633E-2,-1.1761766E-1,-2.1800283E-1,-9.558785E-2,-3.5435624E-2,-1.13136545E-1,2.0166345E-2,-1.2855606E-2,1.6881203E-2,3.227907E-2,1.0496298E-1,3.113956E-3,1.3060626E-1,7.42164E-2],"split_indices":[0,5,7,0,0,14,3,15,7,5,14,15,9,0,9,0,8,15,13,0,5,5,0,0,0,15,10,0,13,0,0,15,3,0,0,0,0,0,0,0,0,0,0,0,0,0,0],"split_type":[0,0,0,0,0,0,0,0,0,0,0,0,0,0,0,0,0,0,0,0,0,0,0,0,0,0,0,0,0,0,0,0,0,0,0,0,0,0,0,0,0,0,0,0,0,0,0],"sum_hessian":[3.88E2,4.4E1,3.44E2,1E1,3.4E1,1.36E2,2.08E2,3.4E1,1.02E2,4.9E1,1.59E2,2E1,1.4E1,8E0,9.4E1,8E0,4.1E1,4.4E1,1.15E2,3E0,1.7E1,6E0,8E0,4E0,4E0,4.7E1,4.7E1,3E0,3.8E1,2.3E1,2.1E1,4.5E1,7E1,1.4E1,3E0,3E0,3E0,3.9E1,8E0,4.3E1,4E0,5E0,3.3E1,2.8E1,1.7E1,4.3E1,2.7E1],"tree_param":{"num_deleted":"0","num_feature":"16","num_nodes":"47","size_leaf_vector":"1"}},{"base_weights":[7.3687255E-2,7.456395E-1,-3.9245405E0,-5.384932E0,1.0212073E0,6.131834E-1,-2.1360119E-1,-6.3602614E0,3.1823587E-2,-1.8410955E-1,1.734852E0,4.6204533E-2,-1.5761137E-2,-3.3286932E-1,-6.9868974E-2,2.0092196E0,-3.7323287E-1,2.2159803E0,6.892538E-1,3.934436E-2,1.108221E-1,-2.308321E-1,-5.5450406E-2,1.4859521E0,1.4152001E-1,5.9620714E-1,5.7999946E-2,1.5272915E-2,-3.781303E-2,4.861122E-2,1.6806673E-1,1.6318003E-3,3.0787596E-2],"categories":[],"categories_nodes":[],"categories_segments":[],"categories_sizes":[],"default_left":[0,0,0,0,0,0,0,0,0,0,0,0,0,0,0,0,0,0,0,0,0,0,0,0,0,0,0,0,0,0,0,0,0],"id":4,"left_children":[1,3,5,7,9,11,-1,13,-1,15,17,-1,-1,-1,-1,19,21,23,25,-1,-1,-1,27,29,-1,31,-1,-1,-1,-1,-1,-1,-1],"loss_changes":[1.0829469E3,5.88338E2,9.4072876E1,9.214087E1,2.85035E2,1.7345352E0,0E0,9.866882E0,0E0,5.2186314E1,1.03110535E2,0E0,0E0,0E0,0E0,7.888527E-1,1.5481934E2,5.9487366E1,2.2430801E0,0E0,0E0,0E0,2.7547283E1,6.128224E1,0E0,6.187668E-1,0E0,0E0,0E0,0E0,0E0,0E0,0E0],"parents":[2147483647,0,0,1,1,2,2,3,3,4,4,5,5,7,7,9,9,10,10,15,15,16,16,17,17,18,18,22,22,23,23,25,25],"right_children":[2,4,6,8,10,12,-1,14,-1,16,18,-1,-1,-1,-1,20,22,24,26,-1,-1,-1,28,30,-1,32,-1,-1,-1,-1,-1,-1,-1],"split_conditions":[1.0557067E0,-1.3806154E0,-2.0022814E0,3.6222696E-1,-1.1170259E-1,1.1602937E0,-2.1360119E-1,8.6360437E-1,3.1823587E-2,-1.5354127E0,1.2203469E0,4.6204533E-2,-1.5761137E-2,-3.3286932E-1,-6.9868974E-2,-8.819384E-1,-2.516179E-3,-2.516179E-3,1.9155701E0,3.934436E-2,1.108221E-1,-2.308321E-1,-5.777217E-1,5.4107383E-2,1.4152001E-1,-8.37538E-1,5.7999946E-2,1.5272915E-2,-3.781303E-2,4.861122E-2,1.6806673E-1,1.6318003E-3,3.0787596E-2],"split_indices":[5,6,7,5,7,5,0,3,0,8,4,0,0,0,0,15,4,4,14,0,0,0,6,5,0,5,0,0,0,0,0,0,0],"split_type":[0,0,0,0,0,0,0,0,0,0,0,0,0,0,0,0,0,0,0,0,0,0,0,0,0,0,0,0,0,0,0,0,0],"sum_hessian":[4.01E2,3.44E2,5.7E1,1.4E1,3.3E2,4E0,5.3E1,1.2E1,2E0,1.23E2,2.07E2,3E0,1E0,1.1E1,1E0,9E0,1.14E2,1.41E2,6.6E1,2E0,7E0,7E0,1.07E2,6.6E1,7.5E1,5.7E1,9E0,7.1E1,3.6E1,5.3E1,1.3E1,2E0,5.5E1],"tree_param":{"num_deleted":"0","num_feature":"16","num_nodes":"33","size_leaf_vector":"1"}},{"base_weights":[1.2928356E-2,-4.35128E0,7.172015E-1,-2.910925E-1,-1.9729064E-1,-7.403945E-1,1.706592E0,-2.95418E0,-1.1545987E-1,2.1591134E0,6.3798517E-1,-1.1657267E0,-6.099938E0,-2.2908905E-1,9.556162E-2,1.5086635E0,2.6544237E0,4.6857646E-1,9.544895E-1,-2.8126094E-1,2.1446063E-1,-3.4700587E-1,-1.4472972E-1,-8.0891603E-1,3.660005E-1,8.696589E-1,1.6308777E-1,1.3396247E-1,5.5793907E-2,3.6458638E-1,5.5126756E-1,5.3515233E-2,2.8497929E-2,-4.946443E-2,3.9923176E-2,1.257E-2,-5.2780535E-2,4.7608998E-2,1.4255154E-2,1.5548958E-2,8.677087E-2,2.1330712E-2,1.01355435E-2,3.0288497E-2,7.728219E-3],"categories":[],"categories_nodes":[],"categories_segments":[],"categories_sizes":[],"default_left":[0,0,0,0,0,0,0,0,0,0,0,0,0,0,0,0,0,0,0,0,0,0,0,0,0,0,0,0,0,0,0,0,0,0,0,0,0,0,0,0,0,0,0,0,0],"id":5,"left_children":[1,3,5,-1,-1,7,9,11,13,15,17,19,21,23,-1,25,27,29,31,-1,33,-1,-1,35,37,39,-1,-1,-1,41,43,-1,-1,-1,-1,-1,-1,-1,-1,-1,-1,-1,-1,-1,-1],"loss_changes":[1.2387059E3,1.0419067E1,5.0168323E2,0E0,0E0,1.9472836E2,9.872095E1,1.6729639E2,2.6000189E1,4.2710693E1,2.9307213E0,1.3046E2,9.534882E0,3.687126E1,0E0,6.997859E1,1.0412598E-1,1.687746E-1,3.2519722E-1,0E0,1.2740793E1,0E0,0E0,1.43903885E1,2.2418132E0,2.3160728E1,0E0,0E0,0E0,1.3441801E-1,3.8203812E-1,0E0,0E0,0E0,0E0,0E0,0E0,0E0,0E0,0E0,0E0,0E0,0E0,0E0,0E0],"parents":[2147483647,0,0,1,1,2,2,5,5,6,6,7,7,8,8,9,9,10,10,11,11,12,12,13,13,15,15,16,16,17,17,18,18,20,20,23,23,24,24,25,25,29,29,30,30],"right_children":[2,4,6,-1,-1,8,10,12,14,16,18,20,22,24,-1,26,28,30,32,-1,34,-1,-1,36,38,40,-1,-1,-1,42,44,-1,-1,-1,-1,-1,-1,-1,-1,-1,-1,-1,-1,-1,-1],"split_conditions":[-1.6378256E0,-1.4174986E0,-9.519639E-2,-2.910925E-1,-1.9729064E-1,-9.9794954E-1,1.2203469E0,-1.1433294E0,7.450278E-1,-2.516179E-3,1.0008636E0,-1.2322088E0,1.1333766E0,-9.9726185E-2,9.556162E-2,-7.4077085E-2,1.8522904E0,-4.5211293E-2,-4.826112E-1,-2.8126094E-1,-1.2087735E0,-3.4700587E-1,-1.4472972E-1,-5.538691E-1,-3.734682E-1,4.8032358E-1,1.6308777E-1,1.3396247E-1,5.5793907E-2,-1.7789356E-1,-1.1668129E0,5.3515233E-2,2.8497929E-2,-4.946443E-2,3.9923176E-2,1.257E-2,-5.2780535E-2,4.7608998E-2,1.4255154E-2,1.5548958E-2,8.677087E-2,2.1330712E-2,1.01355435E-2,3.0288497E-2,7.728219E-3],"split_indices":[0,8,7,0,0,13,4,13,5,4,13,12,5,9,0,5,7,5,5,0,12,0,0,9,0,12,0,0,0,5,12,0,0,0,0,0,0,0,0,0,0,0,0,0,0],"split_type":[0,0,0,0,0,0,0,0,0,0,0,0,0,0,0,0,0,0,0,0,0,0,0,0,0,0,0,0,0,0,0,0,0,0,0,0,0,0,0,0,0,0,0,0,0],"sum_hessian":[4.01E2,5.5E1,3.46E2,9E0,4.6E1,1.4E2,2.06E2,3E1,1.1E2,1.44E2,6.2E1,2E1,1E1,1.05E2,5E0,6.4E1,8E1,4.2E1,2E1,4E0,1.6E1,7E0,3E0,5.3E1,5.2E1,4.8E1,1.6E1,7.8E1,2E0,2.1E1,2.1E1,1.4E1,6E0,5E0,1.1E1,1E1,4.3E1,5E0,4.7E1,3E1,1.8E1,1.4E1,7E0,1.8E1,3E0],"tree_param":{"num_deleted":"0","num_feature":"16","num_nodes":"45","size_leaf_vector":"1"}},{"base_weights":[-4.342473E-2,-4.18844E0,6.977853E-1,-2.8908932E-1,-1.8930009E-1,-5.062174E0,9.4996715E-1,-2.847171E-1,-2.058168E0,2.6350642E-2,1.559126E0,-1.4520265E-1,1.1987186E-2,2.0549801E-1,-1.810352E-1,1.9230641E0,5.7522935E-1,1.13336064E-1,6.032163E-2,2.0029728E0,-6.190855E-1,4.402574E-2,4.9277288E-1,1.7644538E-2,-2.0989938E-2,1.2989263E-1,8.925214E-2,-7.7949287E-3,-3.479538E-2,7.4383975E-3,2.5715774E-2],"categories":[],"categories_nodes":[],"categories_segments":[],"categories_sizes":[],"default_left":[0,0,0,0,0,0,0,0,0,0,0,0,0,0,0,0,0,0,0,0,0,0,0,0,0,0,0,0,0,0,0],"id":6,"left_children":[1,3,5,-1,-1,7,9,-1,11,13,15,-1,-1,17,-1,19,21,-1,23,25,27,-1,29,-1,-1,-1,-1,-1,-1,-1,-1],"loss_changes":[1.1949855E3,1.5942383E1,4.8415274E2,0E0,0E0,1.4866608E1,1.7831238E2,0E0,8.471304E0,8.37208E1,6.728659E1,0E0,0E0,3.637066E1,0E0,2.9476501E1,9.002609E-1,0E0,1.6302008E1,1.286438E1,6.9423914E-2,0E0,2.4956131E-1,0E0,0E0,0E0,0E0,0E0,0E0,0E0,0E0],"parents":[2147483647,0,0,1,1,2,2,5,5,6,6,8,8,9,9,10,10,13,13,15,15,16,16,18,18,19,19,20,20,22,22],"right_children":[2,4,6,-1,-1,8,10,-1,12,14,16,-1,-1,18,-1,20,22,-1,24,26,28,-1,30,-1,-1,-1,-1,-1,-1,-1,-1],"split_conditions":[-1.6378256E0,-1.4373753E0,-1.3806154E0,-2.8908932E-1,-1.8930009E-1,-9.9794954E-1,-5.162509E-3,-2.847171E-1,-1.3838916E0,1.3330988E0,1.1004281E0,-1.4520265E-1,1.1987186E-2,-1.4356986E0,-1.810352E-1,1.7190124E0,-4.5330536E-1,1.13336064E-1,-5.3698033E-1,-6.847245E-1,-4.2547667E-1,4.402574E-2,-1.6196674E0,1.7644538E-2,-2.0989938E-2,1.2989263E-1,8.925214E-2,-7.7949287E-3,-3.479538E-2,7.4383975E-3,2.5715774E-2],"split_indices":[0,7,6,0,0,13,7,0,5,5,2,0,0,10,0,10,5,0,6,14,5,0,8,0,0,0,0,0,0,0,0],"split_type":[0,0,0,0,0,0,0,0,0,0,0,0,0,0,0,0,0,0,0,0,0,0,0,0,0,0,0,0,0,0,0],"sum_hessian":[3.87E2,5.8E1,3.29E2,9E0,4.9E1,1.3E1,3.16E2,1E1,3E0,1.26E2,1.9E2,2E0,1E0,1.21E2,5E0,1.38E2,5.2E1,7E0,1.14E2,1.34E2,4E0,9E0,4.3E1,7.1E1,4.3E1,3.3E1,1.01E2,1E0,3E0,3E0,4E1],"tree_param":{"num_deleted":"0","num_feature":"16","num_nodes":"31","size_leaf_vector":"1"}},{"base_weights":[-4.3115664E-2,-3.8562682E0,5.514143E-1,-2.5568423E-1,-1.759545E-1,-5.2111487E0,7.964433E-1,-2.9905817E-1,-2.6288893E0,-1.91901E-1,1.4664605E0,1.1687517E-2,-1.7014936E-1,1.02695264E-1,-3.7146682E-1,1.8086219E0,5.395459E-1,-9.600752E-1,3.3724964E-1,2.3605065E0,1.4218074E0,6.6568226E-1,3.8875464E-1,-3.9002765E-2,-1.3451362E-1,4.777047E-2,1.1579954E-2,1.251339E-1,8.4339835E-2,2.459468E-2,8.480733E-2,5.9496085E-3,3.5157938E-2,4.2407513E-3,2.048386E-2],"categories":[],"categories_nodes":[],"categories_segments":[],"categories_sizes":[],"default_left":[0,0,0,0,0,0,0,0,0,0,0,0,0,0,0,0,0,0,0,0,0,0,0,0,0,0,0,0,0,0,0,0,0,0,0],"id":7,"left_children":[1,3,5,-1,-1,7,9,-1,11,13,15,-1,-1,-1,17,19,21,23,25,27,29,31,33,-1,-1,-1,-1,-1,-1,-1,-1,-1,-1,-1,-1],"loss_changes":[8.908035E2,4.4750977E0,4.8422864E2,0E0,0E0,1.2113495E1,2.1682332E2,0E0,1.1875259E1,5.4397873E1,6.0869293E1,0E0,0E0,0E0,5.205118E1,2.6957489E1,7.683077E-1,1.9081406E1,3.501336E0,1.2380981E0,2.1105286E1,4.899931E-1,1.3695145E-1,0E0,0E0,0E0,0E0,0E0,0E0,0E0,0E0,0E0,0E0,0E0,0E0],"parents":[2147483647,0,0,1,1,2,2,5,5,6,6,8,8,9,9,10,10,14,14,15,15,16,16,17,17,18,18,19,19,20,20,21,21,22,22],"right_children":[2,4,6,-1,-1,8,10,-1,12,14,16,-1,-1,-1,18,20,22,24,26,28,30,32,34,-1,-1,-1,-1,-1,-1,-1,-1,-1,-1,-1,-1],"split_conditions":[-1.6378256E0,-1.4174986E0,-2.1887903E0,-2.5568423E-1,-1.759545E-1,-9.9794954E-1,-9.519639E-2,-2.9905817E-1,-2.9837496E0,-1.4356986E0,1.1004281E0,1.1687517E-2,-1.7014936E-1,1.02695264E-1,-9.9726185E-2,-5.542742E-1,8.2483584E-1,1.9579482E0,-8.525357E-1,1.4871743E0,-3.82835E-2,-1.6237214E0,-1.3006244E0,-3.9002765E-2,-1.3451362E-1,4.777047E-2,1.1579954E-2,1.251339E-1,8.4339835E-2,2.459468E-2,8.480733E-2,5.9496085E-3,3.5157938E-2,4.2407513E-3,2.048386E-2],"split_indices":[0,8,6,0,0,13,7,0,6,10,2,0,0,0,9,15,10,6,7,8,13,8,11,0,0,0,0,0,0,0,0,0,0,0,0],"split_type":[0,0,0,0,0,0,0,0,0,0,0,0,0,0,0,0,0,0,0,0,0,0,0,0,0,0,0,0,0,0,0,0,0,0,0],"sum_hessian":[3.91E2,5.2E1,3.39E2,8E0,4.4E1,1.3E1,3.26E2,9E0,4E0,1.32E2,1.94E2,1E0,3E0,9E0,1.23E2,1.41E2,5.3E1,6.7E1,5.6E1,5.6E1,8.5E1,2.7E1,2.6E1,6.2E1,5E0,7E0,4.9E1,4.4E1,1.2E1,2E1,6.5E1,2E0,2.5E1,2E0,2.4E1],"tree_param":{"num_deleted":"0","num_feature":"16","num_nodes":"35","size_leaf_vector":"1"}},{"base_weights":[8.1536904E-2,-1.8253699E-1,6.6309315E-1,-4.8253036E0,8.612624E-1,1.1395335E-2,-5.305405E0,1.3067186E0,-3.747975E-2,-7.541931E-2,-2.7671343E-1,1.4703486E0,-2.276548E0,3.1429502E-1,-9.4407666E-1,5.2932113E-1,1.8069178E0,-5.4331887E-1,-2.3702808E-1,-1.0912702E-1,4.0629774E-1,-6.0732365E-1,-1.5326641E-1,3.0653393E-2,1.8943327E-2,6.517309E-2,1.13130726E-1,4.2983975E-2,-6.382271E-2,1.0914715E-2,3.7666522E-2,5.6555113E-3,-3.3354603E-2],"categories":[],"categories_nodes":[],"categories_segments":[],"categories_sizes":[],"default_left":[0,0,0,0,0,0,0,0,0,0,0,0,0,0,0,0,0,0,0,0,0,0,0,0,0,0,0,0,0,0,0,0,0],"id":8,"left_children":[1,-1,3,5,7,-1,9,11,13,-1,-1,15,17,19,21,23,25,27,-1,-1,29,31,-1,-1,-1,-1,-1,-1,-1,-1,-1,-1,-1],"loss_changes":[8.53268E2,0E0,3.7395044E2,3.0321777E1,1.317642E2,0E0,1.2111511E0,1.3233994E2,3.537769E1,0E0,0E0,6.587164E1,4.0131363E1,1.9264011E1,2.0282827E1,4.859352E-1,3.261136E1,8.297455E0,0E0,0E0,4.924533E0,1.2811117E0,0E0,0E0,0E0,0E0,0E0,0E0,0E0,0E0,0E0,0E0,0E0],"parents":[2147483647,0,0,2,2,3,3,4,4,6,6,7,7,8,8,11,11,12,12,13,13,14,14,15,15,16,16,17,17,20,20,21,21],"right_children":[2,-1,4,6,8,-1,10,12,14,-1,-1,16,18,20,22,24,26,28,-1,-1,30,32,-1,-1,-1,-1,-1,-1,-1,-1,-1,-1,-1],"split_conditions":[-1.6378256E0,-1.8253699E-1,-2.1887903E0,-2.9837496E0,5.5022824E-1,1.1395335E-2,-2.9359026E0,1.0557067E0,-3.511562E-1,-7.541931E-2,-2.7671343E-1,-6.1738265E-1,-1.2921408E0,-7.320624E-1,1.4140053E0,9.149307E-1,-2.516179E-3,-1.573048E0,-2.3702808E-1,-1.0912702E-1,-7.9727143E-1,8.1963533E-1,-1.5326641E-1,3.0653393E-2,1.8943327E-2,6.517309E-2,1.13130726E-1,4.2983975E-2,-6.382271E-2,1.0914715E-2,3.7666522E-2,5.6555113E-3,-3.3354603E-2],"split_indices":[0,0,6,6,15,0,6,5,6,0,0,3,11,8,15,10,4,8,0,0,5,15,0,0,0,0,0,0,0,0,0,0,0],"split_type":[0,0,0,0,0,0,0,0,0,0,0,0,0,0,0,0,0,0,0,0,0,0,0,0,0,0,0,0,0,0,0,0,0],"sum_hessian":[3.91E2,5.2E1,3.39E2,1.1E1,3.28E2,1E0,1E1,2.19E2,1.09E2,1E0,9E0,2.1E2,9E0,7.9E1,3E1,5.6E1,1.54E2,6E0,3E0,2E0,7.7E1,2.7E1,3E0,3.4E1,2.2E1,7.5E1,7.9E1,2E0,4E0,5.1E1,2.6E1,2E0,2.5E1],"tree_param":{"num_deleted":"0","num_feature":"16","num_nodes":"33","size_leaf_vector":"1"}},{"base_weights":[4.3729432E-2,5.926032E-1,-3.5986779E0,-4.6118884E0,8.1028473E-1,-2.5692892E-1,-1.6224736E-1,-2.632062E-1,-1.6652675E0,1.2922767E0,-9.835782E-2,-8.5000195E-2,-1.6015173E-1,1.4490165E0,-2.0971367E0,-7.835808E-1,4.326229E-1,1.1110449E-2,-1.7485464E-2,6.1317354E-1,1.7916915E0,4.152584E-3,-1.7493443E-1,-2.4889941E0,-5.441012E-1,2.461028E-1,9.1633755E-1,-2.9945498E-2,3.535458E-2,6.490058E-2,1.1241587E-1,-4.853791E-2,2.4528492E-2,-1.4287177E-1,-1.616974E-2,-1.0411725E-1,-1.30653E-2,-6.4410116E-3,1.4114598E-2,1.17723225E-2,4.712701E-2],"categories":[],"categories_nodes":[],"categories_segments":[],"categories_sizes":[],"default_left":[0,0,0,0,0,0,0,0,0,0,0,0,0,0,0,0,0,0,0,0,0,0,0,0,0,0,0,0,0,0,0,0,0,0,0,0,0,0,0,0,0],"id":9,"left_children":[1,3,5,7,9,-1,-1,-1,11,13,15,17,-1,19,21,23,25,-1,-1,27,29,31,-1,33,35,37,39,-1,-1,-1,-1,-1,-1,-1,-1,-1,-1,-1,-1,-1,-1],"loss_changes":[7.9382446E2,3.9459497E2,1.1650452E1,1.814032E1,1.4552931E2,0E0,0E0,0E0,9.448074E0,1.1832126E2,4.2544456E1,3.216717E-1,0E0,5.8477264E1,2.9465183E1,1.9474733E1,5.7291718E0,0E0,0E0,7.481346E0,3.0219482E1,2.8472917E0,0E0,3.8632927E0,1.9466236E1,7.0120406E-1,9.922409E-2,0E0,0E0,0E0,0E0,0E0,0E0,0E0,0E0,0E0,0E0,0E0,0E0,0E0,0E0],"parents":[2147483647,0,0,1,1,2,2,3,3,4,4,8,8,9,9,10,10,11,11,13,13,14,14,15,15,16,16,19,19,20,20,21,21,23,23,24,24,25,25,26,26],"right_children":[2,4,6,8,10,-1,-1,-1,12,14,16,18,-1,20,22,24,26,-1,-1,28,30,32,-1,34,36,38,40,-1,-1,-1,-1,-1,-1,-1,-1,-1,-1,-1,-1,-1,-1],"split_conditions":[2.3331773E0,-2.1887903E0,2.9719922E-1,3.6222696E-1,7.1364E-1,-2.5692892E-1,-1.6224736E-1,-2.632062E-1,1.1004281E0,1.0557067E0,-9.9726185E-2,-2.516179E-3,-1.6015173E-1,-9.81908E-1,-1.3974866E0,-9.478529E-1,1.8899132E0,1.1110449E-2,-1.7485464E-2,-1.2087735E0,-2.516179E-3,1.1004281E0,-1.7493443E-1,-1.09102465E-1,1.7394419E-1,7.654449E-1,-1.0655003E0,-2.9945498E-2,3.535458E-2,6.490058E-2,1.1241587E-1,-4.853791E-2,2.4528492E-2,-1.4287177E-1,-1.616974E-2,-1.0411725E-1,-1.30653E-2,-6.4410116E-3,1.4114598E-2,1.17723225E-2,4.712701E-2],"split_indices":[1,6,5,5,14,0,0,0,2,5,9,4,0,14,10,6,14,0,0,12,4,2,0,9,11,14,5,0,0,0,0,0,0,0,0,0,0,0,0,0,0],"split_type":[0,0,0,0,0,0,0,0,0,0,0,0,0,0,0,0,0,0,0,0,0,0,0,0,0,0,0,0,0,0,0,0,0,0,0,0,0,0,0,0,0],"sum_hessian":[3.95E2,3.44E2,5.1E1,1.3E1,3.31E2,7E0,4.4E1,1E1,3E0,2.16E2,1.15E2,2E0,1E0,2.07E2,9E0,5E1,6.5E1,1E0,1E0,6.1E1,1.46E2,4E0,5E0,5E0,4.5E1,4.8E1,1.7E1,4E0,5.7E1,7.2E1,7.4E1,1E0,3E0,4E0,1E0,6E0,3.9E1,4E0,4.4E1,1E0,1.6E1],"tree_param":{"num_deleted":"0","num_feature":"16","num_nodes":"41","size_leaf_vector":"1"}},{"base_weights":[4.119682E-2,-3.3042324E0,5.608505E-1,-2.0836964E-1,-1.4968644E-1,-4.5167055E0,7.8321075E-1,-3.01492E0,-2.7269512E-1,-8.6211145E-2,1.3353738E0,-1.989228E-1,-8.2875095E-2,2.050804E-2,-1.766516E-1,1.6897432E0,4.9294034E-1,1.0832692E-2,-1.7048324E-2,1.8444132E0,-1.3039741E-1,1.1666211E0,2.1067362E0,7.882128E-1,4.0040523E-1,2.5334835E-2,9.683744E-2,-2.8120121E-2,1.5909052E-2,3.097125E-2,1.4360473E-1,8.928031E-2,1.1584119E-1,1.5823778E-2,4.2023133E-2,1.692929E-2,2.9440135E-2],"categories":[],"categories_nodes":[],"categories_segments":[],"categories_sizes":[],"default_left":[0,0,0,0,0,0,0,0,0,0,0,0,0,0,0,0,0,0,0,0,0,0,0,0,0,0,0,0,0,0,0,0,0,0,0,0,0],"id":10,"left_children":[1,3,5,-1,-1,7,9,11,-1,13,15,-1,17,19,-1,21,23,-1,-1,25,27,29,31,33,35,-1,-1,-1,-1,-1,-1,-1,-1,-1,-1,-1,-1],"loss_changes":[7.111467E2,2.2647705E0,4.0322003E2,0E0,0E0,4.6689453E0,1.6333636E2,2.2271332E1,0E0,4.8995434E1,6.126184E1,0E0,3.0578917E-1,3.6021347E1,0E0,2.9390442E1,1.4057474E0,0E0,0E0,2.538452E-1,2.3627308E1,6.0747246E1,1.260315E0,7.9089165E-2,3.8297176E-1,0E0,0E0,0E0,0E0,0E0,0E0,0E0,0E0,0E0,0E0,0E0,0E0],"parents":[2147483647,0,0,1,1,2,2,5,5,6,6,7,7,9,9,10,10,12,12,13,13,15,15,16,16,19,19,20,20,21,21,22,22,23,23,24,24],"right_children":[2,4,6,-1,-1,8,10,12,-1,14,16,-1,18,20,-1,22,24,-1,-1,26,28,30,32,34,36,-1,-1,-1,-1,-1,-1,-1,-1,-1,-1,-1,-1],"split_conditions":[-1.6378256E0,1.083446E0,-2.4867868E0,-2.0836964E-1,-1.4968644E-1,-1.9733722E0,-5.162509E-3,-1.1437017E0,-2.7269512E-1,1.3330988E0,1.2203469E0,-1.989228E-1,-2.516179E-3,-2.516179E-3,-1.766516E-1,-2.516179E-3,-4.9295437E-1,1.0832692E-2,-1.7048324E-2,-1.6111382E0,-9.9726185E-2,5.4107383E-2,3.398134E-1,-7.1114945E-1,1.1355801E0,2.5334835E-2,9.683744E-2,-2.8120121E-2,1.5909052E-2,3.097125E-2,1.4360473E-1,8.928031E-2,1.1584119E-1,1.5823778E-2,4.2023133E-2,1.692929E-2,2.9440135E-2],"split_indices":[0,5,6,0,0,7,7,5,0,5,4,0,4,4,0,4,5,0,0,6,9,5,10,5,9,0,0,0,0,0,0,0,0,0,0,0,0],"split_type":[0,0,0,0,0,0,0,0,0,0,0,0,0,0,0,0,0,0,0,0,0,0,0,0,0,0,0,0,0,0,0,0,0,0,0,0,0],"sum_hessian":[4.07E2,5.4E1,3.53E2,1.1E1,4.3E1,1.4E1,3.39E2,7E0,7E0,1.32E2,2.07E2,5E0,2E0,1.29E2,3E0,1.45E2,6.2E1,1E0,1E0,9E0,1.2E2,6.6E1,7.9E1,1.3E1,4.9E1,1E0,8E0,6.1E1,5.9E1,5.1E1,1.5E1,3.5E1,4.4E1,2E0,1.1E1,3.9E1,1E1],"tree_param":{"num_deleted":"0","num_feature":"16","num_nodes":"37","size_leaf_vector":"1"}},{"base_weights":[-1.4802479E-2,-3.2542663E0,4.951588E-1,-2.3557854E-1,-1.4367841E-1,-3.9190283E0,6.628108E-1,-4.497159E0,-6.855828E-1,-1.185773E-1,1.1969768E0,-2.229577E0,-2.5752345E-1,-6.1980583E-2,1.0561871E-2,1.8142526E0,-2.4538773E-1,1.5160246E0,4.6673286E-1,-1.3755707E-1,-1.6622115E-2,2.4701476E-2,9.661402E-2,3.579328E-2,-1.2256399E0,9.437786E-1,1.999952E0,7.437621E-1,3.6168352E-1,5.2697748E-2,-4.8194956E-3,-2.0532885E-1,-3.4720775E-2,2.2614276E-2,1.2807424E-1,1.00831926E-1,2.1631813E-2,1.5296333E-2,3.937943E-2,2.7973605E-2,1.4352768E-2],"categories":[],"categories_nodes":[],"categories_segments":[],"categories_sizes":[],"default_left":[0,0,0,0,0,0,0,0,0,0,0,0,0,0,0,0,0,0,0,0,0,0,0,0,0,0,0,0,0,0,0,0,0,0,0,0,0,0,0,0,0],"id":11,"left_children":[1,3,5,-1,-1,7,9,11,13,15,17,19,-1,-1,-1,21,23,25,27,-1,-1,-1,-1,29,31,33,35,37,39,-1,-1,-1,-1,-1,-1,-1,-1,-1,-1,-1,-1],"loss_changes":[6.194597E2,1.4755432E1,2.4237291E2,0E0,0E0,1.934909E1,1.3078531E2,3.3309479E0,1.752445E0,3.181838E1,4.2627197E1,3.043314E0,0E0,0E0,0E0,2.9198074E-1,3.3394897E1,3.3835876E1,1.4188938E0,0E0,0E0,0E0,0E0,1.2887057E1,3.846978E1,4.734205E1,9.320984E-1,4.6887398E-2,4.8886633E-1,0E0,0E0,0E0,0E0,0E0,0E0,0E0,0E0,0E0,0E0,0E0,0E0],"parents":[2147483647,0,0,1,1,2,2,5,5,6,6,7,7,8,8,9,9,10,10,11,11,15,15,16,16,17,17,18,18,23,23,24,24,25,25,26,26,27,27,28,28],"right_children":[2,4,6,-1,-1,8,10,12,14,16,18,20,-1,-1,-1,22,24,26,28,-1,-1,-1,-1,30,32,34,36,38,40,-1,-1,-1,-1,-1,-1,-1,-1,-1,-1,-1,-1],"split_conditions":[-1.6378256E0,-1.4373753E0,-2.4867868E0,-2.3557854E-1,-1.4367841E-1,-8.384902E-1,-5.162509E-3,-1.0625108E0,-1.1437017E0,-2.516179E-3,1.2203469E0,-2.7429192E0,-2.5752345E-1,-6.1980583E-2,1.0561871E-2,-1.6111382E0,6.726208E-1,-2.516179E-3,-4.826112E-1,-1.3755707E-1,-1.6622115E-2,2.4701476E-2,9.661402E-2,-9.0323126E-1,7.83853E-3,-7.4077085E-2,1.0641385E0,-7.1114945E-1,-8.84019E-1,5.2697748E-2,-4.8194956E-3,-2.0532885E-1,-3.4720775E-2,2.2614276E-2,1.2807424E-1,1.00831926E-1,2.1631813E-2,1.5296333E-2,3.937943E-2,2.7973605E-2,1.4352768E-2],"split_indices":[0,7,6,0,0,14,7,14,5,4,4,6,0,0,0,6,5,4,5,0,0,0,0,7,6,5,6,5,15,0,0,0,0,0,0,0,0,0,0,0,0],"split_type":[0,0,0,0,0,0,0,0,0,0,0,0,0,0,0,0,0,0,0,0,0,0,0,0,0,0,0,0,0,0,0,0,0,0,0,0,0,0,0,0,0],"sum_hessian":[3.73E2,5E1,3.23E2,8E0,4.2E1,1.1E1,3.12E2,9E0,2E0,1.27E2,1.85E2,3E0,6E0,1E0,1E0,7E0,1.2E2,1.28E2,5.7E1,2E0,1E0,1E0,6E0,9.4E1,2.6E1,6E1,6.8E1,1.4E1,4.3E1,1E1,8.4E1,3E0,2.3E1,4.7E1,1.3E1,6.7E1,1E0,2E0,1.2E1,1E1,3.3E1],"tree_param":{"num_deleted":"0","num_feature":"16","num_nodes":"41","size_leaf_vector":"1"}},{"base_weights":[-9.4333485E-2,-3.0688972E0,3.9577234E-1,-2.1302465E-1,-1.3877119E-1,-4.073886E0,6.6326517E-1,-4.6832404E0,-2.3602436E0,-1.4914882E-1,1.181794E0,-2.156643E0,-2.6127777E-1,1.0297823E-2,-1.4111349E-1,8.823962E-2,-2.963585E-1,1.4877882E0,4.6160737E-1,-1.3297182E-1,-1.6206563E-2,-2.0695696E0,-1.0955017E-1,9.764748E-1,1.9216253E0,3.8155696E-1,3.881156E-2,-2.4679879E-2,-1.9310084E-1,-2.2606943E-2,1.2078471E-2,2.6365815E-2,1.2714736E-1,8.580111E-2,1.1003704E-1,1.1907499E-2,2.1336377E-2],"categories":[],"categories_nodes":[],"categories_segments":[],"categories_sizes":[],"default_left":[0,0,0,0,0,0,0,0,0,0,0,0,0,0,0,0,0,0,0,0,0,0,0,0,0,0,0,0,0,0,0,0,0,0,0,0,0],"id":12,"left_children":[1,3,5,-1,-1,7,9,11,13,15,17,19,-1,-1,-1,-1,21,23,25,-1,-1,27,29,31,33,35,-1,-1,-1,-1,-1,-1,-1,-1,-1,-1,-1],"loss_changes":[5.668608E2,7.4088745E0,4.0203296E2,0E0,0E0,8.786499E0,1.3329445E2,6.543091E0,8.880825E0,3.546009E1,4.1845215E1,2.823494E0,0E0,0E0,0E0,0E0,3.819835E1,2.807016E1,1.189784E0,0E0,0E0,2.9167027E1,1.2859919E1,4.3689095E1,3.5534668E-1,2.1578598E-1,0E0,0E0,0E0,0E0,0E0,0E0,0E0,0E0,0E0,0E0,0E0],"parents":[2147483647,0,0,1,1,2,2,5,5,6,6,7,7,8,8,9,9,10,10,11,11,16,16,17,17,18,18,21,21,22,22,23,23,24,24,25,25],"right_children":[2,4,6,-1,-1,8,10,12,14,16,18,20,-1,-1,-1,-1,22,24,26,-1,-1,28,30,32,34,36,-1,-1,-1,-1,-1,-1,-1,-1,-1,-1,-1],"split_conditions":[-1.6378256E0,-1.4174986E0,-1.3689152E0,-2.1302465E-1,-1.3877119E-1,-8.384902E-1,-9.519639E-2,-1.0625108E0,-2.9837496E0,-2.516179E-3,1.2203469E0,-2.7429192E0,-2.6127777E-1,1.0297823E-2,-1.4111349E-1,8.823962E-2,-1.9444982E0,-2.516179E-3,1.9155701E0,-1.3297182E-1,-1.6206563E-2,-1.0245817E0,-9.9726185E-2,4.9447578E-1,8.346125E-1,-1.1745849E0,3.881156E-2,-2.4679879E-2,-1.9310084E-1,-2.2606943E-2,1.2078471E-2,2.6365815E-2,1.2714736E-1,8.580111E-2,1.1003704E-1,1.1907499E-2,2.1336377E-2],"split_indices":[0,8,6,0,0,14,7,14,6,4,4,6,0,0,0,0,7,4,14,0,0,14,9,6,10,12,0,0,0,0,0,0,0,0,0,0,0],"split_type":[0,0,0,0,0,0,0,0,0,0,0,0,0,0,0,0,0,0,0,0,0,0,0,0,0,0,0,0,0,0,0,0,0,0,0,0,0],"sum_hessian":[3.87E2,5.4E1,3.33E2,8E0,4.6E1,1.8E1,3.15E2,1.2E1,6E0,1.23E2,1.92E2,3E0,9E0,1E0,5E0,8E0,1.15E2,1.34E2,5.8E1,2E0,1E0,1E1,1.05E2,6.3E1,7.1E1,4.8E1,1E1,6E0,4E0,5.3E1,5.2E1,5E1,1.3E1,4.5E1,2.6E1,1.3E1,3.5E1],"tree_param":{"num_deleted":"0","num_feature":"16","num_nodes":"37","size_leaf_vector":"1"}},{"base_weights":[-4.5302864E-2,-3.0230746E0,3.9060673E-1,-1.9755043E-1,-1.3020065E-1,-2.236047E0,6.821235E-1,-3.4974363E-1,-3.990818E0,-5.6454223E-2,1.1384937E0,-1.65391E-1,8.148814E-1,-2.5251634E0,-2.5065243E-1,-2.0301466E0,3.3772286E-2,1.38838E0,4.2679644E-1,1.1054693E0,-2.6111756E-2,-1.6445886E-1,-1.5949606E0,-1.2900968E-1,4.251027E-3,1.8068832E-1,-9.0874183E-1,1.635207E0,8.4073323E-1,5.257591E-1,2.5701267E-1,1.0040379E-2,5.879274E-2,-1.5801394E-2,-8.9377075E-2,5.4049473E-2,6.89779E-4,-1.8593786E-2,-1.4661239E-1,8.44523E-2,1.4243961E-3,2.3913508E-2,1.0126402E-1,1.7970562E-3,2.7973125E-2,9.601692E-3,2.0677118E-2],"categories":[],"categories_nodes":[],"categories_segments":[],"categories_sizes":[],"default_left":[0,0,0,0,0,0,0,0,0,0,0,0,0,0,0,0,0,0,0,0,0,0,0,0,0,0,0,0,0,0,0,0,0,0,0,0,0,0,0,0,0,0,0,0,0,0,0],"id":13,"left_children":[1,3,5,-1,-1,7,9,11,13,15,17,-1,19,21,-1,23,25,27,29,31,-1,-1,33,-1,-1,35,37,39,41,43,45,-1,-1,-1,-1,-1,-1,-1,-1,-1,-1,-1,-1,-1,-1,-1,-1],"loss_changes":[4.879456E2,8.376862E0,2.526793E2,0E0,0E0,1.07835236E2,9.983545E1,6.1261322E1,1.2811279E1,2.0369612E1,3.195279E1,0E0,5.6284657E0,1.1500854E0,0E0,6.0365753E0,1.5395948E1,1.6873749E1,6.881838E-1,4.6430397E-1,0E0,0E0,9.128752E-1,0E0,0E0,1.4409444E1,1.5204849E1,7.910248E0,1.7922974E1,4.751482E-1,1.240083E-1,0E0,0E0,0E0,0E0,0E0,0E0,0E0,0E0,0E0,0E0,0E0,0E0,0E0,0E0,0E0,0E0],"parents":[2147483647,0,0,1,1,2,2,5,5,6,6,7,7,8,8,9,9,10,10,12,12,13,13,15,15,16,16,17,17,18,18,19,19,22,22,25,25,26,26,27,27,28,28,29,29,30,30],"right_children":[2,4,6,-1,-1,8,10,12,14,16,18,-1,20,22,-1,24,26,28,30,32,-1,-1,34,-1,-1,36,38,40,42,44,46,-1,-1,-1,-1,-1,-1,-1,-1,-1,-1,-1,-1,-1,-1,-1,-1],"split_conditions":[-1.6378256E0,7.1059114E-1,-1.8882922E0,-1.9755043E-1,-1.3020065E-1,-1.5684557E0,-5.162509E-3,-1.1437017E0,-1.2921408E0,-1.3783058E0,1.1004281E0,-1.65391E-1,1.1602937E0,-1.2288151E0,-2.5065243E-1,-6.954494E-1,6.7819613E-1,1.2390205E0,8.2483584E-1,5.903234E-1,-2.6111756E-2,-1.6445886E-1,-1.4086938E0,-1.2900968E-1,4.251027E-3,-5.1228285E-1,1.4140053E0,1.7076272E0,9.8533285E-1,-1.6237214E0,-6.189312E-2,1.0040379E-2,5.879274E-2,-1.5801394E-2,-8.9377075E-2,5.4049473E-2,6.89779E-4,-1.8593786E-2,-1.4661239E-1,8.44523E-2,1.4243961E-3,2.3913508E-2,1.0126402E-1,1.7970562E-3,2.7973125E-2,9.601692E-3,2.0677118E-2],"split_indices":[0,5,7,0,0,8,7,5,11,5,2,0,5,12,0,7,5,10,10,5,0,0,10,0,0,9,15,9,8,8,5,0,0,0,0,0,0,0,0,0,0,0,0,0,0,0,0],"split_type":[0,0,0,0,0,0,0,0,0,0,0,0,0,0,0,0,0,0,0,0,0,0,0,0,0,0,0,0,0,0,0,0,0,0,0,0,0,0,0,0,0,0,0,0,0,0,0],"sum_hessian":[3.74E2,4.7E1,3.27E2,1.2E1,3.5E1,3.2E1,2.95E2,1.6E1,1.6E1,1.13E2,1.82E2,4E0,1.2E1,8E0,8E0,4E0,1.09E2,1.34E2,4.8E1,1E1,2E0,3E0,5E0,3E0,1E0,9.5E1,1.4E1,9.1E1,4.3E1,2.9E1,1.9E1,1E0,9E0,1E0,4E0,1.4E1,8.1E1,1.2E1,2E0,8.8E1,3E0,3.4E1,9E0,2E0,2.7E1,1.5E1,4E0],"tree_param":{"num_deleted":"0","num_feature":"16","num_nodes":"47","size_leaf_vector":"1"}},{"base_weights":[1.0690599E-1,-2.7215393E0,5.692538E-1,-1.8609293E-1,-1.2161704E-1,-3.4155483E0,7.202071E-1,9.789372E-3,-3.7616503E0,1.118287E0,1.2053065E-1,-2.14177E-1,-1.7774588E0,1.3829428E0,-3.756359E-2,3.7780592E-1,-9.886311E-1,-1.0822635E-1,-1.5406358E-2,-2.3878202E-2,1.4360944E0,-3.7979355E-1,1.2820934E-1,9.4494216E-2,4.7224241E-1,-1.720694E-1,-3.2601038E-1,5.0394434E-2,8.82226E-2,7.1261884E-3,-2.492547E-2,-1.5581115E-2,1.2687418E-2,-3.5204425E-2,9.327219E-3,2.8895095E-2,1.2758647E-2,4.1297015E-2,-5.049127E-2],"categories":[],"categories_nodes":[],"categories_segments":[],"categories_sizes":[],"default_left":[0,0,0,0,0,0,0,0,0,0,0,0,0,0,0,0,0,0,0,0,0,0,0,0,0,0,0,0,0,0,0,0,0,0,0,0,0,0,0],"id":14,"left_children":[1,3,5,-1,-1,7,9,-1,11,13,15,-1,17,19,21,23,25,-1,-1,-1,27,29,31,33,35,-1,37,-1,-1,-1,-1,-1,-1,-1,-1,-1,-1,-1,-1],"loss_changes":[4.93254E2,6.279602E0,1.9735205E2,0E0,0E0,1.5735168E1,7.458429E1,0E0,3.7769928E0,5.756163E1,3.6328857E1,0E0,1.6079769E0,1.5815857E1,2.0910618E0,2.7111378E0,3.788401E1,0E0,0E0,0E0,1.9171722E1,8.151375E-1,1.4594746E0,2.116105E0,1.6185627E0,0E0,1.6588478E1,0E0,0E0,0E0,0E0,0E0,0E0,0E0,0E0,0E0,0E0,0E0,0E0],"parents":[2147483647,0,0,1,1,2,2,5,5,6,6,8,8,9,9,10,10,12,12,13,13,14,14,15,15,16,16,20,20,21,21,22,22,23,23,24,24,26,26],"right_children":[2,4,6,-1,-1,8,10,-1,12,14,16,-1,18,20,22,24,26,-1,-1,-1,28,30,32,34,36,-1,38,-1,-1,-1,-1,-1,-1,-1,-1,-1,-1,-1,-1],"split_conditions":[-1.6378256E0,7.1059114E-1,-1.3806154E0,-1.8609293E-1,-1.2161704E-1,-2.9837496E0,1.2203469E0,9.789372E-3,-2.6503177E0,5.5022824E-1,6.271843E-1,-2.14177E-1,-1.3783058E0,-1.0479296E0,8.585243E-1,-7.9727143E-1,8.805084E-2,-1.0822635E-1,-1.5406358E-2,-2.3878202E-2,-2.516179E-3,1.0133001E0,-1.0325714E0,-1.2636144E0,7.86048E-1,-1.720694E-1,-1.4007045E0,5.0394434E-2,8.82226E-2,7.1261884E-3,-2.492547E-2,-1.5581115E-2,1.2687418E-2,-3.5204425E-2,9.327219E-3,2.8895095E-2,1.2758647E-2,4.1297015E-2,-5.049127E-2],"split_indices":[0,5,6,0,0,6,4,0,6,15,5,0,5,14,11,5,6,0,0,0,4,14,6,6,10,0,10,0,0,0,0,0,0,0,0,0,0,0,0],"split_type":[0,0,0,0,0,0,0,0,0,0,0,0,0,0,0,0,0,0,0,0,0,0,0,0,0,0,0,0,0,0,0,0,0,0,0,0,0,0,0],"sum_hessian":[3.75E2,5.2E1,3.23E2,9E0,4.3E1,1.1E1,3.12E2,1E0,1E1,1.87E2,1.25E2,7E0,3E0,1.52E2,3.5E1,1.02E2,2.3E1,2E0,1E0,4E0,1.48E2,1.1E1,2.4E1,2.6E1,7.6E1,4E0,1.9E1,6.6E1,8.2E1,2E0,9E0,5E0,1.9E1,2E0,2.4E1,5E1,2.6E1,7E0,1.2E1],"tree_param":{"num_deleted":"0","num_feature":"16","num_nodes":"39","size_leaf_vector":"1"}},{"base_weights":[1.5114586E-2,4.4697496E-1,-2.6563017E0,-3.7744067E0,6.296926E-1,-1.9716781E-1,-1.2066334E-1,-4.8616458E-2,-3.9151564E0,-9.001945E-2,1.0655686E0,-1.8889856E0,-2.1670547E-1,7.9517804E-2,-2.2189102E-1,1.3429903E0,3.798151E-1,-1.1591824E-1,-1.5021205E-2,1.242397E-1,-6.5190035E-1,9.151144E-1,1.723807E0,3.1877962E-1,3.235055E-2,-7.1417436E-2,9.868055E-3,-2.4042496E-2,-1.2707652E-1,2.4098134E-2,1.15990356E-1,8.8322245E-2,4.730853E-2,-4.797745E-3,1.6902965E-2],"categories":[],"categories_nodes":[],"categories_segments":[],"categories_sizes":[],"default_left":[0,0,0,0,0,0,0,0,0,0,0,0,0,0,0,0,0,0,0,0,0,0,0,0,0,0,0,0,0,0,0,0,0,0,0],"id":15,"left_children":[1,3,5,7,9,-1,-1,-1,11,13,15,17,-1,-1,19,21,23,-1,-1,25,27,29,31,33,-1,-1,-1,-1,-1,-1,-1,-1,-1,-1,-1],"loss_changes":[4.4766104E2,2.599979E2,7.3747864E0,1.7146759E0,1.00795296E2,0E0,0E0,0E0,2.848236E0,2.7387323E1,3.7538498E1,2.031888E0,0E0,0E0,1.7048689E1,2.1560333E1,7.559433E-1,0E0,0E0,7.547654E0,1.5262228E1,4.086465E1,7.822418E-1,4.3223572E-1,0E0,0E0,0E0,0E0,0E0,0E0,0E0,0E0,0E0,0E0,0E0],"parents":[2147483647,0,0,1,1,2,2,3,3,4,4,8,8,9,9,10,10,11,11,14,14,15,15,16,16,19,19,20,20,21,21,22,22,23,23],"right_children":[2,4,6,8,10,-1,-1,-1,12,14,16,18,-1,-1,20,22,24,-1,-1,26,28,30,32,34,-1,-1,-1,-1,-1,-1,-1,-1,-1,-1,-1],"split_conditions":[2.3331773E0,-1.3806154E0,-1.1219665E0,5.7369655E-1,-9.519639E-2,-1.9716781E-1,-1.2066334E-1,-4.8616458E-2,-1.0625108E0,-2.516179E-3,1.2203469E0,-2.7429192E0,-2.1670547E-1,7.9517804E-2,-5.777217E-1,-2.516179E-3,1.8899132E0,-1.1591824E-1,-1.5021205E-2,-7.320624E-1,1.4140053E0,4.9447578E-1,1.4871743E0,-5.868034E-1,3.235055E-2,-7.1417436E-2,9.868055E-3,-2.4042496E-2,-1.2707652E-1,2.4098134E-2,1.15990356E-1,8.8322245E-2,4.730853E-2,-4.797745E-3,1.6902965E-2],"split_indices":[1,6,11,2,7,0,0,0,14,4,4,6,0,0,6,4,14,0,0,8,15,6,8,6,0,0,0,0,0,0,0,0,0,0,0],"split_type":[0,0,0,0,0,0,0,0,0,0,0,0,0,0,0,0,0,0,0,0,0,0,0,0,0,0,0,0,0,0,0,0,0,0,0],"sum_hessian":[3.86E2,3.33E2,5.3E1,1.3E1,3.2E2,6E0,4.7E1,1E0,1.2E1,1.21E2,1.99E2,3E0,9E0,8E0,1.13E2,1.41E2,5.8E1,2E0,1E0,6.3E1,5E1,6.8E1,7.3E1,4.9E1,9E0,2E0,6.1E1,4.7E1,3E0,5.3E1,1.5E1,6.8E1,5E0,2E0,4.7E1],"tree_param":{"num_deleted":"0","num_feature":"16","num_nodes":"35","size_leaf_vector":"1"}},{"base_weights":[-9.522147E-3,-2.3985312E0,3.5978687E-1,-1.5260673E-1,-1.0763403E-1,-3.1860921E0,4.976652E-1,-3.6868534E0,-4.5485687E-1,-1.7263113E-1,9.4913554E-1,-1.9429164E-1,-4.740105E-2,3.6648752E-3,-3.777914E-2,-1.2641588E0,2.4648653E-2,1.1815441E0,3.4092295E-1,-3.2013366E-1,-1.9217013E-1,9.473872E-1,-1.1452327E-1,1.7771786E0,1.0114553E0,2.8515292E-2,2.8625548E-1,2.104835E-2,-9.4326414E-2,-4.199641E-2,5.7474144E-2,-1.0964147E-1,-1.0440814E-3,3.4931175E-2,9.6391425E-2,3.3909757E-2,6.755106E-2,1.0704995E-5,1.5359006E-2],"categories":[],"categories_nodes":[],"categories_segments":[],"categories_sizes":[],"default_left":[0,0,0,0,0,0,0,0,0,0,0,0,0,0,0,0,0,0,0,0,0,0,0,0,0,0,0,0,0,0,0,0,0,0,0,0,0,0,0],"id":16,"left_children":[1,3,5,-1,-1,7,9,11,13,15,17,-1,-1,-1,-1,19,21,23,25,27,-1,29,31,33,35,-1,37,-1,-1,-1,-1,-1,-1,-1,-1,-1,-1,-1,-1],"loss_changes":[3.2289612E2,1.3034973E0,1.5656682E2,0E0,0E0,1.4735374E1,9.276525E1,1.7658539E0,5.318715E-1,2.6732868E1,2.546492E1,0E0,0E0,0E0,0E0,4.503215E1,1.3720943E1,1.1575485E1,4.8881578E-1,1.8207006E1,0E0,6.0224056E0,1.8053497E1,3.2027283E0,1.096595E1,0E0,2.6328802E-1,0E0,0E0,0E0,0E0,0E0,0E0,0E0,0E0,0E0,0E0,0E0,0E0],"parents":[2147483647,0,0,1,1,2,2,5,5,6,6,7,7,8,8,9,9,10,10,15,15,16,16,17,17,18,18,19,19,21,21,22,22,23,23,24,24,26,26],"right_children":[2,4,6,-1,-1,8,10,12,14,16,18,-1,-1,-1,-1,20,22,24,26,28,-1,30,32,34,36,-1,38,-1,-1,-1,-1,-1,-1,-1,-1,-1,-1,-1,-1],"split_conditions":[-1.6378256E0,9.3532795E-1,-1.3559625E0,-1.5260673E-1,-1.0763403E-1,-1.09102465E-1,-5.162509E-3,1.1127505E0,-1.3783058E0,-1.1323242E0,1.1004281E0,-1.9429164E-1,-4.740105E-2,3.6648752E-3,-3.777914E-2,-8.798577E-1,-9.080595E-1,-2.5000405E-1,-4.826112E-1,1.1602937E0,-1.9217013E-1,-1.1437017E0,-7.320624E-1,-1.1726768E0,2.9680905E-1,2.8515292E-2,-1.6196674E0,2.104835E-2,-9.4326414E-2,-4.199641E-2,5.7474144E-2,-1.0964147E-1,-1.0440814E-3,3.4931175E-2,9.6391425E-2,3.3909757E-2,6.755106E-2,1.0704995E-5,1.5359006E-2],"split_indices":[0,5,5,0,0,9,7,13,5,13,2,0,0,0,0,15,7,9,5,5,0,5,8,13,13,0,8,0,0,0,0,0,0,0,0,0,0,0,0],"split_type":[0,0,0,0,0,0,0,0,0,0,0,0,0,0,0,0,0,0,0,0,0,0,0,0,0,0,0,0,0,0,0,0,0,0,0,0,0,0,0],"sum_hessian":[3.64E2,4.8E1,3.16E2,1E1,3.8E1,1.1E1,3.05E2,9E0,2E0,1.23E2,1.82E2,8E0,1E0,1E0,1E0,1.8E1,1.05E2,1.31E2,5.1E1,1.4E1,4E0,1.3E1,9.2E1,2.7E1,1.04E2,8E0,4.3E1,1E1,4E0,1E0,1.2E1,3E0,8.9E1,4E0,2.3E1,5.4E1,5E1,3E0,4E1],"tree_param":{"num_deleted":"0","num_feature":"16","num_nodes":"39","size_leaf_vector":"1"}},{"base_weights":[-7.314189E-2,-2.441773E0,3.5165408E-1,-2.008975E-1,-1.0887785E-1,-4.6901792E-1,9.290714E-1,-1.7174611E0,-1.3163291E-1,1.1818157E0,3.1672648E-1,2.4535915E-1,-2.514857E0,1.1351428E0,-2.9194862E-1,7.008634E-1,1.5493072E0,3.892977E-1,1.5491426E-1,-6.802324E-1,8.21527E-1,-3.4612188E0,-9.73613E-1,3.1716816E-2,7.011212E-2,-7.1987665E-1,1.5129596E-1,9.545092E-2,4.1534162E-1,1.3005456E0,9.0185836E-2,2.2650449E-1,4.9739707E-1,-2.3002053E-2,2.0389207E-1,1.3525414E-2,-5.4365773E-2,5.104146E-2,-4.3745995E-3,-6.802123E-2,-2.0051625E-1,-1.4298306E-1,-1.310948E-3,-2.5939656E-2,-9.117693E-2,-1.521972E-2,1.0639615E-2,3.639449E-3,4.761916E-2,6.719305E-2,2.8195644E-2,1.6718803E-2,3.1675994E-3,2.7361704E-2,1.5621363E-2,1.5037697E-3,-3.4206074E-3,4.286019E-3,1.0773922E-2],"categories":[],"categories_nodes":[],"categories_segments":[],"categories_sizes":[],"default_left":[0,0,0,0,0,0,0,0,0,0,0,0,0,0,0,0,0,0,0,0,0,0,0,0,0,0,0,0,0,0,0,0,0,0,0,0,0,0,0,0,0,0,0,0,0,0,0,0,0,0,0,0,0,0,0,0,0,0,0],"id":17,"left_children":[1,3,5,-1,-1,7,9,11,13,15,17,19,21,23,25,27,29,31,33,35,37,39,41,-1,-1,43,45,-1,47,49,-1,51,53,55,57,-1,-1,-1,-1,-1,-1,-1,-1,-1,-1,-1,-1,-1,-1,-1,-1,-1,-1,-1,-1,-1,-1,-1,-1],"loss_changes":[3.771718E2,1.4988403E1,1.511265E2,0E0,0E0,5.5373116E1,2.8567078E1,4.444111E1,2.1655226E1,2.2244614E1,5.9729576E-1,5.3584943E0,2.580159E1,7.1568966E-1,1.793853E1,1.9559423E1,2.3374329E0,5.5605507E-1,1.7025506E-1,1.8422493E0,1.1763315E0,8.386963E0,1.6006502E1,0E0,0E0,9.706518E0,1.3818673E0,0E0,8.944963E0,5.503845E-1,0E0,2.7800846E-1,3.183317E-2,1.4108781E-2,2.066791E-3,0E0,0E0,0E0,0E0,0E0,0E0,0E0,0E0,0E0,0E0,0E0,0E0,0E0,0E0,0E0,0E0,0E0,0E0,0E0,0E0,0E0,0E0,0E0,0E0],"parents":[2147483647,0,0,1,1,2,2,5,5,6,6,7,7,8,8,9,9,10,10,11,11,12,12,13,13,14,14,15,15,16,16,17,17,18,18,19,19,20,20,21,21,22,22,25,25,26,26,28,28,29,29,31,31,32,32,33,33,34,34],"right_children":[2,4,6,-1,-1,8,10,12,14,16,18,20,22,24,26,28,30,32,34,36,38,40,42,-1,-1,44,46,-1,48,50,-1,52,54,56,58,-1,-1,-1,-1,-1,-1,-1,-1,-1,-1,-1,-1,-1,-1,-1,-1,-1,-1,-1,-1,-1,-1,-1,-1],"split_conditions":[-1.6378256E0,-4.343141E-1,-9.519639E-2,-2.008975E-1,-1.0887785E-1,-8.3401823E-1,1.2203469E0,-1.5798835E0,-9.0323126E-1,-2.516179E-3,9.149307E-1,-1.1857892E0,-1.8979201E0,-3.734682E-1,-9.9726185E-2,6.9373924E-1,7.206727E-1,2.848152E-1,-1.0117795E0,-2.137847E0,1.083446E0,-1.5780611E0,-1.2357463E0,3.1716816E-2,7.011212E-2,1.618377E0,7.654449E-1,9.545092E-2,5.7187164E-1,1.7201339E0,9.0185836E-2,-1.1668129E0,7.86048E-1,-1.2821986E-1,-2.973567E-1,1.3525414E-2,-5.4365773E-2,5.104146E-2,-4.3745995E-3,-6.802123E-2,-2.0051625E-1,-1.4298306E-1,-1.310948E-3,-2.5939656E-2,-9.117693E-2,-1.521972E-2,1.0639615E-2,3.639449E-3,4.761916E-2,6.719305E-2,2.8195644E-2,1.6718803E-2,3.1675994E-3,2.7361704E-2,1.5621363E-2,1.5037697E-3,-3.4206074E-3,4.286019E-3,1.0773922E-2],"split_indices":[0,5,7,0,0,14,4,9,7,4,10,12,7,0,9,8,10,8,14,7,5,9,12,0,0,14,14,0,12,7,0,12,10,5,5,0,0,0,0,0,0,0,0,0,0,0,0,0,0,0,0,0,0,0,0,0,0,0,0],"split_type":[0,0,0,0,0,0,0,0,0,0,0,0,0,0,0,0,0,0,0,0,0,0,0,0,0,0,0,0,0,0,0,0,0,0,0,0,0,0,0,0,0,0,0,0,0,0,0,0,0,0,0,0,0,0,0,0,0,0,0],"sum_hessian":[3.73E2,5.6E1,3.17E2,6E0,5E1,1.31E2,1.86E2,2.7E1,1.04E2,1.31E2,5.5E1,8E0,1.9E1,1.1E1,9.3E1,5.8E1,7.3E1,3.7E1,1.8E1,3E0,5E0,1.1E1,8E0,5E0,6E0,4.7E1,4.6E1,1E1,4.8E1,4E1,3.3E1,1.6E1,2.1E1,4E0,1.4E1,1E0,2E0,4E0,1E0,3E0,8E0,2E0,6E0,4.1E1,6E0,5E0,4.1E1,3E1,1.8E1,3.7E1,3E0,9E0,7E0,1.5E1,6E0,2E0,2E0,2E0,1.2E1],"tree_param":{"num_deleted":"0","num_feature":"16","num_nodes":"59","size_leaf_vector":"1"}},{"base_weights":[6.893001E-3,3.48985E-1,-2.2563097E0,-2.8504272E0,4.336449E-1,-1.8741213E-1,-1.0269468E-1,-3.2232668E0,3.307271E-3,5.481855E-1,-1.8914291E0,-1.7163338E-1,-4.3936588E-2,8.9459616E-1,-5.5339605E-2,6.2367517E-1,-2.78177E0,1.0951558E0,2.7144367E-1,-1.8586174E0,4.0899396E-2,4.1112315E-2,-4.265237E-3,-3.2907784E0,-4.705294E-2,4.0829167E-2,6.851573E-2,-1.15849935E-1,1.8477624E-2,-2.4129407E-2,-1.2129926E-1,-1.02926254E-1,5.8435146E-3,-7.464302E-2,-1.9704637E-1],"categories":[],"categories_nodes":[],"categories_segments":[],"categories_sizes":[],"default_left":[0,0,0,0,0,0,0,0,0,0,0,0,0,0,0,0,0,0,0,0,0,0,0,0,0,0,0,0,0,0,0,0,0,0,0],"id":18,"left_children":[1,3,5,7,9,-1,-1,11,-1,13,15,-1,-1,17,19,21,23,25,27,29,31,-1,-1,33,-1,-1,-1,-1,-1,-1,-1,-1,-1,-1,-1],"loss_changes":[3.066057E2,9.441257E1,8.005035E0,9.999924E0,9.051884E1,0E0,0E0,9.111862E-1,0E0,6.716019E1,3.7563732E1,0E0,0E0,2.5198486E1,2.0554403E1,7.740562E-1,8.146423E0,1.0685379E1,1.3807653E1,3.5135345E0,1.8263533E1,0E0,0E0,4.636978E0,0E0,0E0,0E0,0E0,0E0,0E0,0E0,0E0,0E0,0E0,0E0],"parents":[2147483647,0,0,1,1,2,2,3,3,4,4,7,7,9,9,10,10,13,13,14,14,15,15,16,16,17,17,18,18,19,19,20,20,23,23],"right_children":[2,4,6,8,10,-1,-1,12,-1,14,16,-1,-1,18,20,22,24,26,28,30,32,-1,-1,34,-1,-1,-1,-1,-1,-1,-1,-1,-1,-1,-1],"split_conditions":[2.3331773E0,-1.3783058E0,-8.37538E-1,-4.1055185E-1,1.0557067E0,-1.8741213E-1,-1.0269468E-1,1.1127505E0,3.307271E-3,5.5022824E-1,-1.5684557E0,-1.7163338E-1,-4.3936588E-2,1.1004281E0,1.7394419E-1,1.1602937E0,-1.4837059E0,-2.516179E-3,-7.890025E-1,1.3742763E-1,-7.320624E-1,4.1112315E-2,-4.265237E-3,-1.5630165E0,-4.705294E-2,4.0829167E-2,6.851573E-2,-1.15849935E-1,1.8477624E-2,-2.4129407E-2,-1.2129926E-1,-1.02926254E-1,5.8435146E-3,-7.464302E-2,-1.9704637E-1],"split_indices":[1,5,5,8,5,0,0,13,0,15,8,0,0,2,11,5,9,4,5,11,8,0,0,8,0,0,0,0,0,0,0,0,0,0,0],"split_type":[0,0,0,0,0,0,0,0,0,0,0,0,0,0,0,0,0,0,0,0,0,0,0,0,0,0,0,0,0,0,0,0,0,0,0],"sum_hessian":[3.94E2,3.43E2,5.1E1,8E0,3.35E2,4E0,4.7E1,7E0,1E0,3.2E2,1.5E1,6E0,1E0,2.03E2,1.17E2,4E0,1.1E1,1.53E2,5E1,5E0,1.12E2,3E0,1E0,8E0,3E0,7.8E1,7.5E1,1E0,4.9E1,2E0,3E0,3E0,1.09E2,3E0,5E0],"tree_param":{"num_deleted":"0","num_feature":"16","num_nodes":"35","size_leaf_vector":"1"}},{"base_weights":[-1.8923875E-2,-2.1477807E0,3.1658968E-1,-1.368889E-1,-9.4045766E-2,-3.1882284E0,4.703779E-1,1.2166572E-2,-3.4709122E0,-9.028231E-2,8.310626E-1,-1.9357798E0,-1.9690534E-1,7.0488276E-3,-1.21381976E-1,1.0908527E0,2.7767265E-1,-1.1793709E-1,-6.0982825E-3,1.1167662E0,-1.605222E-1,1.1555998E0,-7.718937E-1,1.9131537E-1,4.1003177E-1,6.436633E-2,-3.604096E-2,3.3449402E-4,-5.8769405E-2,4.1406047E-2,7.052154E-2,-4.428351E-2,-7.919693E-3,1.9785004E-2,5.9606675E-3,2.6651476E-2,1.3247726E-2],"categories":[],"categories_nodes":[],"categories_segments":[],"categories_sizes":[],"default_left":[0,0,0,0,0,0,0,0,0,0,0,0,0,0,0,0,0,0,0,0,0,0,0,0,0,0,0,0,0,0,0,0,0,0,0,0,0],"id":19,"left_children":[1,3,5,-1,-1,7,9,-1,11,13,15,17,-1,19,-1,21,23,-1,-1,25,27,29,31,33,35,-1,-1,-1,-1,-1,-1,-1,-1,-1,-1,-1,-1],"loss_changes":[2.7281314E2,3.037857E0,1.7936958E2,0E0,0E0,1.4425232E1,6.417926E1,0E0,1.7003784E0,2.8454317E1,2.7443787E1,3.5481873E0,0E0,2.268E1,0E0,1.6691574E1,6.416559E-1,0E0,0E0,5.9426346E0,1.799583E1,9.430359E0,2.0872474E-1,5.4228914E-1,2.8703165E-1,0E0,0E0,0E0,0E0,0E0,0E0,0E0,0E0,0E0,0E0,0E0,0E0],"parents":[2147483647,0,0,1,1,2,2,5,5,6,6,8,8,9,9,10,10,11,11,13,13,15,15,16,16,19,19,20,20,21,21,22,22,23,23,24,24],"right_children":[2,4,6,-1,-1,8,10,-1,12,14,16,18,-1,20,-1,22,24,-1,-1,26,28,30,32,34,36,-1,-1,-1,-1,-1,-1,-1,-1,-1,-1,-1,-1],"split_conditions":[-1.6378256E0,1.083446E0,-2.1887903E0,-1.368889E-1,-9.4045766E-2,-2.9837496E0,-9.519639E-2,1.2166572E-2,-1.9733722E0,1.2776203E0,1.2203469E0,-2.7429192E0,-1.9690534E-1,-1.4007045E0,-1.21381976E-1,1.7190124E0,7.294057E-1,-1.1793709E-1,-6.0982825E-3,1.083446E0,6.423928E-1,-2.516179E-3,9.167843E-1,-8.84019E-1,-4.826112E-1,6.436633E-2,-3.604096E-2,3.3449402E-4,-5.8769405E-2,4.1406047E-2,7.052154E-2,-4.428351E-2,-7.919693E-3,1.9785004E-2,5.9606675E-3,2.6651476E-2,1.3247726E-2],"split_indices":[0,5,6,0,0,6,7,0,7,5,4,6,0,10,0,10,11,0,0,5,5,4,8,15,5,0,0,0,0,0,0,0,0,0,0,0,0],"split_type":[0,0,0,0,0,0,0,0,0,0,0,0,0,0,0,0,0,0,0,0,0,0,0,0,0,0,0,0,0,0,0,0,0,0,0,0,0],"sum_hessian":[3.8E2,5.1E1,3.29E2,1.3E1,3.8E1,1.3E1,3.16E2,1E0,1.2E1,1.24E2,1.92E2,4E0,8E0,1.2E2,4E0,1.3E2,6.2E1,3E0,1E0,1.5E1,1.05E2,1.26E2,4E0,3.9E1,2.3E1,1.4E1,1E0,9.1E1,1.4E1,5.7E1,6.9E1,3E0,1E0,9E0,3E1,1.1E1,1.2E1],"tree_param":{"num_deleted":"0","num_feature":"16","num_nodes":"37","size_leaf_vector":"1"}},{"base_weights":[-2.5620766E-3,3.0388084E-1,-2.057482E0,-3.0165904E0,4.7610208E-1,-1.6937937E-1,-9.361026E-2,-3.4641674E0,-1.2495722E0,-8.098038E-2,8.460087E-1,-1.45422E0,-1.9608648E-1,-8.402946E-2,1.1862397E-2,6.699231E-2,-1.5539589E0,1.0662866E0,2.9013318E-1,-9.2984125E-2,-5.9458255E-3,1.2567888E0,-6.460908E-2,2.9289025E-1,-2.5139947E0,8.825479E-1,1.7391295E0,2.2596908E-1,2.6895663E-2,1.742437E-2,6.538405E-2,1.0522294E-2,-1.743274E-2,3.803824E-2,-1.3630717E-2,-6.7889646E-2,-1.6653743E-1,1.5593155E-2,6.859719E-2,2.4019826E-2,9.329455E-2,4.31994E-3,1.3839652E-2],"categories":[],"categories_nodes":[],"categories_segments":[],"categories_sizes":[],"default_left":[0,0,0,0,0,0,0,0,0,0,0,0,0,0,0,0,0,0,0,0,0,0,0,0,0,0,0,0,0,0,0,0,0,0,0,0,0,0,0,0,0,0,0],"id":20,"left_children":[1,3,5,7,9,-1,-1,11,13,15,17,19,-1,-1,-1,21,23,25,27,-1,-1,29,31,33,35,37,39,41,-1,-1,-1,-1,-1,-1,-1,-1,-1,-1,-1,-1,-1,-1,-1],"loss_changes":[2.4747375E2,1.9701088E2,6.226059E0,9.11618E0,6.724683E1,0E0,0E0,6.2527466E0,3.602941E0,2.8656942E1,2.3690262E1,1.9445143E0,0E0,0E0,0E0,1.8870665E1,2.2012823E1,1.5772949E1,7.8466797E-1,0E0,0E0,9.899521E-2,8.589344E0,1.5303212E0,3.0321922E0,3.08527E1,3.7308502E0,3.0948043E-1,0E0,0E0,0E0,0E0,0E0,0E0,0E0,0E0,0E0,0E0,0E0,0E0,0E0,0E0,0E0],"parents":[2147483647,0,0,1,1,2,2,3,3,4,4,7,7,8,8,9,9,10,10,11,11,15,15,16,16,17,17,18,18,21,21,22,22,23,23,24,24,25,25,26,26,27,27],"right_children":[2,4,6,8,10,-1,-1,12,14,16,18,20,-1,-1,-1,22,24,26,28,-1,-1,30,32,34,36,38,40,42,-1,-1,-1,-1,-1,-1,-1,-1,-1,-1,-1,-1,-1,-1,-1],"split_conditions":[2.3331773E0,-1.3806154E0,-4.343141E-1,-9.9794954E-1,1.2844257E-2,-1.6937937E-1,-9.361026E-2,-1.0625108E0,-1.1437017E0,1.0557067E0,1.2203469E0,-2.7429192E0,-1.9608648E-1,-8.402946E-2,1.1862397E-2,-1.5354127E0,-1.9950541E0,4.9447578E-1,1.9155701E0,-9.2984125E-2,-5.9458255E-3,-1.2870388E0,-4.826112E-1,1.083446E0,-1.2921408E0,-2.516179E-3,-1.1754569E0,-1.0117795E0,2.6895663E-2,1.742437E-2,6.538405E-2,1.0522294E-2,-1.743274E-2,3.803824E-2,-1.3630717E-2,-6.7889646E-2,-1.6653743E-1,1.5593155E-2,6.859719E-2,2.4019826E-2,9.329455E-2,4.31994E-3,1.3839652E-2],"split_indices":[1,6,5,13,7,0,0,14,5,5,4,6,0,0,0,8,7,6,14,0,0,12,5,5,11,4,13,14,0,0,0,0,0,0,0,0,0,0,0,0,0,0,0],"split_type":[0,0,0,0,0,0,0,0,0,0,0,0,0,0,0,0,0,0,0,0,0,0,0,0,0,0,0,0,0,0,0,0,0,0,0,0,0,0,0,0,0,0,0],"sum_hessian":[3.91E2,3.41E2,5E1,1.6E1,3.25E2,4E0,4.6E1,1.2E1,4E0,1.3E2,1.95E2,3E0,9E0,3E0,1E0,1.19E2,1.1E1,1.39E2,5.6E1,2E0,1E0,1.1E1,1.08E2,4E0,7E0,1.11E2,2.8E1,4.6E1,1E1,1E0,1E1,5.5E1,5.3E1,2E0,2E0,4E0,3E0,5.2E1,5.9E1,3E0,2.5E1,1.3E1,3.3E1],"tree_param":{"num_deleted":"0","num_feature":"16","num_nodes":"43","size_leaf_vector":"1"}},{"base_weights":[-6.835889E-2,-1.9875368E0,2.9133108E-1,-1.7128153E-1,-9.006447E-2,-2.928506E0,4.4277027E-1,-3.3841586E0,-1.3403686E0,-2.3026526E-2,7.501704E-1,-1.2994604E0,-1.8515202E-1,-8.955596E-2,1.1565829E-2,1.2095819E0,-1.160555E-1,9.2515844E-1,3.225642E-1,-9.166235E-2,-5.7971836E-3,7.331718E-2,3.554519E-2,6.790347E-2,-8.868366E-1,7.636825E-1,1.6401646E0,2.5470734E-2,2.5578082E-1,-7.664023E-2,5.8868686E-3,-1.6212144E-1,-1.8568814E-2,9.054177E-3,6.2390238E-2,2.7618159E-2,8.846309E-2,2.2908894E-2,9.903826E-3],"categories":[],"categories_nodes":[],"categories_segments":[],"categories_sizes":[],"default_left":[0,0,0,0,0,0,0,0,0,0,0,0,0,0,0,0,0,0,0,0,0,0,0,0,0,0,0,0,0,0,0,0,0,0,0,0,0,0,0],"id":21,"left_children":[1,3,5,-1,-1,7,9,11,13,15,17,19,-1,-1,-1,21,23,25,27,-1,-1,-1,-1,29,31,33,35,-1,37,-1,-1,-1,-1,-1,-1,-1,-1,-1,-1],"loss_changes":[2.7118018E2,1.0435593E1,1.6269539E2,0E0,0E0,6.3185577E0,4.5407238E1,2.5005493E0,3.9565048E0,1.4703252E1,1.3993332E1,1.6826825E0,0E0,0E0,0E0,1.0994339E-1,1.693348E1,1.4334038E1,5.8097696E-1,0E0,0E0,0E0,0E0,7.9181123E0,2.6722767E1,3.1363548E1,2.393097E0,0E0,4.231298E-1,0E0,0E0,0E0,0E0,0E0,0E0,0E0,0E0,0E0,0E0],"parents":[2147483647,0,0,1,1,2,2,5,5,6,6,7,7,8,8,9,9,10,10,11,11,15,15,16,16,17,17,18,18,23,23,24,24,25,25,26,26,28,28],"right_children":[2,4,6,-1,-1,8,10,12,14,16,18,20,-1,-1,-1,22,24,26,28,-1,-1,-1,-1,30,32,34,36,-1,38,-1,-1,-1,-1,-1,-1,-1,-1,-1,-1],"split_conditions":[-1.6378256E0,-4.343141E-1,-2.1887903E0,-1.7128153E-1,-9.006447E-2,-8.384902E-1,1.2844257E-2,-1.0625108E0,-1.1437017E0,-2.516179E-3,1.2203469E0,-2.4921362E0,-1.8515202E-1,-8.955596E-2,1.1565829E-2,9.086243E-1,6.726208E-1,4.9447578E-1,-4.826112E-1,-9.166235E-2,-5.7971836E-3,7.331718E-2,3.554519E-2,-1.3838916E0,7.83853E-3,-2.516179E-3,-9.3019813E-1,2.5470734E-2,-8.84019E-1,-7.664023E-2,5.8868686E-3,-1.6212144E-1,-1.8568814E-2,9.054177E-3,6.2390238E-2,2.7618159E-2,8.846309E-2,2.2908894E-2,9.903826E-3],"split_indices":[0,5,6,0,0,14,7,14,5,4,4,5,0,0,0,5,5,6,5,0,0,0,0,5,6,4,15,0,15,0,0,0,0,0,0,0,0,0,0],"split_type":[0,0,0,0,0,0,0,0,0,0,0,0,0,0,0,0,0,0,0,0,0,0,0,0,0,0,0,0,0,0,0,0,0,0,0,0,0,0,0],"sum_hessian":[3.91E2,6.1E1,3.3E2,5E0,5.6E1,1.4E1,3.16E2,1E1,4E0,1.26E2,1.9E2,2E0,8E0,3E0,1E0,8E0,1.18E2,1.34E2,5.6E1,1E0,1E0,4E0,4E0,9.6E1,2.2E1,1.11E2,2.3E1,1.3E1,4.3E1,2E0,9.4E1,3E0,1.9E1,5.1E1,6E1,3E0,2E1,8E0,3.5E1],"tree_param":{"num_deleted":"0","num_feature":"16","num_nodes":"39","size_leaf_vector":"1"}},{"base_weights":[-4.958494E-2,-3.0433068E0,1.3198934E-1,-8.799176E-1,-3.338583E0,-8.357452E-2,3.9896587E-1,-1.2420845E-1,2.414446E-2,-3.8829803E-2,-1.7188857E-1,-8.1679516E-2,7.000962E-1,9.408494E-1,-2.1107702E-1,8.949708E-1,2.4671228E-1,1.0713664E0,-1.8896794E-2,-3.2507237E-2,-1.4332336E0,5.2648544E-1,1.1876523E0,3.0634505E-1,1.12129495E-1,6.1902005E-2,3.3528697E-2,3.9922472E-2,-5.8085658E-3,-1.6477641E-1,-4.2411193E-2,1.1510084E-2,8.709088E-2,5.2946057E-2,7.443587E-2,8.161913E-3,2.112587E-2,2.625996E-3,1.4022713E-2],"categories":[],"categories_nodes":[],"categories_segments":[],"categories_sizes":[],"default_left":[0,0,0,0,0,0,0,0,0,0,0,0,0,0,0,0,0,0,0,0,0,0,0,0,0,0,0,0,0,0,0,0,0,0,0,0,0,0,0],"id":22,"left_children":[1,3,5,7,9,-1,11,-1,-1,-1,-1,13,15,17,19,21,23,25,-1,27,29,31,33,35,37,-1,-1,-1,-1,-1,-1,-1,-1,-1,-1,-1,-1,-1,-1],"loss_changes":[2.0913754E2,1.111586E1,1.7544655E2,9.944717E0,2.1585083E0,0E0,4.5938786E1,0E0,0E0,0E0,0E0,1.6473053E1,1.7008034E1,2.814642E0,2.3959837E1,1.404216E1,4.4718218E-1,3.8223267E-2,0E0,6.8363147E0,1.24571E1,2.192419E1,1.3302994E0,6.1265635E-1,1.8594593E-1,0E0,0E0,0E0,0E0,0E0,0E0,0E0,0E0,0E0,0E0,0E0,0E0,0E0,0E0],"parents":[2147483647,0,0,1,1,2,2,3,3,4,4,6,6,11,11,12,12,13,13,14,14,15,15,16,16,17,17,19,19,20,20,21,21,22,22,23,23,24,24],"right_children":[2,4,6,8,10,-1,12,-1,-1,-1,-1,14,16,18,20,22,24,26,-1,28,30,32,34,36,38,-1,-1,-1,-1,-1,-1,-1,-1,-1,-1,-1,-1,-1,-1],"split_conditions":[-1.3806154E0,-1.6699709E0,-1.6378256E0,-2.8624845E0,5.7369655E-1,-8.357452E-2,-6.0719263E-2,-1.2420845E-1,2.414446E-2,-3.8829803E-2,-1.7188857E-1,-1.4007045E0,1.2203469E0,-1.5354127E0,7.3008657E-1,-2.516179E-3,9.149307E-1,1.556321E0,-1.8896794E-2,-5.538691E-1,-7.25371E-2,5.4107383E-2,1.1091887E0,2.848152E-1,-4.5211293E-2,6.1902005E-2,3.3528697E-2,3.9922472E-2,-5.8085658E-3,-1.6477641E-1,-4.2411193E-2,1.1510084E-2,8.709088E-2,5.2946057E-2,7.443587E-2,8.161913E-3,2.112587E-2,2.625996E-3,1.4022713E-2],"split_indices":[6,8,0,5,2,0,7,0,0,0,0,10,4,8,5,4,10,6,0,9,6,5,10,8,5,0,0,0,0,0,0,0,0,0,0,0,0,0,0],"split_type":[0,0,0,0,0,0,0,0,0,0,0,0,0,0,0,0,0,0,0,0,0,0,0,0,0,0,0,0,0,0,0,0,0,0,0,0,0,0,0],"sum_hessian":[3.83E2,2.1E1,3.62E2,3E0,1.8E1,4.6E1,3.16E2,1E0,2E0,1E0,1.7E1,1.22E2,1.94E2,1.3E1,1.09E2,1.35E2,5.9E1,1.2E1,1E0,9.6E1,1.3E1,6.1E1,7.4E1,4E1,1.9E1,7E0,5E0,8E0,8.8E1,2E0,1.1E1,5E1,1.1E1,5.5E1,1.9E1,1.9E1,2.1E1,1.5E1,4E0],"tree_param":{"num_deleted":"0","num_feature":"16","num_nodes":"39","size_leaf_vector":"1"}},{"base_weights":[-6.821595E-2,-1.8381084E0,2.1661535E-1,-1.5765853E-1,-8.06365E-2,-3.8726136E-1,6.5250295E-1,-1.507016E0,-6.6735625E-2,2.0410733E-1,7.9761815E-1,-8.172802E-1,-2.9427068E0,8.894052E-1,-2.2215927E-1,1.9045146E-2,1.6136286E-1,8.539487E-1,-4.751275E-1,-1.3466305E-1,-2.805863E-1,2.2922372E-2,-1.6857758E-1,3.173681E-2,1.1261603E0,-5.4563427E-1,1.4045474E-1,1.1436137E-1,1.9001648E-2,1.3524315E0,7.2735494E-1,-8.5366994E-1,4.4903185E-2,2.0989433E-2,-7.705995E-2,6.4510375E-2,2.3868067E-2,2.7261082E-2,-3.4988623E-2,1.0264418E-2,-1.6839487E-2,-2.5761821E-3,9.007248E-3,2.0970078E-2,7.452308E-2,3.757989E-2,-7.2702887E-3,-4.7769938E-2,-8.625651E-3],"categories":[],"categories_nodes":[],"categories_segments":[],"categories_sizes":[],"default_left":[0,0,0,0,0,0,0,0,0,0,0,0,0,0,0,0,0,0,0,0,0,0,0,0,0,0,0,0,0,0,0,0,0,0,0,0,0,0,0,0,0,0,0,0,0,0,0,0,0],"id":23,"left_children":[1,3,5,-1,-1,7,9,11,13,15,17,19,21,23,25,-1,27,29,31,-1,33,-1,-1,-1,35,37,39,41,-1,43,45,47,-1,-1,-1,-1,-1,-1,-1,-1,-1,-1,-1,-1,-1,-1,-1,-1,-1],"loss_changes":[2.0002998E2,1.1216064E1,9.027474E1,0E0,0E0,5.1582497E1,1.2785942E1,2.9282898E1,1.699017E1,3.1638837E-1,1.11599045E1,2.240134E1,1.6131355E1,2.4989128E-1,1.1571699E1,0E0,3.882072E-1,8.103394E0,4.405328E0,0E0,1.7422106E1,0E0,0E0,0E0,1.291399E-1,9.124944E0,1.5233891E0,4.021323E-1,0E0,2.9809113E0,2.5848007E0,2.5094128E-1,0E0,0E0,0E0,0E0,0E0,0E0,0E0,0E0,0E0,0E0,0E0,0E0,0E0,0E0,0E0,0E0,0E0],"parents":[2147483647,0,0,1,1,2,2,5,5,6,6,7,7,8,8,9,9,10,10,11,11,12,12,13,13,14,14,16,16,17,17,18,18,20,20,24,24,25,25,26,26,27,27,29,29,30,30,31,31],"right_children":[2,4,6,-1,-1,8,10,12,14,16,18,20,22,24,26,-1,28,30,32,-1,34,-1,-1,-1,36,38,40,42,-1,44,46,48,-1,-1,-1,-1,-1,-1,-1,-1,-1,-1,-1,-1,-1,-1,-1,-1,-1],"split_conditions":[-1.6378256E0,-4.343141E-1,-1.1170259E-1,-1.5765853E-1,-8.06365E-2,-7.342248E-1,-6.1738265E-1,-1.2921408E0,-8.8633275E-1,-4.5330536E-1,1.7190124E0,-1.7391475E0,-2.0434208E0,-3.734682E-1,-9.9726185E-2,1.9045146E-2,1.2842509E0,-2.5000405E-1,-2.8409627E-1,-1.3466305E-1,1.1602937E0,2.2922372E-2,-1.6857758E-1,3.173681E-2,9.086243E-1,-5.538691E-1,5.562303E-1,-1.1725057E0,1.9001648E-2,-1.1726768E0,1.7076272E0,9.167843E-1,4.4903185E-2,2.0989433E-2,-7.705995E-2,6.4510375E-2,2.3868067E-2,2.7261082E-2,-3.4988623E-2,1.0264418E-2,-1.6839487E-2,-2.5761821E-3,9.007248E-3,2.0970078E-2,7.452308E-2,3.757989E-2,-7.2702887E-3,-4.7769938E-2,-8.625651E-3],"split_indices":[0,5,7,0,0,15,3,11,7,5,10,5,7,0,9,0,8,9,5,0,5,0,0,0,5,9,9,12,0,13,9,8,0,0,0,0,0,0,0,0,0,0,0,0,0,0,0,0,0],"split_type":[0,0,0,0,0,0,0,0,0,0,0,0,0,0,0,0,0,0,0,0,0,0,0,0,0,0,0,0,0,0,0,0,0,0,0,0,0,0,0,0,0,0,0,0,0,0,0,0,0],"sum_hessian":[3.95E2,5.4E1,3.41E2,6E0,4.8E1,1.43E2,1.98E2,3.1E1,1.12E2,4.9E1,1.49E2,2.2E1,9E0,1.5E1,9.7E1,8E0,4.1E1,1.43E2,6E0,4E0,1.8E1,1E0,8E0,9E0,6E0,5.1E1,4.6E1,3.5E1,6E0,2.7E1,1.16E2,5E0,1E0,1.2E1,6E0,4E0,2E0,6E0,4.5E1,4.1E1,5E0,1E1,2.5E1,4E0,2.3E1,1.13E2,3E0,4E0,1E0],"tree_param":{"num_deleted":"0","num_feature":"16","num_nodes":"49","size_leaf_vector":"1"}},{"base_weights":[-2.8686993E-2,-1.6679348E0,2.3272552E-1,-1.0931017E-1,-7.3622994E-2,-2.8304229E0,3.5160902E-1,-1.0818073E0,-1.5250035E-1,-9.474261E-2,6.415437E-1,-8.1707E-2,5.714536E-4,5.8107436E-2,-1.8520454E-1,8.112708E-1,2.5418913E-1,-1.0425045E0,2.0344017E-2,5.0674325E-1,1.0838269E0,1.4835747E-1,3.2454768E-1,4.910964E-3,-1.09570675E-1,7.4444115E-3,-1.7809154E-2,8.648747E-3,8.372632E-2,6.3204855E-2,3.994063E-2,2.0682255E-3,1.6305452E-2,-1.7563979E-3,1.7305212E-2],"categories":[],"categories_nodes":[],"categories_segments":[],"categories_sizes":[],"default_left":[0,0,0,0,0,0,0,0,0,0,0,0,0,0,0,0,0,0,0,0,0,0,0,0,0,0,0,0,0,0,0,0,0,0,0],"id":24,"left_children":[1,3,5,-1,-1,7,9,11,-1,13,15,-1,-1,-1,17,19,21,23,25,27,29,31,33,-1,-1,-1,-1,-1,-1,-1,-1,-1,-1,-1,-1],"loss_changes":[1.713676E2,2.35289E0,1.2662963E2,0E0,0E0,1.6920624E0,4.3155247E1,1.830167E0,0E0,1.52237425E1,1.3074188E1,0E0,0E0,0E0,2.187209E1,1.10709E1,4.2095947E-1,3.166934E1,4.94147E0,2.6214638E1,2.740921E0,5.000011E-1,2.9903245E-1,0E0,0E0,0E0,0E0,0E0,0E0,0E0,0E0,0E0,0E0,0E0,0E0],"parents":[2147483647,0,0,1,1,2,2,5,5,6,6,7,7,9,9,10,10,14,14,15,15,16,16,17,17,18,18,19,19,20,20,21,21,22,22],"right_children":[2,4,6,-1,-1,8,10,12,-1,14,16,-1,-1,-1,18,20,22,24,26,28,30,32,34,-1,-1,-1,-1,-1,-1,-1,-1,-1,-1,-1,-1],"split_conditions":[-1.6378256E0,-1.4212431E-2,-2.1887903E0,-1.0931017E-1,-7.3622994E-2,-1.0625108E0,-5.162509E-3,-2.7691147E0,-1.5250035E-1,-2.516179E-3,1.2203469E0,-8.1707E-2,5.714536E-4,5.8107436E-2,1.7394419E-1,-2.516179E-3,-1.1488321E0,-1.1433294E0,-3.4726849E-3,4.9447578E-1,7.961387E-1,1.1780418E0,-1.6237214E0,4.910964E-3,-1.09570675E-1,7.4444115E-3,-1.7809154E-2,8.648747E-3,8.372632E-2,6.3204855E-2,3.994063E-2,2.0682255E-3,1.6305452E-2,-1.7563979E-3,1.7305212E-2],"split_indices":[0,6,6,0,0,14,7,6,0,4,4,0,0,0,11,4,13,13,6,6,7,9,8,0,0,0,0,0,0,0,0,0,0,0,0],"split_type":[0,0,0,0,0,0,0,0,0,0,0,0,0,0,0,0,0,0,0,0,0,0,0,0,0,0,0,0,0,0,0,0,0,0,0],"sum_hessian":[3.98E2,5.4E1,3.44E2,1.2E1,4.2E1,1.2E1,3.32E2,2E0,1E1,1.31E2,2.01E2,1E0,1E0,8E0,1.23E2,1.39E2,6.2E1,2.3E1,1E2,6.7E1,7.2E1,2.6E1,3.6E1,1.2E1,1.1E1,7.5E1,2.5E1,5.3E1,1.4E1,4.2E1,3E1,1.7E1,9E0,2E0,3.4E1],"tree_param":{"num_deleted":"0","num_feature":"16","num_nodes":"35","size_leaf_vector":"1"}},{"base_weights":[-5.4867234E-2,-1.6398948E0,2.0792764E-1,-1.2002956E-1,-7.029012E-2,-2.581089E0,3.4293172E-1,-1.5075646E-1,-1.0231746E0,4.05273E-1,-1.4961408E0,-7.0928834E-2,1.3960838E-2,6.394333E-1,-2.7262105E-2,-2.0717438E-1,-2.5357504E0,7.624003E-1,2.4834993E-1,-1.14284985E-1,3.402235E-2,2.4830801E-2,-3.416118E-2,-3.5173547E-2,-1.380756E-1,3.2391936E-2,6.5734886E-2,1.02781E-2,3.498589E-2,1.0665802E-2,-2.0763753E-2],"categories":[],"categories_nodes":[],"categories_segments":[],"categories_sizes":[],"default_left":[0,0,0,0,0,0,0,0,0,0,0,0,0,0,0,0,0,0,0,0,0,0,0,0,0,0,0,0,0,0,0],"id":25,"left_children":[1,3,5,-1,-1,7,9,-1,11,13,15,-1,-1,17,19,21,23,25,27,-1,29,-1,-1,-1,-1,-1,-1,-1,-1,-1,-1],"loss_changes":[1.6695584E2,6.775421E0,1.3041095E2,0E0,0E0,7.7341537E0,3.832624E1,0E0,2.9709315E0,3.232657E1,1.4214897E1,0E0,0E0,9.765358E0,1.5717768E1,2.349533E0,5.3930664E-1,9.082008E0,8.411329E-1,0E0,9.030322E0,0E0,0E0,0E0,0E0,0E0,0E0,0E0,0E0,0E0,0E0],"parents":[2147483647,0,0,1,1,2,2,5,5,6,6,8,8,9,9,10,10,13,13,14,14,15,15,16,16,17,17,18,18,20,20],"right_children":[2,4,6,-1,-1,8,10,-1,12,14,16,-1,-1,18,20,22,24,26,28,-1,30,-1,-1,-1,-1,-1,-1,-1,-1,-1,-1],"split_conditions":[-1.6378256E0,7.1059114E-1,-2.1887903E0,-1.2002956E-1,-7.029012E-2,-9.9794954E-1,1.0557067E0,-1.5075646E-1,-1.1437017E0,5.5022824E-1,-1.9796308E0,-7.0928834E-2,1.3960838E-2,1.1004281E0,-7.3408514E-1,1.1602937E0,1.1004281E0,1.2042922E0,1.0194057E0,-1.14284985E-1,-3.511562E-1,2.4830801E-2,-3.416118E-2,-3.5173547E-2,-1.380756E-1,3.2391936E-2,6.5734886E-2,1.02781E-2,3.498589E-2,1.0665802E-2,-2.0763753E-2],"split_indices":[0,5,6,0,0,13,5,0,5,15,7,0,0,2,8,5,2,7,6,0,6,0,0,0,0,0,0,0,0,0,0],"split_type":[0,0,0,0,0,0,0,0,0,0,0,0,0,0,0,0,0,0,0,0,0,0,0,0,0,0,0,0,0,0,0],"sum_hessian":[3.99E2,5.6E1,3.43E2,1.1E1,4.5E1,1.5E1,3.28E2,1.1E1,4E0,3.18E2,1E1,3E0,1E0,2.06E2,1.12E2,5E0,5E0,1.56E2,5E1,2E0,1.1E2,2E0,3E0,1E0,4E0,1.31E2,2.5E1,4.7E1,3E0,7.9E1,3.1E1],"tree_param":{"num_deleted":"0","num_feature":"16","num_nodes":"31","size_leaf_vector":"1"}},{"base_weights":[-4.2368602E-2,2.1920446E-1,-1.6015248E0,-2.2426462E0,3.1170604E-1,-1.4507513E-1,-7.067486E-2,-2.4546754E0,2.24185E-3,-1.4423715E-1,5.939171E-1,-1.340102E-1,-4.799323E-2,-2.1249427E-2,-1.894156E0,7.807898E-1,1.6754659E-1,7.657527E-1,-1.4695726E-1,-4.2783976E-2,-1.173053E-1,5.033041E-1,1.0133691E0,1.262846E-1,1.8267712E-2,-2.3961818E-2,4.403505E-2,-3.454873E-3,-9.9915914E-2,1.0246798E-2,7.771331E-2,3.833018E-2,5.8862656E-2,5.2715577E-3,2.1587355E-2],"categories":[],"categories_nodes":[],"categories_segments":[],"categories_sizes":[],"default_left":[0,0,0,0,0,0,0,0,0,0,0,0,0,0,0,0,0,0,0,0,0,0,0,0,0,0,0,0,0,0,0,0,0,0,0],"id":26,"left_children":[1,3,5,7,9,-1,-1,11,-1,13,15,-1,-1,17,19,21,23,25,27,-1,-1,29,31,33,-1,-1,-1,-1,-1,-1,-1,-1,-1,-1,-1],"loss_changes":[1.5614336E2,7.539288E1,9.342514E0,5.9302177E0,4.0874752E1,0E0,0E0,1.1357193E0,0E0,2.6216412E1,1.5485878E1,0E0,0E0,1.1489751E1,1.7472E0,8.267052E0,4.5173943E-1,2.7118149E0,1.4276583E1,0E0,0E0,1.9750189E1,2.0497055E0,2.857175E-1,0E0,0E0,0E0,0E0,0E0,0E0,0E0,0E0,0E0,0E0,0E0],"parents":[2147483647,0,0,1,1,2,2,3,3,4,4,7,7,9,9,10,10,13,13,14,14,15,15,16,16,17,17,18,18,21,21,22,22,23,23],"right_children":[2,4,6,8,10,-1,-1,12,-1,14,16,-1,-1,18,20,22,24,26,28,-1,-1,30,32,34,-1,-1,-1,-1,-1,-1,-1,-1,-1,-1,-1],"split_conditions":[2.3331773E0,-1.3559625E0,-8.37538E-1,-6.954494E-1,-9.519639E-2,-1.4507513E-1,-7.067486E-2,1.1127505E0,2.24185E-3,1.2776203E0,1.2203469E0,-1.340102E-1,-4.799323E-2,-1.4007045E0,-1.9796308E0,-2.516179E-3,1.9155701E0,-1.1437017E0,1.1004281E0,-4.2783976E-2,-1.173053E-1,5.4107383E-2,3.398134E-1,1.4146146E0,1.8267712E-2,-2.3961818E-2,4.403505E-2,-3.454873E-3,-9.9915914E-2,1.0246798E-2,7.771331E-2,3.833018E-2,5.8862656E-2,5.2715577E-3,2.1587355E-2],"split_indices":[1,5,5,7,7,0,0,13,0,5,4,0,0,10,7,4,14,5,2,0,0,5,10,9,0,0,0,0,0,0,0,0,0,0,0],"split_type":[0,0,0,0,0,0,0,0,0,0,0,0,0,0,0,0,0,0,0,0,0,0,0,0,0,0,0,0,0,0,0,0,0,0,0],"sum_hessian":[3.81E2,3.27E2,5.4E1,1.1E1,3.16E2,5E0,4.9E1,1E1,1E0,1.21E2,1.95E2,8E0,2E0,1.14E2,7E0,1.35E2,6E1,1.5E1,9.9E1,3E0,4E0,6.3E1,7.2E1,5.1E1,9E0,1E0,1.4E1,9.6E1,3E0,5E1,1.3E1,3.1E1,4.1E1,4.9E1,2E0],"tree_param":{"num_deleted":"0","num_feature":"16","num_nodes":"35","size_leaf_vector":"1"}},{"base_weights":[1.6657196E-2,-1.4460243E0,2.6038873E-1,-1.00030474E-1,-6.1835058E-2,-2.1631906E0,3.3238694E-1,-1.2740764E-1,-4.1556135E-1,5.1194394E-1,-3.133917E-2,2.1857978E-3,-3.33529E-2,5.853901E-1,-9.5678115E-1,-1.9075212E0,3.8439233E-2,7.471444E-1,1.7008197E-1,3.316201E-2,-1.6471941E0,-1.10360324E-1,-2.5211645E-2,-1.4896121E0,1.11533634E-1,3.9533164E-2,-1.3674307E-2,-4.90297E-3,1.2237325E-2,-1.6475368E-2,-1.0157527E-1,-1.1039789E-1,-1.3736456E-2,2.71139E-2,1.2598776E-4],"categories":[],"categories_nodes":[],"categories_segments":[],"categories_sizes":[],"default_left":[0,0,0,0,0,0,0,0,0,0,0,0,0,0,0,0,0,0,0,0,0,0,0,0,0,0,0,0,0,0,0,0,0,0,0],"id":27,"left_children":[1,3,5,-1,-1,7,9,-1,11,13,15,-1,-1,17,19,21,23,25,27,-1,29,-1,-1,31,33,-1,-1,-1,-1,-1,-1,-1,-1,-1,-1],"loss_changes":[1.4226416E2,4.1428375E0,6.0395752E1,0E0,0E0,5.6687965E0,2.176413E1,0E0,3.7568116E-1,2.4615593E1,1.4605109E1,0E0,0E0,1.4181816E1,1.3395808E1,5.6923294E-1,1.2228877E1,7.011978E0,1.2452594E0,0E0,3.3818188E0,0E0,0E0,3.75694E0,4.8821735E0,0E0,0E0,0E0,0E0,0E0,0E0,0E0,0E0,0E0,0E0],"parents":[2147483647,0,0,1,1,2,2,5,5,6,6,8,8,9,9,10,10,13,13,14,14,15,15,16,16,17,17,18,18,20,20,23,23,24,24],"right_children":[2,4,6,-1,-1,8,10,-1,12,14,16,-1,-1,18,20,22,24,26,28,-1,30,-1,-1,32,34,-1,-1,-1,-1,-1,-1,-1,-1,-1,-1],"split_conditions":[-1.6378256E0,9.3532795E-1,-1.3559625E0,-1.00030474E-1,-6.1835058E-2,-1.09102465E-1,5.5022824E-1,-1.2740764E-1,-1.3783058E0,1.0557067E0,-7.320624E-1,2.1857978E-3,-3.33529E-2,1.1004281E0,-1.573048E0,2.108581E-1,1.7394419E-1,1.7190124E0,-1.1838915E0,3.316201E-2,-1.0625108E0,-1.10360324E-1,-2.5211645E-2,-5.4309064E-1,-5.5001533E-1,3.9533164E-2,-1.3674307E-2,-4.90297E-3,1.2237325E-2,-1.6475368E-2,-1.0157527E-1,-1.1039789E-1,-1.3736456E-2,2.71139E-2,1.2598776E-4],"split_indices":[0,5,5,0,0,9,15,0,5,5,8,0,0,2,8,5,11,10,12,0,14,0,0,9,8,0,0,0,0,0,0,0,0,0,0],"split_type":[0,0,0,0,0,0,0,0,0,0,0,0,0,0,0,0,0,0,0,0,0,0,0,0,0,0,0,0,0,0,0,0,0,0,0],"sum_hessian":[3.97E2,5.6E1,3.41E2,1.3E1,4.3E1,9E0,3.32E2,7E0,2E0,2.22E2,1.1E2,1E0,1E0,2.12E2,1E1,3E0,1.07E2,1.52E2,6E1,3E0,7E0,2E0,1E0,4E0,1.03E2,1.46E2,6E0,1.3E1,4.7E1,2E0,5E0,2E0,2E0,2E1,8.3E1],"tree_param":{"num_deleted":"0","num_feature":"16","num_nodes":"35","size_leaf_vector":"1"}},{"base_weights":[9.7885085E-3,2.2989945E-1,-1.3232868E0,-2.0505657E0,3.2328406E-1,-3.5592842E-1,-1.4367914E0,-2.2285502E0,2.1311522E-3,-4.4239652E-1,4.9780494E-1,1.6535163E-2,-5.2548426E-1,-5.7455864E-2,-1.2778501E-1,-2.4119756E0,-4.3714095E-2,-1.6302497E0,-7.125865E-2,3.435965E-2,5.986776E-1,-6.9194585E-1,7.6705934E-3,-3.6077153E-2,-1.259815E-1,-9.177827E-2,-2.6557127E-1,-1.8460383E0,9.5494315E-2,-7.306088E-1,1.8649435E-1,7.466688E-1,2.3916371E-1,-9.6247075E-3,-3.8434263E-2,-1.631949E-2,-3.5983564E-3,-1.06681645E-1,-2.4581362E-2,2.710715E-2,-1.2388921E-2,-7.804348E-2,-1.9450938E-2,1.5568906E-2,3.508158E-3,-2.5720453E-2,3.925024E-2,9.835301E-3,3.4616597E-2],"categories":[],"categories_nodes":[],"categories_segments":[],"categories_sizes":[],"default_left":[0,0,0,0,0,0,0,0,0,0,0,0,0,0,0,0,0,0,0,0,0,0,0,0,0,0,0,0,0,0,0,0,0,0,0,0,0,0,0,0,0,0,0,0,0,0,0,0,0],"id":28,"left_children":[1,3,5,7,9,11,13,15,-1,17,19,-1,21,-1,-1,23,-1,25,27,29,31,33,-1,-1,-1,-1,35,37,39,41,43,45,47,-1,-1,-1,-1,-1,-1,-1,-1,-1,-1,-1,-1,-1,-1,-1,-1],"loss_changes":[1.1180552E2,7.030094E1,5.4177933E0,4.938198E0,4.2312813E1,9.887361E-1,1.2513489E1,8.72139E-1,0E0,2.5894415E1,1.1993916E1,0E0,7.8421354E-1,0E0,0E0,1.8081665E-3,0E0,3.4351807E0,1.3789976E1,5.6060324E0,1.1047653E1,4.3670654E-2,0E0,0E0,0E0,0E0,1.18348E-2,5.0913334E-1,6.727191E0,1.661663E0,5.592679E-1,7.60717E0,1.0759642E0,0E0,0E0,0E0,0E0,0E0,0E0,0E0,0E0,0E0,0E0,0E0,0E0,0E0,0E0,0E0,0E0],"parents":[2147483647,0,0,1,1,2,2,3,3,4,4,5,5,6,6,7,7,9,9,10,10,12,12,15,15,17,17,18,18,19,19,20,20,21,21,26,26,27,27,28,28,29,29,30,30,31,31,32,32],"right_children":[2,4,6,8,10,12,14,16,-1,18,20,-1,22,-1,-1,24,-1,26,28,30,32,34,-1,-1,-1,-1,36,38,40,42,44,46,48,-1,-1,-1,-1,-1,-1,-1,-1,-1,-1,-1,-1,-1,-1,-1,-1],"split_conditions":[1.0557067E0,-1.3559625E0,-1.9733722E0,-1.2636144E0,4.7984302E-2,1.1602937E0,-1.6378256E0,1.1127505E0,2.1311522E-3,-2.142147E-1,-7.751352E-1,1.6535163E-2,-1.9796308E0,-5.7455864E-2,-1.2778501E-1,-1.6237214E0,-4.3714095E-2,8.805084E-2,-7.320624E-1,7.654449E-1,1.2203469E0,1.3330988E0,7.6705934E-3,-3.6077153E-2,-1.259815E-1,-9.177827E-2,6.7819613E-1,2.108581E-1,-1.4212431E-2,-6.1738265E-1,-3.7145054E-1,-1.0479296E0,1.0194057E0,-9.6247075E-3,-3.8434263E-2,-1.631949E-2,-3.5983564E-3,-1.06681645E-1,-2.4581362E-2,2.710715E-2,-1.2388921E-2,-7.804348E-2,-1.9450938E-2,1.5568906E-2,3.508158E-3,-2.5720453E-2,3.925024E-2,9.835301E-3,3.4616597E-2],"split_indices":[5,5,7,6,0,5,0,13,0,10,6,0,7,0,0,8,0,6,8,14,4,5,0,0,0,0,5,5,6,3,7,14,6,0,0,0,0,0,0,0,0,0,0,0,0,0,0,0,0],"split_type":[0,0,0,0,0,0,0,0,0,0,0,0,0,0,0,0,0,0,0,0,0,0,0,0,0,0,0,0,0,0,0,0,0,0,0,0,0,0,0,0,0,0,0,0,0,0,0,0,0],"sum_hessian":[3.79E2,3.26E2,5.3E1,1.2E1,3.14E2,6E0,4.7E1,1.1E1,1E0,5.8E1,2.56E2,1E0,5E0,3.9E1,8E0,9E0,2E0,1.3E1,4.5E1,4.6E1,2.1E2,4E0,1E0,1E0,8E0,1.1E1,2E0,3E0,4.2E1,7E0,3.9E1,1.48E2,6.2E1,1E0,3E0,1E0,1E0,2E0,1E0,1.8E1,2.4E1,1E0,6E0,1.8E1,2.1E1,4E0,1.44E2,5.8E1,4E0],"tree_param":{"num_deleted":"0","num_feature":"16","num_nodes":"49","size_leaf_vector":"1"}},{"base_weights":[4.212862E-2,2.3845571E-1,-1.3698502E0,-2.1110213E0,3.5164717E-1,-1.16178654E-1,-6.024578E-2,-2.3762276E0,-7.213453E-1,9.454546E-3,5.740251E-1,-1.3437283E-1,-1.3407698E0,-5.6095608E-2,1.2008882E-2,8.2690045E-2,-1.5300666E0,7.150766E-1,1.9855188E-1,7.478833E-3,-8.753753E-2,7.517595E-1,-2.1463338E-2,-2.8924624E-2,-9.306153E-2,5.9150094E-1,1.1690667E0,1.3022928E-1,3.24747E-1,4.290272E-2,-1.5150626E-3,6.404567E-3,-4.540514E-2,8.307538E-3,4.6134055E-2,9.186435E-3,6.3587196E-2,4.0914775E-3,1.664405E-2,1.843154E-2,6.407309E-3],"categories":[],"categories_nodes":[],"categories_segments":[],"categories_sizes":[],"default_left":[0,0,0,0,0,0,0,0,0,0,0,0,0,0,0,0,0,0,0,0,0,0,0,0,0,0,0,0,0,0,0,0,0,0,0,0,0,0,0,0,0],"id":29,"left_children":[1,3,5,7,9,-1,-1,11,13,15,17,-1,19,-1,-1,21,23,25,27,-1,-1,29,31,-1,-1,33,35,37,39,-1,-1,-1,-1,-1,-1,-1,-1,-1,-1,-1,-1],"loss_changes":[1.08992836E2,9.249187E1,4.7507935E0,4.1827393E0,2.5106277E1,0E0,0E0,5.86174E-1,1.810075E0,1.4896456E1,1.0450241E1,0E0,3.3169384E0,0E0,0E0,8.796553E0,8.140545E-1,7.443306E0,4.4053912E-1,0E0,0E0,1.4391937E0,1.4702436E1,0E0,0E0,1.6187328E1,2.8014946E0,3.4547544E-1,1.1668563E-1,0E0,0E0,0E0,0E0,0E0,0E0,0E0,0E0,0E0,0E0,0E0,0E0],"parents":[2147483647,0,0,1,1,2,2,3,3,4,4,7,7,8,8,9,9,10,10,12,12,15,15,16,16,17,17,18,18,21,21,22,22,25,25,26,26,27,27,28,28],"right_children":[2,4,6,8,10,-1,-1,12,14,16,18,-1,20,-1,-1,22,24,26,28,-1,-1,30,32,-1,-1,34,36,38,40,-1,-1,-1,-1,-1,-1,-1,-1,-1,-1,-1,-1],"split_conditions":[2.3331773E0,-2.1887903E0,-4.343141E-1,-9.9794954E-1,-5.162509E-3,-1.16178654E-1,-6.024578E-2,1.1333766E0,-1.1437017E0,1.3330988E0,1.2203469E0,-1.3437283E-1,1.424638E0,-5.6095608E-2,1.2008882E-2,-1.5669672E0,-1.9796308E0,4.9447578E-1,1.0338794E0,7.478833E-3,-8.753753E-2,1.1602937E0,6.423928E-1,-2.8924624E-2,-9.306153E-2,-2.516179E-3,-1.1726768E0,1.4208461E0,1.8390982E0,4.290272E-2,-1.5150626E-3,6.404567E-3,-4.540514E-2,8.307538E-3,4.6134055E-2,9.186435E-3,6.3587196E-2,4.0914775E-3,1.664405E-2,1.843154E-2,6.407309E-3],"split_indices":[1,6,5,13,7,0,0,5,5,5,4,0,5,0,0,8,7,6,13,0,0,5,5,0,0,4,13,8,13,0,0,0,0,0,0,0,0,0,0,0,0],"split_type":[0,0,0,0,0,0,0,0,0,0,0,0,0,0,0,0,0,0,0,0,0,0,0,0,0,0,0,0,0,0,0,0,0,0,0,0,0,0,0,0,0],"sum_hessian":[3.91E2,3.44E2,4.7E1,1.5E1,3.29E2,5E0,4.2E1,1.2E1,3E0,1.3E2,1.99E2,8E0,4E0,2E0,1E0,1.25E2,5E0,1.44E2,5.5E1,1E0,3E0,1.6E1,1.09E2,2E0,3E0,1.15E2,2.9E1,3.7E1,1.8E1,1.4E1,2E0,9.4E1,1.5E1,5.1E1,6.4E1,3E0,2.6E1,3.1E1,6E0,1.4E1,4E0],"tree_param":{"num_deleted":"0","num_feature":"16","num_nodes":"41","size_leaf_vector":"1"}},{"base_weights":[-2.8888289E-2,1.6665284E-1,-1.2864475E0,-1.855854E0,2.5891873E-1,-1.2294531E-1,-1.1130892E0,-2.1546998E0,-8.2722247E-1,-7.7834986E-2,4.3233308E-1,-6.725781E-2,-4.889844E-2,-8.3969855E-1,-1.2714314E-1,-5.7555735E-2,1.1708665E-2,7.757331E-1,-2.0768893E-1,5.454068E-1,1.8353248E-1,-6.084115E-2,7.2918655E-3,8.888362E-1,-2.0192742E-2,-1.1732104E0,-1.9062042E-2,2.6922825E-1,8.0350715E-1,3.4825325E-1,1.5302014E-1,5.1707722E-2,2.1021625E-2,-9.839008E-3,-1.0625215E-1,2.6029317E-2,-4.586495E-3,-6.498337E-4,6.806822E-2,3.025634E-2,4.929816E-2,1.0876656E-3,1.91057E-2,4.641403E-3,1.4990511E-2],"categories":[],"categories_nodes":[],"categories_segments":[],"categories_sizes":[],"default_left":[0,0,0,0,0,0,0,0,0,0,0,0,0,0,0,0,0,0,0,0,0,0,0,0,0,0,0,0,0,0,0,0,0,0,0,0,0,0,0,0,0,0,0,0,0],"id":30,"left_children":[1,3,5,7,9,-1,11,13,15,17,19,-1,-1,21,-1,-1,-1,23,25,27,29,-1,-1,31,-1,33,35,37,39,41,43,-1,-1,-1,-1,-1,-1,-1,-1,-1,-1,-1,-1,-1,-1],"loss_changes":[9.685487E1,6.411399E1,8.035561E0,2.828621E0,1.9129772E1,0E0,1.8961334E-1,3.4795456E0,1.9884498E0,1.25751E1,5.976589E0,0E0,0E0,1.6641366E0,0E0,0E0,0E0,2.3601856E0,1.782572E1,1.0333378E1,2.9350495E-1,0E0,0E0,5.181551E-1,0E0,1.4452208E1,3.3026056E0,2.251834E1,2.1542358E0,1.0224295E-1,5.023054E-1,0E0,0E0,0E0,0E0,0E0,0E0,0E0,0E0,0E0,0E0,0E0,0E0,0E0,0E0],"parents":[2147483647,0,0,1,1,2,2,3,3,4,4,6,6,7,7,8,8,9,9,10,10,13,13,17,17,18,18,19,19,20,20,23,23,25,25,26,26,27,27,28,28,29,29,30,30],"right_children":[2,4,6,8,10,-1,12,14,16,18,20,-1,-1,22,-1,-1,-1,24,26,28,30,-1,-1,32,-1,34,36,38,40,42,44,-1,-1,-1,-1,-1,-1,-1,-1,-1,-1,-1,-1,-1,-1],"split_conditions":[2.3331773E0,-2.1887903E0,-4.343141E-1,-9.9794954E-1,-1.5245406E-1,-1.2294531E-1,1.424638E0,-1.0625108E0,-1.1437017E0,-1.4007045E0,1.2203469E0,-6.725781E-2,-4.889844E-2,-2.7429192E0,-1.2714314E-1,-5.7555735E-2,1.1708665E-2,-1.490985E0,4.6057388E-1,-2.516179E-3,-8.84019E-1,-6.084115E-2,7.2918655E-3,1.5987146E0,-2.0192742E-2,-8.756963E-1,-5.0290656E-1,5.4107383E-2,7.206727E-1,-1.4136225E0,1.0338794E0,5.1707722E-2,2.1021625E-2,-9.839008E-3,-1.0625215E-1,2.6029317E-2,-4.586495E-3,-6.498337E-4,6.806822E-2,3.025634E-2,4.929816E-2,1.0876656E-3,1.91057E-2,4.641403E-3,1.4990511E-2],"split_indices":[1,6,5,13,7,0,5,14,5,10,4,0,0,6,0,0,0,9,12,4,15,0,0,6,0,15,9,5,10,10,13,0,0,0,0,0,0,0,0,0,0,0,0,0,0],"split_type":[0,0,0,0,0,0,0,0,0,0,0,0,0,0,0,0,0,0,0,0,0,0,0,0,0,0,0,0,0,0,0,0,0,0,0,0,0,0,0,0,0,0,0,0,0],"sum_hessian":[3.92E2,3.4E2,5.2E1,1.4E1,3.26E2,5E0,4.7E1,1E1,4E0,1.11E2,2.15E2,1.4E1,3.3E1,3E0,7E0,3E0,1E0,1.4E1,9.7E1,1.47E2,6.8E1,2E0,1E0,1.3E1,1E0,1.5E1,8.2E1,7.2E1,7.5E1,9E0,5.9E1,9E0,4E0,8E0,7E0,9E0,7.3E1,5.8E1,1.4E1,3.8E1,3.7E1,1E0,8E0,4.3E1,1.6E1],"tree_param":{"num_deleted":"0","num_feature":"16","num_nodes":"45","size_leaf_vector":"1"}},{"base_weights":[-4.764804E-2,-1.1884392E0,1.4709765E-1,-8.0822565E-2,-1.0015408E0,-1.8487371E0,2.1944696E-1,-7.846145E-1,-5.5659987E-2,1.1415958E-2,-1.0291584E-1,-1.3605082E-1,4.4077095E-1,-4.1729808E-2,-2.005148E-2,-3.966098E-2,-1.1489199E0,3.2574347E-1,6.5943676E-1,5.346439E-1,-1.5646136E-1,-4.7412634E-2,-2.0589404E0,4.676675E-1,-9.342905E-1,5.261273E-1,1.0362582E0,-2.4873829E-2,3.7302308E-2,-1.0318621E-1,-4.7614793E-3,2.8958067E-2,-2.5274498E-2,-2.8021133E-2,-1.12327985E-1,3.1389885E-2,7.385501E-3,-9.822822E-3,-4.879675E-2,3.1447258E-2,1.0557985E-3,5.727164E-2,1.9754125E-2],"categories":[],"categories_nodes":[],"categories_segments":[],"categories_sizes":[],"default_left":[0,0,0,0,0,0,0,0,0,0,0,0,0,0,0,0,0,0,0,0,0,0,0,0,0,0,0,0,0,0,0,0,0,0,0,0,0,0,0,0,0,0,0],"id":31,"left_children":[1,3,5,-1,7,9,11,13,-1,-1,-1,15,17,-1,-1,19,21,23,25,27,29,31,33,35,37,39,41,-1,-1,-1,-1,-1,-1,-1,-1,-1,-1,-1,-1,-1,-1,-1,-1],"loss_changes":[8.837399E1,3.020752E0,4.9500767E1,0E0,1.6810608E-1,5.693653E0,2.594575E1,1.0402679E-2,0E0,0E0,0E0,1.2353479E1,4.891163E0,0E0,0E0,7.931897E0,1.0928716E1,2.4578869E1,2.9209366E0,4.734992E0,1.1248411E1,2.014876E0,4.2788124E-1,6.157917E0,2.3844528E-1,2.7387018E0,7.374611E-1,0E0,0E0,0E0,0E0,0E0,0E0,0E0,0E0,0E0,0E0,0E0,0E0,0E0,0E0,0E0,0E0],"parents":[2147483647,0,0,1,1,2,2,4,4,5,5,6,6,7,7,11,11,12,12,15,15,16,16,17,17,18,18,19,19,20,20,21,21,22,22,23,23,24,24,25,25,26,26],"right_children":[2,4,6,-1,8,10,12,14,-1,-1,-1,16,18,-1,-1,20,22,24,26,28,30,32,34,36,38,40,42,-1,-1,-1,-1,-1,-1,-1,-1,-1,-1,-1,-1,-1,-1,-1,-1],"split_conditions":[-1.6378256E0,1.083446E0,-2.4867868E0,-8.0822565E-2,-5.099448E-1,-2.9837496E0,-6.0719263E-2,-6.2216365E-1,-5.5659987E-2,1.1415958E-2,-1.0291584E-1,1.0557067E0,3.3925802E-1,-4.1729808E-2,-2.005148E-2,-9.0323126E-1,-1.9796308E0,-2.6410428E-1,4.9259457E-1,-1.0492553E0,-7.3408514E-1,1.1602937E0,1.1004281E0,1.1004281E0,-5.767416E-1,1.0361426E0,5.38773E-1,-2.4873829E-2,3.7302308E-2,-1.0318621E-1,-4.7614793E-3,2.8958067E-2,-2.5274498E-2,-2.8021133E-2,-1.12327985E-1,3.1389885E-2,7.385501E-3,-9.822822E-3,-4.879675E-2,3.1447258E-2,1.0557985E-3,5.727164E-2,1.9754125E-2],"split_indices":[0,5,6,0,14,6,7,12,0,0,0,5,13,0,0,7,7,14,7,14,8,5,2,2,5,9,14,0,0,0,0,0,0,0,0,0,0,0,0,0,0,0,0],"split_type":[0,0,0,0,0,0,0,0,0,0,0,0,0,0,0,0,0,0,0,0,0,0,0,0,0,0,0,0,0,0,0,0,0,0,0,0,0,0,0,0,0,0,0],"sum_hessian":[3.96E2,5.7E1,3.39E2,1.5E1,4.2E1,1.1E1,3.28E2,1.7E1,2.5E1,1E0,1E1,1.26E2,2.02E2,1.4E1,3E0,1.16E2,1E1,1.34E2,6.8E1,1.9E1,9.7E1,5E0,5E0,1.21E2,1.3E1,5.2E1,1.6E1,3E0,1.6E1,2E0,9.5E1,2E0,3E0,1E0,4E0,8E1,4.1E1,1E0,1.2E1,4.3E1,9E0,1.3E1,3E0],"tree_param":{"num_deleted":"0","num_feature":"16","num_nodes":"43","size_leaf_vector":"1"}},{"base_weights":[1.8653113E-2,-1.1149672E0,1.8530713E-1,-7.443515E-2,-8.9530617E-1,-1.9820109E-1,4.714963E-1,-3.6500454E-2,-5.1781993E-2,-1.1063937E0,2.6678469E-2,5.782904E-1,1.5862106E-1,-6.062377E-1,-1.2958537E-1,-7.139356E-2,9.0240486E-2,4.9663734E-1,9.0174645E-1,-4.3897866E-3,1.7585118E-1,-8.516766E-2,-2.0685264E-1,6.159118E-1,-2.8156731E-2,2.7952427E-1,7.4024826E-1,4.809678E-1,6.1717838E-2,1.5219027E-1,1.9903684E-2,5.1683527E-3,-5.1704865E-2,-1.8450642E-2,3.4180433E-2,-9.974666E-2,1.8141667E-3,-4.1709796E-2,3.040249E-2,8.745642E-3,4.2352747E-2,2.8583253E-2,-2.1071911E-3,7.6396804E-4,1.0366643E-2],"categories":[],"categories_nodes":[],"categories_segments":[],"categories_sizes":[],"default_left":[0,0,0,0,0,0,0,0,0,0,0,0,0,0,0,0,0,0,0,0,0,0,0,0,0,0,0,0,0,0,0,0,0,0,0,0,0,0,0,0,0,0,0,0,0],"id":32,"left_children":[1,3,5,-1,7,9,11,-1,-1,13,15,17,19,21,-1,-1,23,25,27,-1,29,-1,31,33,35,37,39,41,-1,43,-1,-1,-1,-1,-1,-1,-1,-1,-1,-1,-1,-1,-1,-1,-1],"loss_changes":[7.369742E1,2.7719154E0,3.741046E1,0E0,3.2663345E-2,2.9847672E1,6.423847E0,0E0,0E0,1.9972576E1,1.1038435E1,3.3817825E0,2.3197436E-1,9.7256E0,0E0,0E0,7.112476E0,6.034233E0,3.3250637E0,0E0,1.918006E-1,0E0,4.7261887E0,1.652463E0,1.1985868E1,2.3923908E1,3.1728268E0,6.883192E-1,0E0,3.3656502E-1,0E0,0E0,0E0,0E0,0E0,0E0,0E0,0E0,0E0,0E0,0E0,0E0,0E0,0E0,0E0],"parents":[2147483647,0,0,1,1,2,2,4,4,5,5,6,6,9,9,10,10,11,11,12,12,13,13,16,16,17,17,18,18,20,20,22,22,23,23,24,24,25,25,26,26,27,27,29,29],"right_children":[2,4,6,-1,8,10,12,-1,-1,14,16,18,20,22,-1,-1,24,26,28,-1,30,-1,32,34,36,38,40,42,-1,44,-1,-1,-1,-1,-1,-1,-1,-1,-1,-1,-1,-1,-1,-1,-1],"split_conditions":[-1.6378256E0,1.424638E0,-6.0719263E-2,-7.443515E-2,-6.798919E-1,-1.1323242E0,1.1004281E0,-3.6500454E-2,-5.1781993E-2,-8.736156E-1,-1.3838916E0,1.0617385E0,-1.6196674E0,-9.3277675E-1,-1.2958537E-1,-7.139356E-2,-5.417512E-1,3.3925802E-1,-8.296329E-1,-4.3897866E-3,1.4146146E0,-8.516766E-2,-1.1433294E0,-1.1437017E0,-7.3408514E-1,9.8533285E-1,6.09921E-1,-2.7139625E-1,6.1717838E-2,-1.1725057E0,1.9903684E-2,5.1683527E-3,-5.1704865E-2,-1.8450642E-2,3.4180433E-2,-9.974666E-2,1.8141667E-3,-4.1709796E-2,3.040249E-2,8.745642E-3,4.2352747E-2,2.8583253E-2,-2.1071911E-3,7.6396804E-4,1.0366643E-2],"split_indices":[0,5,7,0,13,13,2,0,0,15,5,7,8,15,0,0,9,13,15,0,9,0,13,5,8,8,0,9,0,12,0,0,0,0,0,0,0,0,0,0,0,0,0,0,0],"split_type":[0,0,0,0,0,0,0,0,0,0,0,0,0,0,0,0,0,0,0,0,0,0,0,0,0,0,0,0,0,0,0,0,0,0,0,0,0,0,0,0,0,0,0,0,0],"sum_hessian":[3.88E2,4.9E1,3.39E2,1.6E1,3.3E1,1.45E2,1.94E2,1.8E1,1.5E1,2.8E1,1.17E2,1.44E2,5E1,2.2E1,6E0,4E0,1.13E2,1.17E2,2.7E1,3E0,4.7E1,5E0,1.7E1,2E1,9.3E1,6.3E1,5.4E1,1.3E1,1.4E1,4.4E1,3E0,1.3E1,4E0,1E0,1.9E1,2E0,9.1E1,1.4E1,4.9E1,9E0,4.5E1,1.1E1,2E0,1.3E1,3.1E1],"tree_param":{"num_deleted":"0","num_feature":"16","num_nodes":"45","size_leaf_vector":"1"}},{"base_weights":[-7.0406934E-3,-1.057987E0,1.6501015E-1,-7.112821E-2,-9.112711E-1,-1.6339313E0,2.6600054E-1,-7.254282E-1,-5.0431352E-2,-2.0094182E0,-5.48054E-1,4.371717E-1,-5.8691062E-2,-3.874415E-2,-1.7930781E-2,-7.1520644E-1,-1.1630807E-1,-5.4139048E-2,1.738E-2,1.4618821E-1,5.9228647E-1,-1.5897237E0,-1.60141E-2,-5.4049265E-2,9.553254E-3,2.120577E-1,-5.2977104E-2,1.1216078E0,4.6296534E-1,-9.5290676E-2,-2.393861E-2,1.6453914E-1,-4.191327E-1,-2.6907003E-2,1.3852226E-2,5.9322715E-2,1.1448304E-2,1.0315786E-2,3.917476E-2,2.7900978E-3,2.0634064E-2,-9.958407E-2,-1.2930418E-2],"categories":[],"categories_nodes":[],"categories_segments":[],"categories_sizes":[],"default_left":[0,0,0,0,0,0,0,0,0,0,0,0,0,0,0,0,0,0,0,0,0,0,0,0,0,0,0,0,0,0,0,0,0,0,0,0,0,0,0,0,0,0,0],"id":33,"left_children":[1,3,5,-1,7,9,11,13,-1,15,17,19,21,-1,-1,23,-1,-1,-1,25,27,29,31,-1,-1,33,-1,35,37,-1,-1,39,41,-1,-1,-1,-1,-1,-1,-1,-1,-1,-1],"loss_changes":[7.0692894E1,1.6455727E0,6.147769E1,0E0,2.8217316E-2,6.2379227E0,1.7754984E1,4.8645973E-2,0E0,3.6654358E0,3.249957E0,9.346809E0,7.227263E0,0E0,0E0,1.5325181E0,0E0,0E0,0E0,6.1018248E0,8.790264E0,1.4103031E-1,8.002461E0,0E0,0E0,3.6105485E0,0E0,1.2333488E0,8.969641E0,0E0,0E0,2.0276246E0,8.067633E0,0E0,0E0,0E0,0E0,0E0,0E0,0E0,0E0,0E0,0E0],"parents":[2147483647,0,0,1,1,2,2,4,4,5,5,6,6,7,7,9,9,10,10,11,11,12,12,15,15,19,19,20,20,21,21,22,22,25,25,27,27,28,28,31,31,32,32],"right_children":[2,4,6,-1,8,10,12,14,-1,16,18,20,22,-1,-1,24,-1,-1,-1,26,28,30,32,-1,-1,34,-1,36,38,-1,-1,40,42,-1,-1,-1,-1,-1,-1,-1,-1,-1,-1],"split_conditions":[-1.6378256E0,1.083446E0,-1.3689152E0,-7.112821E-2,-5.099448E-1,-9.9794954E-1,6.222837E-1,-7.094487E-1,-5.0431352E-2,-1.0625108E0,-1.1437017E0,-9.6441895E-1,-7.320624E-1,-3.874415E-2,-1.7930781E-2,-2.7429192E0,-1.1630807E-1,-5.4139048E-2,1.738E-2,1.3330988E0,-8.5680217E-1,-2.5635713E-1,-3.300363E-1,-5.4049265E-2,9.553254E-3,-1.0479296E0,-5.2977104E-2,9.086243E-1,1.8086052E-1,-9.5290676E-2,-2.393861E-2,-6.912508E-1,-5.4309064E-1,-2.6907003E-2,1.3852226E-2,5.9322715E-2,1.1448304E-2,1.0315786E-2,3.917476E-2,2.7900978E-3,2.0634064E-2,-9.958407E-2,-1.2930418E-2],"split_indices":[0,5,6,0,14,13,14,13,0,14,5,14,8,0,0,6,0,0,0,5,11,5,6,0,0,14,0,5,13,0,0,5,9,0,0,0,0,0,0,0,0,0,0],"split_type":[0,0,0,0,0,0,0,0,0,0,0,0,0,0,0,0,0,0,0,0,0,0,0,0,0,0,0,0,0,0,0,0,0,0,0,0,0,0,0,0,0,0,0],"sum_hessian":[3.89E2,5.4E1,3.35E2,1.3E1,4.1E1,1.7E1,3.18E2,1.7E1,2.4E1,1.2E1,5E0,2.08E2,1.1E2,1.4E1,3E0,3E0,9E0,3E0,2E0,7.3E1,1.35E2,2E0,1.08E2,2E0,1E0,7E1,3E0,2.5E1,1.1E2,1E0,1E0,7.5E1,3.3E1,5E0,6.5E1,2.3E1,2E0,6.2E1,4.8E1,5.3E1,2.2E1,2E0,3.1E1],"tree_param":{"num_deleted":"0","num_feature":"16","num_nodes":"43","size_leaf_vector":"1"}},{"base_weights":[1.1636987E-3,-1.0537136E0,1.486506E-1,-9.6457906E-2,-4.6220277E-2,-1.9792279E0,2.0784765E-1,-1.04144745E-1,-2.8747296E-2,2.5713146E-1,-1.2044346E0,3.942223E-1,-4.1987854E-3,-3.5776845E-1,-9.2518084E-2,4.9483967E-1,1.0556587E-1,-9.29084E-2,3.0494085E-2,1.3324213E-2,-2.6795793E-2,1.2646851E-2,3.4498878E-2,-6.257733E-2,7.739292E-3,2.4658341E-2,-2.8137192E-3],"categories":[],"categories_nodes":[],"categories_segments":[],"categories_sizes":[],"default_left":[0,0,0,0,0,0,0,0,0,0,0,0,0,0,0,0,0,0,0,0,0,0,0,0,0,0,0],"id":34,"left_children":[1,3,5,-1,-1,7,9,-1,-1,11,13,15,17,19,-1,21,23,-1,25,-1,-1,-1,-1,-1,-1,-1,-1],"loss_changes":[5.834377E1,3.4239655E0,4.1853584E1,0E0,0E0,1.1264801E-1,2.2652138E1,0E0,0E0,1.1143536E1,5.353731E0,5.8727074E0,7.00317E0,8.1006706E-1,0E0,6.9533386E0,3.8007627E0,0E0,4.323311E0,0E0,0E0,0E0,0E0,0E0,0E0,0E0,0E0],"parents":[2147483647,0,0,1,1,2,2,5,5,6,6,9,9,10,10,11,11,12,12,13,13,15,15,16,16,18,18],"right_children":[2,4,6,-1,-1,8,10,-1,-1,12,14,16,18,20,-1,22,24,-1,26,-1,-1,-1,-1,-1,-1,-1,-1],"split_conditions":[-1.6378256E0,-4.343141E-1,-1.3783058E0,-9.6457906E-2,-4.6220277E-2,1.1127505E0,1.083446E0,-1.04144745E-1,-2.8747296E-2,7.528331E-1,-1.9796308E0,1.1004281E0,-7.3408514E-1,1.1602937E0,-9.2518084E-2,-2.516179E-3,-7.890025E-1,-9.29084E-2,-5.5001533E-1,1.3324213E-2,-2.6795793E-2,1.2646851E-2,3.4498878E-2,-6.257733E-2,7.739292E-3,2.4658341E-2,-2.8137192E-3],"split_indices":[0,5,5,0,0,13,5,0,0,14,7,2,8,5,0,4,5,0,8,0,0,0,0,0,0,0,0],"split_type":[0,0,0,0,0,0,0,0,0,0,0,0,0,0,0,0,0,0,0,0,0,0,0,0,0,0,0],"sum_hessian":[3.73E2,4.5E1,3.28E2,4E0,4.1E1,8E0,3.2E2,7E0,1E0,3.1E2,1E1,2.03E2,1.07E2,5E0,5E0,1.5E2,5.3E1,1E0,1.06E2,1E0,4E0,6.8E1,8.2E1,1E0,5.2E1,1.6E1,9E1],"tree_param":{"num_deleted":"0","num_feature":"16","num_nodes":"27","size_leaf_vector":"1"}},{"base_weights":[-3.450299E-2,-9.813099E-1,1.1104851E-1,-8.8578336E-2,-4.403224E-2,-1.3851539E0,1.9281861E-1,-1.5217606E0,2.3429036E-2,2.2777228E-1,-8.3518904E-1,-8.806353E-2,-7.891138E-1,3.6692297E-1,-2.4452828E-2,-5.687058E-2,-1.0915144E-1,1.410184E-2,-6.975992E-2,4.406836E-1,1.2945136E-1,-1.1065018E0,2.4953516E-2,2.6358414E-2,-2.5636379E-2,1.2102571E-2,3.156116E-2,5.4342016E-3,2.0928925E-2,-8.494019E-2,-7.2683017E-3,2.1494979E-2,-9.920042E-4],"categories":[],"categories_nodes":[],"categories_segments":[],"categories_sizes":[],"default_left":[0,0,0,0,0,0,0,0,0,0,0,0,0,0,0,0,0,0,0,0,0,0,0,0,0,0,0,0,0,0,0,0,0],"id":35,"left_children":[1,3,5,-1,-1,7,9,11,-1,13,15,-1,17,19,21,23,-1,-1,-1,25,27,29,31,-1,-1,-1,-1,-1,-1,-1,-1,-1,-1],"loss_changes":[5.4819214E1,2.656105E0,4.2475975E1,0E0,0E0,5.2712555E0,1.1976138E1,1.5932541E0,0E0,1.1169912E1,1.1415383E1,0E0,4.288744E0,3.5337448E0,6.1220613E0,2.400199E0,0E0,0E0,0E0,5.7513885E0,2.547273E-1,2.5994644E0,2.0038183E0,0E0,0E0,0E0,0E0,0E0,0E0,0E0,0E0,0E0,0E0],"parents":[2147483647,0,0,1,1,2,2,5,5,6,6,7,7,9,9,10,10,12,12,13,13,14,14,15,15,19,19,20,20,21,21,22,22],"right_children":[2,4,6,-1,-1,8,10,12,-1,14,16,-1,18,20,22,24,-1,-1,-1,26,28,30,32,-1,-1,-1,-1,-1,-1,-1,-1,-1,-1],"split_conditions":[-1.6378256E0,-4.343141E-1,-1.3689152E0,-8.8578336E-2,-4.403224E-2,1.9198463E0,1.0557067E0,3.6222696E-1,2.3429036E-2,5.5022824E-1,-1.2921408E0,-8.806353E-2,-1.3186939E0,1.1004281E0,1.7394419E-1,-2.0141938E0,-1.0915144E-1,1.410184E-2,-6.975992E-2,-2.516179E-3,6.884136E-1,8.805084E-2,-1.805238E-1,2.6358414E-2,-2.5636379E-2,1.2102571E-2,3.156116E-2,5.4342016E-3,2.0928925E-2,-8.494019E-2,-7.2683017E-3,2.1494979E-2,-9.920042E-4],"split_indices":[0,5,6,0,0,14,5,5,0,15,11,0,11,2,11,7,0,0,0,4,5,6,10,0,0,0,0,0,0,0,0,0,0],"split_type":[0,0,0,0,0,0,0,0,0,0,0,0,0,0,0,0,0,0,0,0,0,0,0,0,0,0,0,0,0,0,0,0,0],"sum_hessian":[3.96E2,5.2E1,3.44E2,4E0,4.8E1,1.7E1,3.27E2,1.6E1,1E0,3.17E2,1E1,1.1E1,5E0,2.04E2,1.13E2,7E0,3E0,2E0,3E0,1.55E2,4.9E1,4E0,1.09E2,3E0,4E0,7.7E1,7.8E1,4.7E1,2E0,2E0,2E0,1E1,9.9E1],"tree_param":{"num_deleted":"0","num_feature":"16","num_nodes":"33","size_leaf_vector":"1"}},{"base_weights":[3.7068794E-3,-9.700541E-1,1.5350528E-1,-9.2042364E-2,-8.382495E-1,-8.6531276E-1,2.5192288E-1,-5.035884E-2,-3.6803145E-2,-4.6914842E-2,-1.9319166E0,3.8939524E-1,1.9840486E-2,-1.0716836E0,3.224251E-1,-2.131396E0,-2.7825985E-2,1.8017104E-1,5.169154E-1,-2.2803487E-1,1.8598765E-1,-5.9605E-2,-1.4750469E-2,2.5046721E-2,-2.4908185E-1,-3.1206524E-2,-1.1098548E-1,7.351005E-1,1.4683925E-1,3.8715076E-1,1.110227E0,-9.279396E-2,-9.875838E-1,1.0642876E-1,4.7060832E-1,-2.4122E-2,1.1274815E-2,9.095931E-3,4.2942747E-2,-3.1009493E-2,9.458831E-3,5.142865E-3,3.186597E-2,6.049943E-2,2.7449626E-2,1.8905198E-2,-1.3902999E-2,-1.0938073E-2,-5.3963035E-2,7.27483E-3,-1.605812E-2,2.4560442E-2,4.555035E-3],"categories":[],"categories_nodes":[],"categories_segments":[],"categories_sizes":[],"default_left":[0,0,0,0,0,0,0,0,0,0,0,0,0,0,0,0,0,0,0,0,0,0,0,0,0,0,0,0,0,0,0,0,0,0,0,0,0,0,0,0,0,0,0,0,0,0,0,0,0,0,0,0,0],"id":36,"left_children":[1,3,5,-1,7,9,11,-1,-1,13,15,17,19,21,23,25,-1,27,29,31,33,-1,-1,-1,35,-1,-1,37,39,41,43,45,47,49,51,-1,-1,-1,-1,-1,-1,-1,-1,-1,-1,-1,-1,-1,-1,-1,-1,-1,-1],"loss_changes":[5.68915E1,4.4251823E0,3.4109123E1,0E0,6.997299E-2,2.6096556E1,9.850889E0,0E0,0E0,7.158323E0,2.3805618E0,5.0828476E0,4.8197308E0,1.15940094E-1,1.5530441E0,7.884216E-2,0E0,1.2793176E0,8.809074E0,4.7362967E0,1.535001E0,0E0,0E0,0E0,5.517751E-1,0E0,0E0,1.1759329E-1,2.4554522E0,7.0465784E0,5.1150894E-1,3.6820328E0,2.5728178E-1,9.822113E-1,7.252121E-2,0E0,0E0,0E0,0E0,0E0,0E0,0E0,0E0,0E0,0E0,0E0,0E0,0E0,0E0,0E0,0E0,0E0,0E0],"parents":[2147483647,0,0,1,1,2,2,4,4,5,5,6,6,9,9,10,10,11,11,12,12,13,13,14,14,15,15,17,17,18,18,19,19,20,20,24,24,27,27,28,28,29,29,30,30,31,31,32,32,33,33,34,34],"right_children":[2,4,6,-1,8,10,12,-1,-1,14,16,18,20,22,24,26,-1,28,30,32,34,-1,-1,-1,36,-1,-1,38,40,42,44,46,48,50,52,-1,-1,-1,-1,-1,-1,-1,-1,-1,-1,-1,-1,-1,-1,-1,-1,-1,-1],"split_conditions":[-1.6378256E0,-4.343141E-1,-1.8882922E0,-9.2042364E-2,-9.779508E-1,-1.9733722E0,5.5022824E-1,-5.035884E-2,-3.6803145E-2,-1.1437017E0,-1.4837059E0,-7.703251E-1,-9.9726185E-2,-1.7391475E0,1.2776203E0,-1.5630165E0,-2.7825985E-2,-1.1856914E0,-3.775752E-2,1.8527538E0,2.0700386E0,-5.9605E-2,-1.4750469E-2,2.5046721E-2,-1.9854177E0,-3.1206524E-2,-1.1098548E-1,5.700497E-1,-1.7035521E0,2.0791517E-1,1.707744E0,-6.4912987E-1,-4.761172E-1,7.515391E-1,5.271457E-1,-2.4122E-2,1.1274815E-2,9.095931E-3,4.2942747E-2,-3.1009493E-2,9.458831E-3,5.142865E-3,3.186597E-2,6.049943E-2,2.7449626E-2,1.8905198E-2,-1.3902999E-2,-1.0938073E-2,-5.3963035E-2,7.27483E-3,-1.605812E-2,2.4560442E-2,4.555035E-3],"split_indices":[0,5,7,0,7,7,15,0,0,5,9,15,9,5,5,8,0,13,5,15,15,0,0,0,7,0,0,5,7,13,7,8,9,10,9,0,0,0,0,0,0,0,0,0,0,0,0,0,0,0,0,0,0],"split_type":[0,0,0,0,0,0,0,0,0,0,0,0,0,0,0,0,0,0,0,0,0,0,0,0,0,0,0,0,0,0,0,0,0,0,0,0,0,0,0,0,0,0,0,0,0,0,0,0,0,0,0,0,0],"sum_hessian":[3.88E2,5.1E1,3.37E2,5E0,4.6E1,2.9E1,3.08E2,1.4E1,3.2E1,1.7E1,1.2E1,1.93E2,1.15E2,4E0,1.3E1,1E1,2E0,7.4E1,1.19E2,4.6E1,6.9E1,3E0,1E0,1E1,3E0,1E0,9E0,3E0,7.1E1,9.9E1,2E1,4E1,6E0,5.5E1,1.4E1,2E0,1E0,1E0,2E0,3E0,6.8E1,4.7E1,5.2E1,1.6E1,4E0,1.1E1,2.9E1,1E0,5E0,5.1E1,4E0,1.3E1,1E0],"tree_param":{"num_deleted":"0","num_feature":"16","num_nodes":"53","size_leaf_vector":"1"}},{"base_weights":[-4.9927298E-2,-9.4813347E-1,1.1179249E-1,-9.9706195E-2,-4.0717717E-2,-1.2676395E0,1.773329E-1,-1.4216975E0,2.2229314E-2,-2.9216167E-1,2.6948646E-1,-8.72107E-2,-8.5000765E-1,-1.1953328E0,-1.7064704E-1,3.897753E-1,5.26622E-2,8.546687E-3,-1.0486535E0,-8.4940635E-2,-1.2558205E-1,3.7755737E-1,-3.4864163E-1,-2.6380518E-2,4.2096153E-1,1.05068244E-1,-7.4220544E-1,-1.4381707E-2,-5.7166528E-2,1.7048598E-3,-1.1123515E-2,7.7292286E-3,2.0334674E-2,-5.9711915E-2,-1.02811055E-2,1.49739E-2,4.3007933E-2,3.0227015E-3,1.8233567E-2,-4.172032E-2,-7.0300223E-3],"categories":[],"categories_nodes":[],"categories_segments":[],"categories_sizes":[],"default_left":[0,0,0,0,0,0,0,0,0,0,0,0,0,0,0,0,0,0,0,0,0,0,0,0,0,0,0,0,0,0,0,0,0,0,0,0,0,0,0,0,0],"id":37,"left_children":[1,3,5,-1,-1,7,9,11,-1,13,15,-1,17,19,21,23,25,-1,27,-1,29,31,33,-1,35,37,39,-1,-1,-1,-1,-1,-1,-1,-1,-1,-1,-1,-1,-1,-1],"loss_changes":[5.6175472E1,6.6320496E0,2.987879E1,0E0,0E0,4.5887985E0,1.3664129E1,1.0987148E0,0E0,5.5029426E0,6.8389187E0,0E0,1.5988913E0,3.0182467E0,4.7177706E0,5.0571594E0,4.03529E0,0E0,1.0344505E-1,0E0,5.3998727E-2,1.5090227E-2,4.108165E0,0E0,8.492655E0,1.0203332E0,2.154932E-1,0E0,0E0,0E0,0E0,0E0,0E0,0E0,0E0,0E0,0E0,0E0,0E0,0E0,0E0],"parents":[2147483647,0,0,1,1,2,2,5,5,6,6,7,7,9,9,10,10,12,12,13,13,14,14,15,15,16,16,18,18,20,20,21,21,22,22,24,24,25,25,26,26],"right_children":[2,4,6,-1,-1,8,10,12,-1,14,16,-1,18,20,22,24,26,-1,28,-1,30,32,34,-1,36,38,40,-1,-1,-1,-1,-1,-1,-1,-1,-1,-1,-1,-1,-1,-1],"split_conditions":[-1.6378256E0,-1.3806154E0,-1.3689152E0,-9.9706195E-2,-4.0717717E-2,-1.09102465E-1,4.7984302E-2,-9.9794954E-1,2.2229314E-2,1.7394419E-1,1.2203469E0,-8.72107E-2,-2.9837496E0,8.805084E-2,-5.0290656E-1,-1.0479296E0,1.9579482E0,8.546687E-3,-2.9359026E0,-8.4940635E-2,2.263457E-1,-7.548258E-1,-4.0179425E-1,-2.6380518E-2,4.9447578E-1,7.3584646E-1,-1.1857892E0,-1.4381707E-2,-5.7166528E-2,1.7048598E-3,-1.1123515E-2,7.7292286E-3,2.0334674E-2,-5.9711915E-2,-1.02811055E-2,1.49739E-2,4.3007933E-2,3.0227015E-3,1.8233567E-2,-4.172032E-2,-7.0300223E-3],"split_indices":[0,6,6,0,0,9,0,13,0,11,4,0,6,6,9,14,6,0,6,0,6,6,9,0,6,6,12,0,0,0,0,0,0,0,0,0,0,0,0,0,0],"split_type":[0,0,0,0,0,0,0,0,0,0,0,0,0,0,0,0,0,0,0,0,0,0,0,0,0,0,0,0,0,0,0,0,0,0,0,0,0,0,0,0,0],"sum_hessian":[3.85E2,5.8E1,3.27E2,5E0,5.3E1,1.4E1,3.13E2,1.3E1,1E0,5.1E1,2.62E2,7E0,6E0,5E0,4.6E1,1.68E2,9.4E1,1E0,5E0,3E0,2E0,1.1E1,3.5E1,5E0,1.63E2,8.9E1,5E0,1E0,4E0,1E0,1E0,2E0,9E0,4E0,3.1E1,1.29E2,3.4E1,7.7E1,1.2E1,4E0,1E0],"tree_param":{"num_deleted":"0","num_feature":"16","num_nodes":"41","size_leaf_vector":"1"}},{"base_weights":[-2.8895307E-2,-9.111114E-1,1.06915735E-1,-9.555177E-2,-7.6407623E-1,-3.6503127E-1,1.8819752E-1,-4.213562E-2,-2.9528365E-2,-9.777261E-3,-1.7850696E0,3.2595554E-1,-7.5424686E-2,-9.9186075E-1,1.5417491E-1,-3.0299544E-2,-1.0020452E-1,6.73231E-1,2.540136E-1,-1.5236313E0,-1.4927249E-2,-6.45433E-2,-2.5982082E-2,-8.3297245E-2,2.5377676E-1,2.8875333E-1,4.9774524E-2,7.801387E-2,4.6559638E-1,-8.751545E-2,-2.108996E-2,-8.389774E-1,3.8977407E-2,6.1782463E-3,4.312699E-2,-2.8031373E-2,1.9137694E-2,1.0767188E-2,-3.6541943E-2,1.5578562E-2,4.2524163E-2,-3.8127543E-3,-7.8814074E-2,1.1242686E-2,-6.8046832E-3],"categories":[],"categories_nodes":[],"categories_segments":[],"categories_sizes":[],"default_left":[0,0,0,0,0,0,0,0,0,0,0,0,0,0,0,0,0,0,0,0,0,0,0,0,0,0,0,0,0,0,0,0,0,0,0,0,0,0,0,0,0,0,0,0,0],"id":38,"left_children":[1,3,5,-1,7,9,11,-1,-1,13,15,17,19,21,23,-1,-1,25,27,29,31,-1,-1,-1,33,35,-1,37,39,-1,-1,41,43,-1,-1,-1,-1,-1,-1,-1,-1,-1,-1,-1,-1],"loss_changes":[4.6705326E1,6.1850777E0,1.3034612E1,0E0,1.4359283E-1,2.5206263E1,1.0519929E1,0E0,0E0,6.7545233E0,1.3679619E0,4.5758896E0,8.738535E0,1.7638779E-1,6.9491196E0,0E0,0E0,3.6773977E0,5.8845997E0,